svm_type c_svc
kernel_type rbf
gamma 0.000100563
nr_class 3
total_sv 4065
rho 0.885665 0.778223 -0.972579
label 2 3 1
probA -161.704 -87.2359 -19.6805
probB -159.444 -85.5503 17.6565
nr_sv 654 1773 1638
SV
1 1 1:0 2:0 3:26 4:0 5:1 6:0 7:1 8:1 9:1 10:1 11:1 12:1 13:1 14:1 15:1 16:1 17:1 18:1 19:1 20:1 21:1 22:1 23:1 24:1 25:1 26:1 27:1 28:1 29:1 30:1 31:1 32:1 
1 1 1:0 2:0 3:13 4:0 5:1 6:0 13:1 20:2 28:1 33:1 34:1 35:1 36:1 37:1 38:1 39:1 40:1 41:1 
1 1 1:0 2:0 3:12 4:0 5:1 6:0 7:1 14:1 36:1 38:1 42:1 43:1 44:1 45:1 46:1 47:1 48:1 49:1 
1 1 1:0 2:0 3:11 4:0 5:1 6:0 7:1 14:1 19:1 33:2 50:1 51:1 52:1 53:1 54:1 55:1 
1 1 1:0 2:2 3:5 4:0 5:1 6:2.2952333 7:1 14:1 32:1 56:1 57:1 58:1 59:1 60:1 
1 1 1:0 2:0 3:7 4:0 5:1 6:1 14:1 31:1 47:1 48:1 64:1 518:1 633:1 915:1 
1 1 1:0 2:1 3:18 4:0 5:1 6:6.2474667 7:1 8:1 13:1 14:1 20:1 24:1 26:1 31:1 64:1 66:1 69:1 105:1 116:1 158:1 482:1 501:1 583:1 829:1 900:1 916:1 917:1 918:1 919:1 920:1 921:1 922:1 923:1 
1 1 1:0 2:2 3:7 4:0 5:1 6:5.4210333 24:2 31:1 33:1 58:1 68:2 70:1 878:1 924:1 925:1 926:1 927:1 928:1 929:1 
1 1 1:0 2:0 3:3 4:0 5:1 6:1.625 28:1 246:1 311:1 930:1 931:1 
1 1 1:0 2:2 3:9 4:0 5:1 6:6.1916667 24:1 28:1 64:1 68:1 116:1 159:1 223:1 246:1 523:1 571:1 928:1 932:1 933:1 934:1 935:1 936:1 
1 1 1:0 2:2 3:9 4:0 5:1 6:6.1916667 24:1 28:1 64:1 68:1 116:1 159:1 223:1 246:1 523:1 571:1 928:1 932:1 933:1 934:1 935:1 936:1 
1 1 1:0 2:0 3:9 4:0 5:1 6:3.6074 7:2 9:1 14:1 24:1 105:1 134:1 159:1 644:1 918:1 937:1 938:1 939:1 940:1 941:1 
1 1 1:0 2:2 3:15 4:1 5:0 6:6.4265 24:2 33:2 101:1 150:1 198:1 241:1 262:1 270:1 456:1 473:1 891:1 896:1 924:1 942:1 943:1 944:1 945:1 946:1 947:1 948:1 949:1 950:1 
1 1 1:0 2:2 3:14 4:1 5:0 6:6.4265 24:2 33:1 101:1 150:1 198:1 241:1 262:1 270:1 456:1 473:1 891:1 896:1 924:1 942:1 943:1 944:1 945:1 946:1 947:1 948:1 949:1 950:1 
1 1 1:0 2:2 3:6 4:0 5:1 6:4.1733 7:1 47:1 64:1 68:1 109:1 112:1 638:2 1208:1 1209:1 1210:1 1211:1 
1 1 1:0 2:1 3:5 4:0 5:1 6:2.7344 24:1 69:1 852:1 900:1 1212:1 1213:1 1214:1 1215:1 1216:1 
1 1 1:1 2:1 3:2 4:0 5:1 6:1.8154667 58:1 109:1 1217:1 1218:1 
1 1 1:0 2:0 3:16 4:0 5:1 6:4.0553333 7:1 14:1 26:1 28:1 31:1 33:1 47:1 64:1 69:1 71:1 72:1 81:1 82:1 120:1 150:1 610:1 1023:1 2003:1 2820:1 2821:1 2822:1 
1 1 1:0 2:1 3:8 4:0 5:1 6:2.8972333 7:1 24:1 82:1 97:1 103:1 104:1 111:1 213:1 870:1 2142:1 2520:1 2823:1 
1 1 1:0 2:1 3:13 4:0 5:1 6:2.2158667 7:1 20:1 24:1 59:1 64:1 72:1 82:1 83:1 116:1 198:1 342:1 1812:1 2824:1 2825:1 2826:1 2827:1 
1 1 1:0 2:0 3:10 4:0 5:1 6:2.0325 7:2 24:1 33:1 66:1 68:1 82:1 101:1 103:1 104:1 258:1 370:1 2824:1 
1 1 1:0 2:1 3:15 4:0 5:1 6:8.7875333 13:1 14:1 19:1 24:1 44:1 66:1 68:2 82:1 85:1 103:1 104:1 107:1 112:1 149:1 518:1 546:1 547:1 615:1 1044:1 1167:1 1198:2 1956:1 2828:1 2829:1 2830:1 
1 1 1:0 2:1 3:15 4:0 5:1 6:6.6473 14:1 24:2 33:1 58:1 64:2 68:1 82:1 159:2 213:1 491:1 547:1 915:1 945:1 2799:1 2827:1 2831:1 2832:1 2833:1 2834:1 2835:1 2836:1 2837:1 
1 1 1:0 2:1 3:15 4:0 5:1 6:6.6473 14:1 24:2 33:1 58:1 64:2 68:1 82:1 159:2 213:1 491:1 547:1 915:1 945:1 2799:1 2827:1 2831:1 2832:1 2833:1 2834:1 2835:1 2836:1 2837:1 
1 1 1:0 2:0 3:15 4:0 5:1 6:3.0497667 20:2 37:2 38:1 57:1 64:2 66:1 72:1 82:1 85:2 116:1 1033:1 2820:2 2838:1 
1 1 1:0 2:0 3:5 4:0 5:1 6:1.6444333 14:1 57:1 69:1 82:1 205:1 2839:1 2840:1 
1 1 1:0 2:1 3:17 4:0 5:1 6:2.7177 7:1 14:1 19:1 20:2 26:1 31:1 33:1 42:1 63:1 85:1 103:1 158:1 198:1 643:1 829:2 2841:1 2842:1 2843:1 2844:1 
1 1 1:0 2:0 3:15 4:0 5:1 6:5.0810667 7:3 13:1 14:2 28:1 33:1 68:1 82:1 140:1 150:1 171:1 546:1 612:1 1756:1 2845:1 2846:1 2847:1 2848:1 2849:1 2850:1 
1 1 1:0 2:1 3:17 4:0 5:1 6:6.9087 7:2 13:1 14:1 20:2 24:1 82:1 107:1 109:1 198:1 201:1 241:1 742:1 752:1 816:1 875:1 1145:1 1744:1 2851:1 2852:1 2853:1 2854:1 2855:1 2856:1 2857:1 2858:1 
1 1 1:0 2:0 3:5 4:0 5:1 6:0.93333333 7:1 14:1 28:1 57:1 135:1 2859:1 
1 1 1:0 2:0 3:14 4:0 5:1 6:3.4490667 13:2 14:1 27:1 28:1 31:1 57:1 62:1 66:1 69:1 81:1 134:1 630:1 832:1 869:1 2860:1 2861:1 2862:1 2863:1 
1 1 1:0 2:0 3:7 4:0 5:1 6:3.7341 14:1 57:1 69:1 198:1 213:1 314:1 513:1 583:1 2022:1 2840:1 2864:1 2865:1 
1 1 1:0 2:0 3:5 4:0 5:1 6:3.6211667 14:1 66:1 69:2 94:1 119:1 135:1 1534:1 2866:1 2867:1 
1 1 1:0 2:1 3:19 4:0 5:1 6:6.0674333 7:2 13:1 19:1 20:2 28:1 44:1 46:1 49:1 57:1 63:1 64:2 68:1 147:1 572:1 684:1 821:1 939:1 979:1 1274:1 2868:1 2869:1 2870:1 2871:1 2872:1 
1 1 1:0 2:0 3:10 4:0 5:1 6:2.9239333 20:2 33:1 57:1 113:1 119:1 130:1 140:1 147:1 233:1 886:1 2873:1 2874:1 2875:1 
1 1 1:0 2:0 3:4 4:0 5:1 6:1.7844 14:1 33:1 41:1 57:1 69:1 1665:1 2876:1 
1 1 1:1 2:1 3:12 4:0 5:1 6:5.9372333 14:2 20:1 57:1 64:2 69:1 94:1 103:1 124:1 158:1 198:1 248:1 519:1 1200:1 1223:1 1812:1 2877:1 2878:1 2879:1 
1 1 1:0 2:0 3:8 4:0 5:1 6:2.8563333 7:1 14:2 57:1 66:1 68:1 85:1 147:1 159:1 1198:1 2031:1 2880:1 
1 1 1:1 2:1 3:10 4:0 5:1 6:4.905 7:1 14:1 19:1 24:1 33:1 52:1 66:1 69:1 107:1 370:1 546:1 909:1 942:1 1771:1 2458:1 2881:1 2882:1 
1 1 1:0 2:0 3:6 4:0 5:1 6:2.0654667 14:1 33:2 52:1 139:1 159:1 2883:1 2884:1 2885:1 
1 1 1:0 2:1 3:14 4:0 5:1 6:3.2640333 20:2 24:1 33:1 47:1 52:1 57:1 59:1 69:2 71:1 147:1 151:1 188:1 213:1 832:1 978:2 1176:1 
1 1 1:0 2:2 3:9 4:0 5:1 6:6.1505333 14:1 20:1 24:1 33:1 52:1 66:1 68:2 85:1 101:1 416:1 491:1 928:1 929:1 1211:1 2886:1 2887:1 2888:1 
1 1 1:0 2:0 3:13 4:0 5:1 6:1.2963 14:1 31:1 33:1 52:1 69:1 107:1 124:1 134:1 1011:1 2003:1 2520:1 2823:1 2889:1 2890:1 2891:1 
1 1 1:0 2:2 3:22 4:0 5:1 6:4.3313333 7:2 14:1 28:1 31:1 33:1 52:1 57:1 72:4 107:1 113:1 535:1 542:2 936:1 1744:1 2031:1 2824:1 2888:1 2892:1 2893:1 2894:1 2895:1 2896:1 
1 1 1:0 2:0 3:17 4:0 5:1 6:5.5021 7:2 14:2 28:1 33:1 36:1 44:1 57:1 64:1 66:1 69:2 89:1 94:1 123:1 467:1 486:1 583:1 885:1 950:1 1181:1 1845:1 2897:1 2898:1 
1 1 1:0 2:0 3:15 4:0 5:1 6:4.8037333 20:3 24:1 28:1 33:1 36:1 57:1 66:1 69:1 135:1 213:1 457:1 491:1 513:1 524:1 638:1 1515:1 2899:1 2900:1 2901:1 2902:1 2903:1 
1 1 1:0 2:0 3:12 4:0 5:1 6:2.1296333 20:1 33:1 36:1 42:1 107:1 148:1 241:1 285:1 583:1 638:2 1625:1 2904:1 2905:1 2906:1 
1 1 1:1 2:0 3:14 4:0 5:1 6:0.93056667 7:1 14:1 20:1 28:1 30:1 31:1 36:1 66:1 72:1 94:1 107:1 125:1 467:1 829:1 2907:1 
1 1 1:0 2:0 3:9 4:0 5:1 6:2.6277667 7:1 14:1 19:1 33:1 37:1 68:1 150:1 613:1 1202:1 2591:1 2908:1 2909:1 
1 1 1:0 2:2 3:7 4:0 5:1 6:3.8297 33:1 37:1 57:1 81:1 94:1 153:1 896:1 933:1 1215:1 2910:1 2911:1 2912:1 
1 1 1:0 2:0 3:11 4:0 5:1 6:3.8009333 7:1 24:1 33:1 36:1 46:1 47:1 113:2 139:1 140:1 198:1 518:1 610:1 984:1 1163:1 2913:1 2914:1 
1 1 1:0 2:0 3:11 4:0 5:1 6:1.4 7:1 24:1 33:1 36:1 57:1 81:1 101:1 546:1 583:1 829:1 2915:1 2916:1 2917:1 
1 1 1:0 2:0 3:4 4:0 5:1 6:4.1547333 69:2 127:1 151:1 158:1 241:1 419:1 2733:1 2918:1 2919:1 2920:1 
1 1 1:0 2:2 3:22 4:0 5:1 6:6.1551333 7:3 14:1 28:2 33:1 42:1 81:1 107:1 127:1 165:1 198:1 213:2 301:1 370:1 870:1 875:1 1198:1 2514:1 2809:2 2888:1 2921:1 2922:1 2923:1 2924:1 2925:1 
1 1 1:0 2:2 3:10 4:0 5:1 6:7.1662 13:1 14:1 100:1 119:1 127:1 315:1 370:1 378:1 592:1 600:1 874:1 875:1 896:1 1260:1 1415:1 2858:1 2879:1 2922:1 2926:1 
1 1 1:0 2:2 3:16 4:0 5:1 6:6.1448667 7:1 9:1 13:1 14:2 19:1 20:2 24:1 33:1 57:1 64:1 66:1 69:1 141:1 239:1 430:1 716:1 942:1 1227:1 2830:1 2927:1 2928:1 2929:1 
1 1 1:0 2:2 3:15 4:0 5:1 6:6.6686667 7:1 9:1 13:1 14:2 19:1 20:2 57:1 64:1 66:1 69:1 141:1 239:1 430:1 716:1 902:1 942:1 1227:1 2830:1 2927:1 2928:1 2929:1 2930:1 
1 1 1:1 2:2 3:13 4:0 5:1 6:5.9844 7:1 14:1 20:2 33:1 69:1 107:1 291:1 370:1 832:2 1026:1 1044:1 2212:1 2478:1 2886:1 2931:1 2932:1 2933:1 2934:1 2935:1 
1 1 1:0 2:0 3:3 4:0 5:1 6:3.6778 14:1 33:1 68:1 79:1 124:1 153:1 524:1 2936:1 2937:1 
1 1 1:0 2:1 3:4 4:0 5:1 6:1.4762 7:1 14:1 59:1 124:1 2031:1 2938:1 
1 1 1:0 2:2 3:8 4:0 5:1 6:3.7228667 7:1 13:1 24:1 33:1 69:1 85:1 94:1 97:1 107:1 124:1 1450:1 2833:1 2939:1 
1 1 1:0 2:0 3:16 4:0 5:1 6:2.0423333 7:1 14:2 44:1 64:2 66:2 69:1 94:1 101:1 124:1 467:1 535:1 572:1 2898:1 2940:1 2941:1 2942:1 
1 1 1:0 2:0 3:8 4:0 5:1 6:0.91003333 7:1 15:1 119:1 127:1 2840:1 2943:1 2944:1 2945:1 
1 1 1:0 2:0 3:15 4:0 5:1 6:1.0444333 7:1 19:1 20:1 26:1 33:1 36:1 37:1 38:1 40:1 46:1 63:1 81:1 116:1 931:1 2946:1 2947:1 
1 1 1:1 2:0 3:16 4:0 5:1 6:2.2805 14:1 37:1 52:1 53:1 72:1 94:1 95:1 119:1 125:1 198:1 213:1 1756:1 2537:1 2826:1 2928:1 2948:1 2949:1 
1 1 1:0 2:0 3:10 4:0 5:1 6:3.6111 33:2 57:1 66:1 81:1 150:2 553:1 830:1 832:1 984:1 1287:1 1502:1 2950:1 
1 1 1:0 2:0 3:13 4:0 5:1 6:4.0211667 7:1 13:1 20:1 57:1 69:1 74:2 111:1 248:1 276:2 291:1 542:1 1070:1 1185:1 2824:1 2951:1 2952:1 2953:1 
1 1 1:0 2:0 3:7 4:0 5:1 6:3.6592667 24:1 31:1 57:1 63:1 68:1 72:1 82:1 253:1 745:1 888:1 986:1 2173:1 2838:1 
1 1 1:0 2:0 3:9 4:0 5:1 6:1.0555333 14:1 20:1 33:1 64:1 129:1 172:1 276:1 315:1 931:1 2954:1 
1 1 1:0 2:0 3:13 4:0 5:1 6:3.1476 7:1 9:1 13:2 14:1 64:1 68:1 82:1 105:1 111:1 131:2 213:1 937:1 940:1 2830:1 2955:1 2956:1 2957:1 
1 1 1:0 2:1 3:15 4:0 5:1 6:5.2683667 20:1 21:1 28:1 30:1 31:1 66:1 82:1 583:1 731:1 991:1 1088:1 1115:1 2537:1 2958:1 2959:1 2960:1 2961:1 2962:1 2963:1 2964:1 2965:1 
1 1 1:0 2:1 3:10 4:0 5:1 6:2.6515 14:1 31:1 77:1 107:1 213:1 1044:1 1400:1 2031:1 2915:1 2966:1 2967:1 2968:1 2969:1 
1 1 1:0 2:1 3:7 4:0 5:1 6:1.9124667 14:1 31:1 57:1 69:1 94:1 124:1 979:1 2820:1 2970:1 
1 1 1:0 2:0 3:16 4:0 5:1 6:0.75 7:1 8:1 14:1 33:1 64:1 85:1 123:2 124:1 212:1 276:1 2824:1 2971:1 2972:1 2973:1 2974:1 2975:1 
1 1 1:0 2:2 3:9 4:0 5:1 6:5.1322667 13:1 14:2 28:1 33:1 44:1 72:1 113:1 124:1 139:1 311:1 328:1 860:1 863:1 908:1 2459:1 2976:1 
1 1 1:1 2:0 3:17 4:0 5:1 6:5.4474333 7:1 13:1 14:1 20:2 28:1 33:1 64:1 66:1 68:1 69:1 124:1 150:1 205:1 246:1 612:1 1202:1 2143:1 2520:1 2823:1 2858:1 2942:1 2977:1 2978:1 2979:1 
1 1 1:1 2:1 3:6 4:0 5:1 6:2.4102667 24:1 33:1 59:1 124:1 886:1 1744:1 2980:1 2981:1 
1 1 1:1 2:0 3:8 4:0 5:1 6:0.93406667 7:1 24:1 64:1 124:1 165:1 276:1 546:1 2982:1 2983:1 
1 1 1:1 2:0 3:16 4:0 5:1 6:2.2805 14:1 37:1 52:1 53:1 72:1 94:1 95:1 119:1 125:1 198:1 213:1 1756:1 2537:1 2826:1 2928:1 2948:1 2949:1 
1 1 1:0 2:0 3:16 4:0 5:1 6:0 14:1 15:1 20:1 24:1 28:1 66:1 72:1 125:1 198:1 213:1 546:1 1215:1 1513:1 2826:1 2879:1 2984:1 
1 1 1:0 2:0 3:11 4:0 5:1 6:0 15:2 81:1 94:1 389:1 439:1 752:1 1163:1 2957:1 2985:1 2986:1 
1 1 1:0 2:0 3:14 4:0 5:1 6:4.2890333 7:1 20:1 28:1 44:1 57:1 64:1 66:1 72:1 81:1 105:1 139:1 351:1 546:1 555:1 830:1 888:1 2987:1 2988:1 2989:1 2990:1 
1 1 1:0 2:0 3:12 4:0 5:1 6:1.4 13:1 14:2 33:1 36:1 66:1 82:1 276:1 752:1 832:1 1755:2 2991:1 2992:1 
1 1 1:0 2:0 3:4 4:0 5:1 6:0.5 14:1 94:1 315:1 2424:1 2886:1 
1 1 1:0 2:0 3:5 4:0 5:1 6:1.4583333 33:1 57:1 63:1 1266:1 2830:1 2993:1 2994:1 
1 1 1:0 2:2 3:12 4:0 5:1 6:4.7665333 14:2 31:2 52:1 59:1 69:1 72:1 107:1 124:1 546:1 613:1 1115:1 2173:1 2752:1 2995:1 2996:1 2997:1 
1 1 1:0 2:0 3:4 4:0 5:1 6:0.7436 33:1 36:1 1215:1 2870:1 2998:1 
1 1 1:0 2:0 3:10 4:0 5:1 6:0.56666667 7:1 14:1 26:1 36:1 37:1 64:1 68:1 72:1 125:1 1215:1 2824:1 
1 1 1:0 2:1 3:6 4:0 5:1 6:4.3485667 19:1 24:1 33:1 42:1 59:1 127:1 150:2 875:1 1200:1 2999:1 3000:1 
1 1 1:0 2:0 3:10 4:0 5:1 6:2.1308 7:1 24:1 33:1 52:1 63:1 69:1 107:1 124:1 258:1 2910:1 2911:1 3001:1 
1 1 1:0 2:0 3:7 4:0 5:1 6:3.8913667 7:1 28:1 33:1 64:1 69:1 82:1 158:1 214:1 830:1 832:1 984:1 2459:1 3002:1 
1 1 1:0 2:1 3:5 4:0 5:1 6:2.8805333 7:1 56:1 82:1 94:1 228:1 430:1 1198:1 1920:1 
1 1 1:0 2:1 3:12 4:0 5:1 6:1.873 42:1 57:1 59:1 64:1 66:1 111:1 117:1 620:1 2879:1 3003:1 3004:1 3005:1 3006:1 3007:1 
1 1 1:0 2:2 3:14 4:0 5:1 6:6.0774 7:2 33:1 46:1 57:1 63:1 68:1 81:1 112:1 132:1 165:1 198:1 242:1 292:1 463:1 600:1 719:1 879:1 1215:1 1385:1 2826:1 3008:1 3009:1 
1 1 1:0 2:1 3:4 4:0 5:1 6:2.1521333 7:1 33:1 57:1 457:1 1215:1 2142:1 3010:1 
1 1 1:0 2:0 3:10 4:0 5:1 6:5.2962667 13:1 20:1 26:1 28:1 57:1 58:1 69:1 134:1 159:1 165:1 1325:1 1771:1 3011:1 3012:1 3013:1 3014:1 3015:1 3016:1 
1 1 1:0 2:0 3:12 4:0 5:1 6:0.85713333 14:1 24:1 26:1 33:1 52:1 105:1 119:1 315:1 940:1 1592:1 1625:1 3017:1 
1 1 1:0 2:0 3:14 4:0 5:1 6:5.8646333 31:1 33:1 52:1 66:1 69:1 158:1 159:1 297:1 506:1 560:1 1580:1 1637:1 1813:1 2520:1 2823:1 3018:1 3019:1 3020:1 3021:1 3022:1 3023:1 3024:1 
1 1 1:1 2:0 3:10 4:0 5:1 6:1.5245667 14:1 20:1 30:1 31:1 33:1 52:1 631:1 869:1 1857:1 3025:1 3026:1 
1 1 1:0 2:0 3:11 4:0 5:1 6:2.5428667 7:1 20:1 24:1 52:1 64:1 370:1 546:1 832:1 876:1 2830:1 3027:1 3028:1 3029:1 
1 1 1:0 2:1 3:11 4:0 5:1 6:7.2276333 7:1 13:1 14:1 20:1 31:2 33:1 36:1 68:1 72:1 150:1 213:1 291:1 408:1 688:1 908:1 1812:1 2590:1 2810:1 2846:1 2888:1 3030:1 
1 1 1:3 2:0 3:11 4:0 5:1 6:3.1789667 7:2 24:1 63:1 64:1 107:1 816:1 876:1 888:1 2824:1 2835:1 3026:1 3031:1 3032:1 
1 1 1:0 2:0 3:10 4:0 5:1 6:1.5809667 7:1 28:1 31:2 36:1 106:1 165:1 168:1 829:1 2502:1 3033:1 3034:1 
1 1 1:0 2:2 3:18 4:0 5:1 6:5.177 7:1 8:1 14:1 24:2 85:1 103:1 109:1 172:1 198:1 387:1 576:1 612:1 829:1 856:1 2520:4 2823:4 2988:1 3422:1 
1 1 1:0 2:1 3:18 4:0 5:1 6:5.3710333 7:3 13:1 14:1 19:1 31:1 33:1 58:1 66:1 68:1 120:1 150:1 610:1 918:1 1026:1 1197:1 1437:1 3422:1 3423:1 3424:1 3425:1 3426:1 3427:1 
1 1 1:0 2:1 3:15 4:0 5:1 6:6.1304333 7:2 14:1 19:1 20:1 21:1 24:1 69:1 94:1 103:1 140:1 159:1 228:1 247:1 439:1 463:1 937:1 1939:1 2303:1 2824:1 2930:1 3044:1 3422:1 3428:1 3429:1 
1 1 1:0 2:0 3:10 4:0 5:1 6:4.2240667 14:2 19:1 33:1 68:1 69:1 113:1 931:1 1284:1 1357:1 2910:1 3422:1 3430:1 3431:1 3432:1 3433:1 
1 1 1:0 2:0 3:11 4:0 5:1 6:7.9269667 7:2 24:1 28:2 33:1 58:1 68:1 79:1 94:1 150:1 158:1 159:1 457:1 518:1 610:1 633:1 831:1 929:1 1505:1 1994:1 2824:1 3434:1 3435:1 
1 1 1:0 2:0 3:3 4:0 5:1 6:0.58333333 14:1 576:1 3436:1 3437:1 
1 1 1:0 2:0 3:6 4:0 5:1 6:1.9682333 7:1 14:1 159:1 305:1 633:1 2824:1 3438:1 3439:1 3440:1 
1 1 1:0 2:1 3:16 4:0 5:1 6:7.5744333 7:1 20:2 24:1 31:1 64:2 66:1 69:1 71:1 158:1 305:1 433:1 613:1 633:1 640:1 809:1 963:2 1013:1 1127:1 1382:1 1637:1 2424:1 3102:1 3441:1 3442:1 
1 1 1:0 2:1 3:4 4:0 5:1 6:2.8471 46:1 66:1 134:1 633:1 674:1 778:1 1208:1 3443:1 
1 1 1:1 2:1 3:6 4:0 5:1 6:2.3305667 7:1 94:1 150:1 633:1 972:1 979:1 1168:1 3444:1 
1 1 1:0 2:0 3:6 4:0 5:1 6:4.3452333 14:1 20:1 24:1 63:1 150:1 159:1 576:2 633:1 1468:1 2810:1 3129:1 3445:1 
1 1 1:0 2:0 3:19 4:0 5:1 6:4.7545 19:1 33:1 47:1 95:1 101:1 112:1 113:1 165:1 248:1 612:1 830:1 876:1 913:1 918:1 1637:1 2410:1 2520:2 2823:2 2824:2 3446:2 3447:1 
1 1 1:1 2:0 3:10 4:0 5:1 6:2.2837333 26:2 31:1 33:2 106:1 118:1 213:1 546:1 724:1 918:1 1085:1 1502:1 
1 1 1:0 2:1 3:13 4:0 5:1 6:5.7420667 7:1 14:1 24:1 28:1 33:2 36:1 85:1 113:1 241:1 576:1 903:1 918:1 940:1 1262:1 1281:1 1468:1 2618:2 3448:1 3449:1 
1 1 1:1 2:0 3:14 4:0 5:1 6:1.4305667 7:1 24:1 33:1 103:1 116:1 131:1 270:1 473:1 829:1 918:1 3228:1 3450:1 3451:2 3452:1 3453:1 
1 1 1:0 2:0 3:15 4:0 5:1 6:2.6777667 14:1 19:1 20:1 33:1 47:1 72:1 130:1 213:1 479:1 583:1 891:1 918:1 962:1 2752:1 3454:1 3455:1 3456:1 3457:1 
1 1 1:0 2:1 3:9 4:0 5:1 6:2.2762 14:1 101:1 108:2 165:1 918:1 1504:1 1771:1 2380:1 3407:1 3458:1 3459:1 
1 1 1:0 2:1 3:14 4:0 5:1 6:4.0141667 7:1 20:1 44:1 113:1 198:1 228:1 370:1 605:1 832:1 918:1 954:1 1561:1 1637:1 2520:1 2823:1 2886:1 3460:1 3461:1 3462:1 3463:1 
1 1 1:1 2:2 3:5 4:0 5:1 6:5.8254 33:1 109:1 131:1 139:1 536:1 587:1 921:1 933:1 1271:1 2635:1 3464:1 3465:1 3466:1 
1 1 1:0 2:0 3:5 4:0 5:1 6:0.6 9:1 20:1 30:1 830:1 918:1 964:1 
1 1 1:0 2:1 3:6 4:0 5:1 6:2.1238 31:1 59:1 64:1 165:1 719:1 829:1 830:1 943:1 3467:1 
1 1 1:0 2:0 3:12 4:0 5:1 6:3.9591 7:1 19:1 24:1 31:1 33:1 42:1 47:1 478:1 633:1 719:1 829:1 903:1 918:1 2173:1 3072:1 3128:1 3468:1 3469:1 3470:1 
1 1 1:0 2:1 3:9 4:0 5:1 6:0.8 14:1 24:1 829:1 832:1 918:2 2830:1 3471:1 3472:1 3473:1 
1 1 1:0 2:0 3:9 4:0 5:1 6:5.9909 14:1 19:1 20:1 26:1 33:1 34:1 57:1 68:1 69:1 71:1 370:1 491:1 547:1 633:1 984:1 1681:1 1755:1 2424:1 3474:1 
1 1 1:0 2:0 3:14 4:0 5:1 6:3.3497667 7:1 28:1 31:1 33:1 66:2 68:1 101:1 165:1 328:1 633:1 829:1 832:1 1731:1 2810:1 2938:1 3000:1 3475:1 3476:1 
1 1 1:0 2:1 3:11 4:0 5:1 6:0.92593333 7:2 19:1 27:1 28:1 546:1 829:1 830:1 832:1 918:1 1385:1 3477:1 
1 1 1:0 2:0 3:4 4:0 5:1 6:1.7065667 14:1 69:1 258:1 550:1 918:1 2867:1 
1 1 1:0 2:2 3:7 4:0 5:1 6:5.4210333 24:2 31:1 33:1 58:1 68:2 70:1 878:1 924:1 925:1 926:1 927:1 928:1 929:1 
1 1 1:0 2:0 3:9 4:0 5:1 6:5.9909 14:1 19:1 20:1 26:1 33:1 34:1 57:1 68:1 69:1 71:1 370:1 491:1 547:1 633:1 984:1 1681:1 1755:1 2424:1 3474:1 
1 1 1:0 2:0 3:10 4:0 5:1 6:6.7969667 31:1 101:2 111:1 144:1 270:1 323:1 462:1 517:1 963:1 986:1 987:1 2867:1 3478:1 3479:1 3480:1 3481:1 3482:1 3483:1 3484:1 
1 1 1:1 2:0 3:7 4:0 5:1 6:1.8686 19:1 24:1 97:1 576:1 633:1 921:1 3034:1 3485:1 3486:1 
1 1 1:0 2:0 3:5 4:0 5:1 6:3.4956 20:1 69:1 159:1 246:1 633:1 786:1 1380:1 2311:1 3487:1 3488:1 
1 1 1:0 2:0 3:18 4:0 5:1 6:7.0451667 7:1 8:1 20:3 24:1 33:1 66:1 69:1 88:1 119:1 159:1 198:1 419:1 1039:1 1268:1 1437:1 1670:1 1812:1 3489:1 3490:1 3491:1 3492:1 3493:2 3494:1 3495:1 3496:1 
1 1 1:0 2:0 3:16 4:0 5:1 6:7.3317667 7:2 24:1 33:1 44:1 66:1 68:1 72:1 89:1 92:1 113:1 132:1 206:1 241:2 546:1 549:1 576:1 826:1 918:1 924:1 1624:1 2520:1 2823:1 3497:1 3498:1 3499:1 
1 1 1:0 2:1 3:9 4:0 5:1 6:3.7014667 26:1 33:1 101:1 113:1 205:1 206:1 311:1 611:1 633:1 847:1 1258:1 3500:1 3501:1 3502:1 3503:1 
1 1 1:0 2:0 3:6 4:0 5:1 6:0.45833333 7:1 33:1 546:1 633:1 1026:1 3504:1 
1 1 1:0 2:0 3:10 4:0 5:1 6:2.23 31:1 47:1 105:1 158:1 439:1 816:1 943:1 1200:1 2003:1 3375:1 3502:1 3505:1 3506:1 
1 1 1:0 2:0 3:12 4:0 5:1 6:5.1341333 14:1 50:1 64:1 66:2 68:1 71:1 159:1 311:1 576:1 818:1 940:1 1513:1 1581:1 2810:1 2886:1 3468:1 3507:1 3508:1 3509:1 3510:1 
1 1 1:0 2:0 3:4 4:0 5:1 6:1.1288 28:1 33:1 129:1 158:1 576:1 3082:1 
1 1 1:0 2:2 3:11 4:0 5:1 6:6.6063667 19:1 28:2 59:1 66:1 68:1 100:2 115:4 600:2 939:1 1221:1 1222:1 1466:1 1667:1 2252:1 2937:1 
1 1 1:0 2:0 3:4 4:0 5:1 6:1.5196667 7:1 68:1 871:1 1221:1 1222:1 3847:1 
1 1 1:0 2:0 3:12 4:0 5:1 6:2.2437333 20:1 26:1 33:1 68:1 119:1 146:1 431:1 816:1 1221:1 1222:1 3848:1 3849:1 3850:1 3851:1 3852:1 
1 1 1:0 2:1 3:14 4:0 5:1 6:5.4567 7:1 14:2 21:1 31:1 44:1 66:2 68:1 69:1 158:1 239:1 733:1 821:1 919:1 1215:1 1221:1 1222:1 1357:1 1559:1 3441:1 3853:1 
1 1 1:0 2:0 3:2 4:0 5:1 6:3.8259333 68:1 69:2 70:1 71:1 2813:1 2993:1 3854:1 
1 1 1:0 2:0 3:5 4:0 5:1 6:2.6428333 20:1 159:1 542:1 1251:1 2252:1 3855:1 3856:1 3857:1 3858:1 
1 1 1:0 2:2 3:11 4:0 5:1 6:7.9084667 24:1 25:1 33:1 58:1 66:1 72:1 137:1 158:1 457:1 852:1 876:1 1146:1 1212:1 1213:1 1214:1 1216:1 1220:1 1260:1 2121:1 2988:1 3859:1 3860:1 3861:1 
1 1 1:0 2:0 3:7 4:0 5:1 6:4.3404667 33:1 68:1 198:1 482:1 547:1 852:1 1211:1 1212:1 1213:1 1214:1 1625:1 2988:1 3484:1 3862:1 
1 1 1:0 2:0 3:13 4:0 5:1 6:2.0416667 7:1 31:1 101:1 829:1 830:1 852:1 1212:1 1213:1 1214:1 1227:1 2810:1 3863:1 3864:1 3865:1 3866:1 3867:1 
1 1 1:0 2:5 3:8 4:0 5:1 6:10.8831 24:1 64:1 101:1 105:1 109:1 116:1 150:1 456:1 751:1 1201:1 1208:1 1209:1 1216:1 1220:1 2002:1 2363:1 2537:1 2801:1 3779:1 3868:1 3869:1 3870:1 
1 1 1:0 2:3 3:8 4:0 5:1 6:4.6455333 7:1 14:1 24:2 25:1 58:1 64:1 1208:1 1209:1 1216:1 3461:1 3871:1 3872:1 3873:1 
1 1 1:0 2:1 3:7 4:0 5:1 6:5.6057 7:1 28:1 31:1 64:1 68:1 69:1 246:1 829:1 832:1 1208:1 1209:1 1559:1 2635:1 3874:1 3875:1 
1 1 1:0 2:3 3:6 4:0 5:1 6:4.3709 7:1 33:1 68:1 69:1 115:1 878:1 937:1 1220:1 2606:1 2813:1 2888:1 3876:1 
1 1 1:0 2:0 3:8 4:0 5:1 6:2.2843667 13:1 20:1 33:3 158:1 752:1 1228:1 1229:1 1843:1 3341:1 
1 1 1:0 2:1 3:10 4:0 5:1 6:3.6002333 7:1 26:1 31:1 63:1 66:1 68:1 119:1 158:1 1221:1 1222:1 1227:1 2508:1 3877:1 3878:1 3879:1 
1 1 1:0 2:1 3:18 4:0 5:1 6:3.5407667 7:2 24:1 33:1 64:1 68:1 101:1 115:4 150:1 832:1 937:1 1207:1 1220:1 1221:1 1222:1 2824:1 2871:1 2917:1 3009:1 3880:1 
1 1 1:0 2:2 3:7 4:0 5:1 6:4.0708 7:1 31:1 50:1 64:1 69:1 71:1 821:1 829:1 832:1 1208:1 1209:1 1216:1 1227:1 
1 1 1:0 2:1 3:4 4:0 5:1 6:2.0333333 33:1 335:1 752:1 831:1 832:1 2976:1 3881:1 
1 1 1:0 2:1 3:3 4:0 5:1 6:2.0333333 335:1 752:1 831:1 832:1 2976:1 3881:1 
1 1 1:0 2:1 3:15 4:0 5:1 6:7.1375333 7:2 8:3 31:1 44:1 66:1 103:1 116:1 134:1 829:1 830:1 832:1 1217:1 1304:1 1672:1 1812:1 2143:1 2987:1 3069:1 3882:1 3883:1 3884:1 3885:1 3886:1 
1 1 1:0 2:1 3:10 4:0 5:1 6:1.6607 8:1 24:1 31:1 66:1 101:1 119:1 213:1 1217:1 2896:1 3887:1 3888:1 
1 1 1:0 2:1 3:3 4:0 5:1 6:1.5201667 33:1 198:1 896:1 1217:1 2988:1 
1 1 1:0 2:2 3:4 4:0 5:1 6:4.7665333 7:1 24:1 88:1 583:1 1216:1 2022:1 2252:1 2824:1 3009:1 3889:1 3890:1 
1 1 1:0 2:0 3:9 4:0 5:1 6:0 14:1 15:1 33:1 198:1 227:1 510:1 891:1 4366:1 4367:1 
1 1 1:0 2:0 3:23 4:0 5:1 6:0 11:1 14:1 15:1 24:1 64:1 72:1 105:1 115:2 116:1 165:1 307:1 355:1 550:2 821:1 940:1 978:1 2862:2 2990:1 4368:1 4369:1 
1 1 1:0 2:0 3:9 4:0 5:1 6:0 7:1 14:1 33:1 44:1 52:1 53:1 212:1 4370:1 4371:1 
1 1 1:1 2:0 3:17 4:0 5:1 6:0 7:1 13:1 24:1 33:1 52:1 198:1 610:1 638:1 1625:1 2862:1 3269:1 3758:1 4372:1 4373:1 4374:1 4375:1 4376:1 
1 1 1:0 2:2 3:7 4:0 5:1 6:2.3095 14:1 21:1 24:1 34:1 57:1 72:1 2662:1 2888:1 3355:1 4377:1 
1 1 1:0 2:0 3:8 4:0 5:1 6:2.0873 7:1 14:1 33:1 44:1 57:1 301:1 370:1 1559:1 3759:1 4378:1 
1 1 1:1 2:0 3:6 4:0 5:1 6:2.1739333 69:1 852:1 1212:1 1213:1 1214:1 1756:1 4739:1 4740:1 
1 1 1:0 2:0 3:4 4:0 5:1 6:2.1830667 20:1 68:1 159:1 888:1 1644:1 2824:1 4741:1 4742:1 
1 1 1:1 2:2 3:13 4:0 5:1 6:9.0234 7:1 24:1 28:1 64:2 69:1 94:1 213:1 326:1 546:1 600:1 830:1 1208:1 1209:1 1561:1 2142:1 2252:1 2514:1 2810:1 2886:1 4217:1 4683:1 4743:1 4744:1 4745:1 4746:1 
1 1 1:0 2:0 3:4 4:0 5:1 6:1.1640333 7:1 33:1 101:1 2112:1 2813:1 2988:1 
1 1 1:0 2:0 3:15 4:0 5:1 6:8.2948333 30:1 33:1 66:1 68:1 69:1 82:1 111:1 117:1 491:1 594:1 724:1 832:1 900:1 1115:1 1194:1 2520:2 2823:2 2996:1 3304:1 3635:1 5591:2 5592:1 5593:1 5594:1 
1 1 1:0 2:0 3:14 4:0 5:1 6:3.9303667 7:1 28:1 31:1 33:1 58:1 82:1 107:1 113:1 134:1 158:1 370:1 471:1 978:1 1198:1 1215:1 1502:1 2804:1 3142:1 5595:1 5596:1 
1 1 1:0 2:1 3:14 4:0 5:1 6:2.984 7:2 8:1 24:1 33:1 46:1 57:1 66:1 68:1 81:1 82:1 546:1 640:1 829:1 875:1 1215:1 1524:1 3241:1 4388:1 
1 1 1:0 2:1 3:10 4:0 5:1 6:3.0846333 7:1 24:1 44:1 82:1 613:1 888:1 1559:1 2865:1 2888:1 3396:1 5597:1 5598:1 5599:1 5600:1 
1 1 1:1 2:1 3:11 4:0 5:1 6:5.5974667 20:1 33:1 63:1 69:1 82:1 125:1 241:1 247:1 257:1 305:1 583:1 638:1 751:1 1625:2 4728:1 5601:1 5602:1 5603:1 
1 1 1:0 2:1 3:15 4:0 5:1 6:6.6473 14:1 24:2 33:1 58:1 64:2 68:1 82:1 159:2 213:1 491:1 547:1 915:1 945:1 2799:1 2827:1 2831:1 2832:1 2833:1 2834:1 2835:1 2836:1 2837:1 
1 1 1:0 2:2 3:10 4:0 5:1 6:5.1137 7:1 14:1 20:1 33:1 57:1 58:2 68:1 82:1 107:1 301:1 307:1 508:1 888:1 2926:1 5604:1 5605:1 
1 1 1:0 2:0 3:4 4:0 5:1 6:1.1547667 33:1 82:1 165:1 419:1 2988:1 5606:1 
1 1 1:0 2:1 3:17 4:0 5:1 6:6.9087 7:2 13:1 14:1 20:2 24:1 82:1 107:1 109:1 198:1 201:1 241:1 742:1 752:1 816:1 875:1 1145:1 1744:1 2851:1 2852:1 2853:1 2854:1 2855:1 2856:1 2857:1 2858:1 
1 1 1:0 2:0 3:10 4:0 5:1 6:3.7773667 7:2 14:2 33:1 57:1 63:1 66:1 370:1 555:1 583:1 2031:1 2451:1 3976:1 5607:1 5608:1 
1 1 1:0 2:0 3:3 4:0 5:1 6:1.1111 14:1 57:1 69:1 2840:1 
1 1 1:0 2:1 3:7 4:0 5:1 6:4.3611 20:1 28:1 33:1 44:1 57:1 109:1 314:1 546:1 555:2 830:1 1559:1 2478:1 
1 1 1:0 2:0 3:6 4:0 5:1 6:1.1619 7:1 14:1 33:1 57:1 2031:1 2363:1 2537:1 
1 1 1:0 2:1 3:11 4:0 5:1 6:2.5773667 7:1 9:1 33:1 57:1 63:1 124:1 246:1 535:1 830:1 2888:1 2917:1 3506:1 5609:1 5610:1 
1 1 1:0 2:1 3:6 4:0 5:1 6:1.625 7:2 14:1 57:1 64:1 109:1 984:1 2031:1 
1 1 1:0 2:0 3:8 4:0 5:1 6:3.7685667 24:1 57:1 69:1 147:1 168:1 311:1 594:1 871:1 1485:1 2235:1 3034:1 3495:1 5611:1 
1 1 1:0 2:0 3:18 4:0 5:1 6:3.3682667 14:1 20:1 31:1 44:1 57:1 66:2 68:1 101:1 189:1 212:2 213:1 276:1 497:1 1400:1 2906:1 2962:1 5612:1 5613:1 5614:1 5615:1 5616:1 5617:1 
1 1 1:0 2:0 3:7 4:0 5:1 6:0 7:1 33:1 57:1 81:1 546:1 830:1 2957:1 
1 1 1:0 2:0 3:5 4:0 5:1 6:0.375 19:1 57:1 81:1 829:1 5618:1 
1 1 1:0 2:0 3:7 4:0 5:1 6:1.5231333 14:1 31:1 47:1 52:1 419:1 936:1 1261:1 5619:1 
1 1 1:0 2:0 3:7 4:0 5:1 6:1.2381 7:1 13:1 20:1 24:1 52:1 535:1 986:1 3428:1 4633:1 
1 1 1:1 2:0 3:15 4:0 5:1 6:3.3785 7:2 19:1 20:1 31:1 33:1 116:1 147:1 159:1 546:1 821:1 829:1 832:1 1559:1 2830:1 2886:1 3486:1 3566:1 5620:1 5621:1 
1 1 1:1 2:1 3:12 4:0 5:1 6:6.0129667 7:1 20:1 28:3 69:1 85:2 101:1 546:1 556:1 1287:1 1502:1 1744:1 2988:1 4745:1 5622:1 5623:1 5624:1 
1 1 1:0 2:0 3:11 4:0 5:1 6:2.1585667 14:1 20:1 30:1 31:1 52:1 113:1 124:1 158:1 213:1 986:1 2879:1 2928:1 2930:1 5625:1 
1 1 1:0 2:0 3:6 4:0 5:1 6:3.0046333 14:1 20:1 52:1 69:2 107:1 832:1 1287:1 2478:1 4456:1 
1 1 1:0 2:0 3:5 4:0 5:1 6:1.1111 14:1 33:1 52:1 69:1 117:1 2840:1 
1 1 1:0 2:1 3:7 4:0 5:1 6:1.8095333 14:1 52:1 165:1 213:1 2142:1 3502:1 5618:1 5626:1 5627:1 
1 1 1:0 2:0 3:11 4:0 5:1 6:0.5 7:2 14:1 24:1 28:1 33:1 44:1 52:1 57:1 370:1 2031:1 3218:1 
1 1 1:0 2:0 3:16 4:0 5:1 6:1.2963 14:1 31:1 33:2 52:1 69:1 107:1 124:1 134:1 1011:1 2003:1 2520:1 2823:1 2889:1 2890:2 2891:1 5628:1 
1 1 1:0 2:0 3:10 4:0 5:1 6:3.1274667 14:1 28:1 31:1 52:1 66:1 69:1 94:2 150:1 158:1 748:1 1906:1 2879:1 5629:1 5630:1 
1 1 1:0 2:2 3:12 4:0 5:1 6:4.5025 19:1 31:2 33:1 36:1 82:1 719:1 940:1 1213:1 1385:1 3333:1 5604:1 5606:1 5631:1 5632:1 5633:1 5634:1 5635:1 
1 1 1:0 2:0 3:4 4:0 5:1 6:0 36:1 113:1 2879:1 2991:1 
1 1 1:0 2:2 3:12 4:0 5:1 6:4.8460333 7:1 20:1 31:1 33:1 37:1 56:1 64:1 214:1 307:1 546:1 572:1 903:1 972:1 2003:1 2871:1 3379:1 5361:1 5636:1 
1 1 1:0 2:1 3:17 4:0 5:1 6:3.2215667 20:1 24:3 28:1 33:1 36:1 37:1 57:1 63:1 66:1 101:1 129:1 139:1 144:1 612:1 829:1 916:1 1260:1 1559:1 3249:1 4376:1 
1 1 1:0 2:1 3:10 4:0 5:1 6:3.5639 7:1 28:1 58:1 64:1 66:1 94:1 127:1 165:1 1184:1 1833:1 2130:1 2631:1 3759:1 5637:1 
1 1 1:0 2:0 3:7 4:0 5:1 6:3.5889 26:1 33:1 37:1 139:1 144:1 499:1 831:1 832:1 1177:1 2952:1 4208:1 5638:1 
1 1 1:0 2:0 3:6 4:0 5:1 6:1.7367667 20:1 24:1 69:1 159:1 576:1 2934:1 2935:1 3384:1 5639:1 
1 1 1:0 2:0 3:7 4:0 5:1 6:6.1999667 7:1 20:1 33:1 66:1 71:1 103:1 106:1 124:1 158:1 165:1 206:1 370:1 875:1 1261:1 3474:1 3869:1 5640:1 
1 1 1:0 2:0 3:14 4:0 5:1 6:1.7127 7:1 14:1 27:1 30:1 31:1 44:1 45:1 64:1 72:1 94:1 124:1 137:1 378:1 876:1 2173:1 5641:1 
1 1 1:0 2:0 3:11 4:0 5:1 6:6.7346667 14:3 30:1 31:1 68:1 94:1 105:1 124:1 491:1 547:1 831:1 939:1 1287:1 1559:1 2810:1 5642:1 5643:1 5644:1 5645:1 5646:1 
1 1 1:0 2:0 3:17 4:0 5:1 6:6.0146667 7:1 15:1 17:1 19:1 24:1 31:1 33:2 58:1 62:1 66:1 68:2 72:1 85:1 198:1 463:1 1015:1 1202:1 1513:1 3736:2 4473:1 5647:1 5648:1 5649:1 
1 1 1:0 2:0 3:10 4:0 5:1 6:2.5269333 14:1 15:1 24:1 66:1 158:1 870:1 1088:1 1443:1 2840:1 5650:1 5651:1 5652:1 5653:1 
1 1 1:0 2:1 3:17 4:0 5:1 6:3.6724333 14:2 15:1 20:1 24:1 28:1 64:1 66:1 72:1 107:1 158:1 159:1 198:1 1450:1 2022:1 2424:2 2554:1 2826:1 2898:1 3103:1 5654:1 
1 1 1:0 2:0 3:16 4:0 5:1 6:5.2620667 13:1 14:1 15:1 26:1 27:1 46:1 47:1 64:2 66:1 107:1 123:1 127:1 150:1 156:1 491:2 821:1 876:1 1247:1 3028:1 3110:1 3332:1 5655:1 
1 1 1:0 2:0 3:18 4:0 5:1 6:6.1359333 7:1 13:2 14:2 15:1 20:2 21:1 24:1 30:1 33:1 66:1 69:1 111:1 129:1 131:1 135:1 158:1 336:1 355:1 414:1 491:1 975:1 1088:1 3038:1 5656:1 
1 1 1:0 2:0 3:16 4:0 5:1 6:1.9213 7:1 33:1 36:1 37:1 38:1 66:1 129:1 315:1 491:1 546:1 686:1 891:1 908:1 2901:1 4373:1 5657:1 5658:1 5659:1 5660:1 
1 1 1:0 2:0 3:13 4:0 5:1 6:7.5108 7:3 14:1 20:1 31:2 33:1 44:1 52:1 53:1 68:1 97:1 159:1 205:1 547:1 888:1 1258:1 1467:1 1559:2 1581:1 3052:1 3844:1 5661:1 
1 1 1:0 2:0 3:8 4:0 5:1 6:3.1329667 19:1 20:1 31:1 44:1 52:1 53:1 63:1 103:1 198:1 239:1 492:1 518:1 1639:1 
1 1 1:0 2:1 3:11 4:0 5:1 6:4.5158333 7:2 14:1 20:1 53:1 54:1 56:1 68:1 158:1 159:1 307:1 462:1 2380:1 2458:1 5662:1 5663:1 5664:1 
1 1 1:1 2:0 3:10 4:0 5:1 6:7.3039 20:1 33:1 54:1 67:1 69:1 71:2 116:1 158:1 165:1 205:1 233:1 583:1 587:1 891:1 960:1 3435:1 5461:1 5665:1 5666:1 5667:1 
1 1 1:0 2:2 3:17 4:0 5:1 6:4.25 7:2 19:1 26:1 33:2 36:1 82:1 518:1 594:3 825:2 2824:1 2993:2 3359:1 3635:1 5668:1 5669:1 5670:1 
1 1 1:0 2:0 3:11 4:0 5:1 6:5.8229667 7:1 14:1 20:1 24:1 33:2 69:1 82:1 241:1 258:1 491:1 546:1 875:1 924:1 1145:1 1357:1 1561:1 1771:1 3218:1 3937:1 
1 1 1:0 2:0 3:11 4:0 5:1 6:0.51853333 13:1 108:2 124:1 165:1 1390:1 5671:1 5672:1 5673:1 5674:1 5675:1 5676:1 
1 1 1:0 2:1 3:11 4:0 5:1 6:4.5158333 7:2 14:1 20:1 53:1 54:1 56:1 68:1 158:1 159:1 307:1 462:1 2380:1 2458:1 5662:1 5663:1 5664:1 
1 1 1:0 2:1 3:10 4:0 5:1 6:4.2103333 7:1 20:1 24:1 33:1 57:1 59:1 72:1 107:1 198:1 370:1 542:1 731:1 1015:1 1771:1 2824:1 2857:1 
1 1 1:0 2:0 3:22 4:0 5:1 6:0 7:2 14:1 15:1 20:2 47:1 113:1 198:1 512:1 613:1 614:1 830:1 832:2 861:1 902:1 1667:1 2031:1 2957:1 3397:1 3435:1 
1 1 1:0 2:0 3:9 4:0 5:1 6:0 14:1 15:1 33:1 198:1 227:1 510:1 891:1 4366:1 4367:1 
1 1 1:0 2:0 3:9 4:0 5:1 6:1 7:1 20:1 28:1 57:1 147:1 150:1 471:1 2824:1 5677:1 5678:1 
1 1 1:0 2:1 3:7 4:0 5:1 6:2.5686333 13:1 14:1 31:1 33:1 57:1 158:1 311:1 869:1 940:1 1590:1 4443:1 
1 1 1:0 2:0 3:15 4:0 5:1 6:4.5407333 14:1 19:1 20:1 24:1 30:1 33:1 57:1 107:1 159:1 165:2 305:1 370:1 561:1 583:1 2031:1 2989:1 3397:1 5679:1 5680:1 5681:1 
1 1 1:0 2:0 3:15 4:0 5:1 6:4.2890333 7:1 20:1 28:1 33:1 44:1 57:1 64:1 66:1 72:1 81:1 105:1 139:1 351:1 546:1 555:1 830:1 888:1 2987:1 2988:1 2989:1 2990:1 
1 1 1:0 2:0 3:8 4:0 5:1 6:2.0873 7:1 14:1 33:1 44:1 57:1 301:1 370:1 1559:1 3759:1 4378:1 
1 1 1:0 2:1 3:8 4:0 5:1 6:5.3482333 31:1 33:1 58:1 64:1 82:1 131:1 139:1 165:1 583:1 1304:1 1504:1 2520:1 2823:1 3624:1 4828:1 5615:1 5682:1 
1 1 1:1 2:3 3:15 4:0 5:1 6:7.5136 7:1 14:1 24:1 31:1 66:1 82:1 101:2 125:1 150:1 161:1 205:1 246:1 311:1 508:1 614:1 875:1 2879:1 3069:1 3340:1 4332:1 4363:1 5683:1 5684:1 5685:1 
1 1 1:0 2:2 3:8 4:0 5:1 6:3.4873333 20:1 33:1 66:1 68:1 82:1 116:1 143:1 729:2 2830:1 2957:1 4231:1 5686:1 
1 1 1:0 2:0 3:14 4:0 5:1 6:2.25 7:2 13:1 14:1 81:1 82:1 83:1 97:1 107:1 159:1 752:1 984:1 1756:1 2003:1 2957:1 5687:1 5688:1 
1 1 1:0 2:2 3:11 4:0 5:1 6:11.858433 14:1 20:1 24:1 33:1 56:1 58:1 66:2 68:1 82:1 134:1 159:1 165:1 201:1 311:1 457:1 513:1 837:1 1146:1 1202:1 1260:1 1304:1 2554:1 2622:1 2799:1 2881:1 5689:1 5690:1 
1 1 1:0 2:0 3:7 4:0 5:1 6:0.43333333 28:1 57:1 821:1 2130:1 2829:1 5691:1 5692:1 
1 1 1:0 2:0 3:5 4:0 5:1 6:3.9997333 14:1 57:1 155:1 159:1 491:1 885:1 1088:1 1812:1 2130:1 2360:1 2874:1 
1 1 1:0 2:1 3:11 4:0 5:1 6:3.7129333 7:1 14:1 31:1 57:1 66:1 150:1 156:1 165:1 213:1 583:1 860:1 874:1 1415:1 3085:1 5693:1 5694:1 
1 1 1:0 2:1 3:6 4:0 5:1 6:3.0518667 14:1 57:1 134:1 147:1 198:1 1208:1 2996:1 5695:1 5696:1 5697:1 
1 1 1:0 2:0 3:17 4:0 5:1 6:5.4436333 14:2 31:2 44:1 57:1 66:2 75:1 85:1 97:1 101:1 103:1 158:1 246:1 276:1 583:1 875:1 2520:1 2823:1 3105:1 5698:1 5699:1 5700:1 5701:1 5702:1 
1 1 1:0 2:0 3:10 4:0 5:1 6:3.9782 14:2 28:1 30:1 36:1 47:1 57:1 97:1 107:1 238:1 467:1 584:1 876:1 903:1 3028:1 5703:1 
1 1 1:0 2:1 3:6 4:0 5:1 6:2.4160667 31:1 33:1 52:1 77:1 86:1 2946:1 5704:1 5705:1 5706:1 
1 1 1:0 2:0 3:25 4:0 5:1 6:2.6938 7:1 13:1 20:2 28:1 31:2 36:1 37:1 57:1 63:1 64:1 72:1 77:1 81:1 116:1 137:1 147:1 546:1 572:1 2003:1 2457:1 3057:1 3082:1 3217:1 5707:1 5708:1 5709:1 
1 1 1:0 2:1 3:3 4:0 5:1 6:2.3143 20:1 57:1 82:1 828:1 986:1 1115:1 
1 1 1:0 2:1 3:14 4:0 5:1 6:3.2019333 7:3 13:1 14:1 24:1 33:1 68:1 81:1 82:1 83:1 107:1 156:1 213:1 535:1 546:1 2888:1 3222:1 5710:1 
1 1 1:0 2:0 3:7 4:0 5:1 6:3.8913667 7:1 28:1 33:1 64:1 69:1 82:1 158:1 214:1 830:1 832:1 984:1 2459:1 3002:1 
1 1 1:0 2:1 3:11 4:0 5:1 6:3.5454667 7:2 19:1 28:2 57:1 72:1 124:1 134:1 158:1 773:1 933:1 2936:1 5711:1 5712:1 5713:1 
1 1 1:0 2:0 3:15 4:0 5:1 6:2.9694333 14:1 20:1 21:1 28:1 31:1 36:1 37:1 52:1 53:1 54:1 57:1 85:1 125:1 248:1 442:1 2752:1 3622:1 5618:1 
1 1 1:0 2:3 3:15 4:0 5:1 6:4.8370667 7:1 13:1 14:1 31:3 33:1 52:1 198:1 247:1 387:1 546:2 830:1 1208:1 1524:1 2888:1 5714:1 5715:1 5716:1 
1 1 1:1 2:1 3:14 4:0 5:1 6:6.6196333 7:2 20:1 28:1 36:1 37:1 66:1 68:1 71:1 125:1 158:1 198:1 311:1 546:1 611:1 832:1 1198:1 2886:1 3142:1 3355:1 3433:1 3968:1 5697:1 5717:1 
1 1 1:1 2:1 3:18 4:0 5:1 6:4.2205333 13:2 33:1 36:1 37:1 69:1 125:1 144:1 145:1 146:2 205:1 212:1 215:1 227:1 257:1 291:1 518:1 679:1 928:1 1011:1 4004:1 5718:1 5719:1 
1 1 1:1 2:0 3:14 4:0 5:1 6:2.278 7:1 14:1 24:1 28:1 33:1 36:1 66:1 69:1 104:1 159:1 198:1 238:1 546:1 869:1 2424:1 3218:1 5720:1 
1 1 1:0 2:0 3:10 4:0 5:1 6:4.3166667 13:1 28:1 33:1 36:1 44:1 57:1 113:1 366:1 518:1 614:1 752:1 875:2 1755:1 4223:1 5721:1 5722:1 
1 1 1:1 2:1 3:12 4:0 5:1 6:8.0745667 7:3 8:1 24:1 33:1 36:1 58:1 66:1 68:1 92:1 101:1 159:1 213:1 214:1 886:1 903:1 923:1 1139:1 1162:1 2112:1 3069:1 4206:1 5723:1 
1 1 1:0 2:0 3:7 4:0 5:1 6:2.9953667 14:1 31:1 101:1 127:1 165:1 291:1 888:1 936:1 2838:1 5724:1 5725:1 
1 1 1:0 2:0 3:15 4:0 5:1 6:7.5994667 7:1 20:1 31:2 33:1 58:2 64:1 66:1 68:3 70:1 71:1 81:1 101:1 576:1 821:1 863:1 917:1 1912:1 2812:1 2911:1 3261:1 3422:1 4663:1 4698:1 6011:1 
1 1 1:0 2:2 3:10 4:0 5:1 6:5.3345333 7:1 33:1 68:1 69:1 113:1 198:1 612:1 940:1 1013:1 1026:1 1146:1 3170:1 3238:1 3344:1 3422:1 3641:1 6017:1 
1 1 1:0 2:0 3:7 4:0 5:1 6:0.96213333 7:1 14:1 24:1 158:1 829:1 3422:1 3930:1 6018:1 
1 1 1:0 2:2 3:13 4:0 5:1 6:6.0834667 14:1 19:1 33:1 34:2 44:1 69:1 113:1 241:1 751:1 832:1 878:1 941:1 1210:1 3069:1 3422:1 4663:1 4707:1 4721:1 6019:1 6020:1 6021:1 
1 1 1:0 2:2 3:6 4:0 5:1 6:3.9907333 7:1 14:1 64:1 69:1 462:1 576:1 583:1 829:1 878:1 933:1 940:1 
1 1 1:0 2:0 3:2 4:0 5:1 6:1.9034333 69:1 85:1 633:1 3563:1 6022:1 
1 1 1:0 2:1 3:13 4:0 5:1 6:3.4047667 7:1 14:1 26:1 33:2 66:1 71:1 105:1 165:1 198:2 485:1 535:1 633:1 821:1 3290:1 6023:1 6024:1 
1 1 1:0 2:0 3:10 4:0 5:1 6:0.83836667 24:1 26:1 33:1 42:1 64:1 72:1 633:1 931:1 2820:1 6025:1 
1 1 1:1 2:3 3:18 4:0 5:1 6:6.4490667 7:1 14:1 20:1 28:1 101:1 134:1 159:1 198:1 213:2 370:1 491:1 633:1 634:1 635:1 832:1 1033:1 1196:1 1261:1 2142:1 2484:1 3007:1 4371:1 6026:1 6027:1 6028:1 
1 1 1:0 2:0 3:12 4:0 5:1 6:2.0416667 7:2 8:1 20:1 33:1 66:1 150:1 546:1 633:1 984:1 2822:1 3083:1 3513:1 3833:1 6029:1 
1 1 1:0 2:1 3:10 4:0 5:1 6:4.6739333 14:1 64:1 66:1 150:1 159:1 241:1 583:1 918:1 940:1 962:1 1744:1 3464:1 3889:1 6030:1 6031:1 6032:1 
1 1 1:1 2:0 3:9 4:0 5:1 6:7.7417333 7:1 24:1 31:1 68:1 69:1 85:1 159:1 205:1 612:1 918:1 962:1 972:1 1287:1 1508:2 2938:1 3806:1 5723:1 6033:1 6034:1 
1 1 1:0 2:2 3:9 4:0 5:1 6:3.8964333 7:1 21:1 24:1 28:1 94:1 97:1 119:1 576:1 752:1 918:1 1146:1 1755:1 2142:1 6035:1 
1 1 1:0 2:2 3:10 4:0 5:1 6:4.5019667 7:2 19:1 28:1 97:1 113:1 536:1 829:1 830:1 918:1 931:1 933:2 2810:1 3111:1 3716:1 
1 1 1:0 2:0 3:7 4:0 5:1 6:3.2653667 14:1 31:1 69:1 165:1 576:1 918:1 1771:1 2130:1 2424:1 2810:1 6001:1 
1 1 1:0 2:2 3:12 4:0 5:1 6:5.9443 7:1 26:1 31:1 66:1 85:1 88:1 150:1 158:1 181:1 891:1 918:1 1158:1 1159:1 2809:1 2988:1 4797:1 6036:1 6037:1 6038:1 6039:1 6040:1 
1 1 1:1 2:1 3:16 4:0 5:1 6:5.7013 7:1 19:1 31:1 33:1 72:1 144:2 165:1 595:1 831:1 918:1 1209:1 2490:1 2812:1 2865:1 3232:1 3238:1 3496:1 5992:1 6041:1 6042:1 6043:1 6044:1 6045:1 
1 1 1:0 2:0 3:7 4:0 5:1 6:1.6296333 13:1 19:1 24:1 33:1 69:1 72:1 918:1 931:1 6046:1 
1 1 1:0 2:0 3:13 4:0 5:1 6:7.9795 7:2 28:1 31:2 68:1 116:1 131:1 132:1 246:1 291:1 576:1 610:1 612:1 809:1 830:1 918:1 1287:1 2147:1 2459:1 3502:1 5773:1 6047:1 6048:1 6049:1 
1 1 1:1 2:3 3:17 4:0 5:1 6:5.4656 7:2 19:2 20:1 24:1 33:1 59:1 150:1 228:1 291:1 829:2 918:1 945:1 1515:1 1907:1 2888:1 2915:1 3716:1 3760:1 6050:1 6051:1 
1 1 1:0 2:2 3:16 4:0 5:1 6:6.9357 7:2 24:1 26:1 28:1 33:1 58:2 66:2 68:1 101:1 119:1 305:1 617:1 751:1 918:1 940:1 1204:1 2810:1 2896:1 3122:1 3545:1 6052:1 
1 1 1:0 2:0 3:11 4:0 5:1 6:2.1408667 28:1 66:1 198:1 246:1 918:1 931:1 963:1 1131:1 2520:2 2823:2 6053:1 6054:1 
1 1 1:0 2:1 3:10 4:0 5:1 6:6.2069 14:1 20:1 31:1 33:1 68:1 71:1 100:1 165:1 198:1 311:1 633:1 923:1 1524:1 1943:1 2446:1 2829:1 2840:1 2912:1 6055:1 
1 1 1:0 2:1 3:9 4:0 5:1 6:6.2069 14:1 20:1 31:1 68:1 71:1 100:1 165:1 198:1 311:1 633:1 923:1 1524:1 1943:1 2446:1 2829:1 2840:1 2912:1 6055:1 
1 1 1:0 2:0 3:6 4:0 5:1 6:3.5238 50:1 69:1 134:1 925:1 929:1 1162:1 1912:1 2990:1 6056:1 6057:1 6058:1 
1 1 1:0 2:0 3:4 4:0 5:1 6:3.6213 14:1 24:1 69:1 85:1 97:1 213:1 576:2 918:1 1088:1 
1 1 1:0 2:4 3:13 4:0 5:1 6:6.7949667 8:1 14:1 28:1 31:1 33:1 66:1 141:1 158:1 159:1 832:2 918:1 940:1 1184:1 1590:1 2520:1 2823:1 3296:1 4077:1 4321:1 5219:1 6059:1 
1 1 1:2 2:2 3:14 4:0 5:1 6:7.0201 24:2 113:2 117:1 148:1 435:1 612:1 617:1 917:1 932:2 1026:1 1284:1 2810:1 5605:2 6060:1 6061:1 6062:1 6063:1 
1 1 1:0 2:0 3:9 4:0 5:1 6:4.3681 24:1 66:1 69:1 81:1 158:1 457:1 489:1 633:1 931:1 962:1 989:1 1377:1 3259:1 6064:1 
1 1 1:0 2:1 3:13 4:0 5:1 6:3.1992333 7:1 20:2 33:1 59:1 116:1 311:1 633:1 829:1 918:1 1001:1 1009:1 1168:1 1513:1 1561:1 2947:1 3477:1 4663:1 
1 1 1:0 2:0 3:13 4:0 5:1 6:2.1078 8:1 24:2 33:1 97:1 159:2 198:1 918:1 1197:1 3088:1 3110:1 6065:1 6066:1 6067:1 6068:1 6069:1 
1 1 1:1 2:0 3:5 4:0 5:1 6:2.1083333 14:1 105:1 351:1 576:1 918:1 3259:1 6070:1 
1 1 1:3 2:1 3:14 4:0 5:1 6:4.4641333 14:2 20:1 69:1 101:1 205:1 355:1 396:1 633:1 1001:1 1129:1 1755:1 2212:1 2840:1 6071:1 6072:1 6073:1 6074:1 
1 1 1:0 2:0 3:20 4:0 5:1 6:5.0627 7:2 19:1 24:2 33:1 44:1 64:2 66:1 72:1 200:1 241:1 546:1 591:1 633:1 918:1 1010:1 1180:1 1581:1 1625:1 3241:1 3783:1 5605:1 6075:1 6076:1 6077:1 
1 1 1:0 2:2 3:7 4:0 5:1 6:5.4034333 7:2 14:1 64:1 159:1 324:1 430:1 888:2 1278:1 2809:1 2824:1 3816:1 6078:1 
1 1 1:0 2:0 3:11 4:0 5:1 6:3.5944667 7:2 13:1 20:1 33:1 66:2 68:1 576:1 583:1 610:1 832:1 941:1 2824:1 3110:1 5756:1 6079:1 
1 1 1:0 2:0 3:5 4:0 5:1 6:1.7083333 31:2 165:1 501:1 576:1 922:1 6080:1 
1 1 1:1 2:0 3:7 4:0 5:1 6:1.6912333 68:1 146:1 986:1 1221:1 1222:1 2197:1 2212:1 4217:1 6329:1 
1 1 1:0 2:0 3:7 4:0 5:1 6:1.0416667 13:1 64:1 305:1 1163:1 2795:1 2942:1 5711:1 6311:1 
1 1 1:0 2:0 3:13 4:0 5:1 6:5.3055333 7:1 13:1 20:1 31:1 66:1 68:2 101:1 112:1 148:1 486:1 821:1 1115:1 1221:1 1222:1 1227:1 1559:1 3670:1 4388:1 6330:1 
1 1 1:0 2:2 3:13 4:0 5:1 6:4.0071333 7:1 14:1 31:1 33:1 44:1 64:1 68:1 72:1 165:1 1221:1 1222:1 1223:1 1559:1 1648:1 2173:1 2984:1 2989:1 6331:1 
1 1 1:0 2:1 3:7 4:0 5:1 6:7.1115667 20:1 31:1 66:1 119:1 158:1 311:1 555:1 875:1 876:1 2823:1 2938:1 2988:1 3043:1 6332:1 6333:1 6334:1 6335:1 
1 1 1:0 2:3 3:13 4:0 5:1 6:10.482433 7:2 14:1 19:1 20:2 28:1 64:1 68:1 71:1 94:1 158:1 258:1 419:2 860:1 1144:1 1227:1 1251:1 1287:1 1540:1 1541:1 2809:1 2810:1 2886:1 2987:1 3407:1 6336:1 
1 1 1:1 2:0 3:13 4:0 5:1 6:5.1247333 7:1 19:1 31:1 41:1 58:1 68:1 101:2 150:1 610:1 852:1 1212:1 1213:1 1214:1 1284:1 2112:1 2458:1 2537:1 4739:1 6337:1 
1 1 1:0 2:2 3:14 4:0 5:1 6:7.2431 24:2 28:1 31:1 33:1 58:1 88:1 101:1 119:1 159:1 605:1 1198:2 1216:1 1678:1 2645:1 3449:1 3883:1 3893:1 5395:1 6338:1 6339:1 
1 1 1:1 2:2 3:8 4:0 5:1 6:4.7062333 7:1 33:1 46:1 47:1 59:1 150:1 542:1 1746:1 2252:1 2752:1 2957:1 3854:1 4253:1 6340:1 
1 1 1:0 2:3 3:10 4:0 5:1 6:5.6799333 7:2 13:2 14:1 20:2 63:1 674:1 888:1 1208:1 1216:1 2477:1 2830:1 2988:1 5195:1 6341:1 6342:1 
1 1 1:0 2:0 3:12 4:0 5:1 6:4.3842333 7:1 14:1 28:1 31:1 165:1 213:1 809:1 830:1 852:1 1212:1 1213:1 1214:1 1292:1 1559:1 1603:1 1672:1 6343:1 6344:1 
1 1 1:1 2:0 3:11 4:0 5:1 6:6.2802 66:1 69:1 158:1 159:2 852:1 891:1 1212:1 1213:1 1214:1 1287:1 1994:1 2752:1 2756:1 2901:1 3917:1 6345:1 6346:1 6347:1 6348:1 
1 1 1:1 2:4 3:9 4:0 5:1 6:7.6251667 7:1 19:1 24:1 64:1 69:1 72:1 159:2 437:1 937:1 1208:1 1209:1 1216:1 1675:1 1746:1 2988:1 6349:1 6350:1 6351:1 
1 1 1:0 2:0 3:12 4:0 5:1 6:6.3958333 20:1 33:1 44:1 66:2 68:1 71:1 150:1 158:1 159:2 165:1 419:1 821:1 832:1 1228:1 1229:1 1287:1 1449:1 1559:1 3206:1 6352:1 
1 1 1:0 2:0 3:17 4:0 5:1 6:8.0152 7:2 19:1 28:1 31:4 58:2 64:1 68:3 94:1 97:1 419:1 518:1 546:1 643:1 1221:1 1222:1 1227:2 3030:2 3449:1 6353:1 6354:1 
1 1 1:0 2:1 3:6 4:0 5:1 6:3.2238 7:1 28:1 31:1 68:1 73:1 100:1 305:1 1221:1 1222:1 2896:1 
1 1 1:0 2:0 3:4 4:0 5:1 6:1.1640333 7:1 33:1 101:1 2112:1 2813:1 2988:1 
1 1 1:0 2:0 3:3 4:0 5:1 6:1.8510333 20:1 158:1 937:1 1220:1 1228:1 1229:1 
1 1 1:0 2:1 3:9 4:0 5:1 6:6.2820333 7:1 58:1 66:1 68:1 103:1 110:1 158:1 871:1 1162:1 1468:1 1994:1 2537:1 2813:1 3854:1 3893:1 4211:1 6164:1 
1 1 1:0 2:0 3:7 4:0 5:1 6:1.5444333 33:1 43:1 69:1 2130:1 2840:1 2874:1 6355:1 6356:1 
1 1 1:1 2:1 3:6 4:0 5:1 6:3.657 33:1 69:1 241:1 335:1 583:1 832:1 2888:1 3359:1 3881:1 6357:1 6358:1 
1 1 1:1 2:1 3:6 4:0 5:1 6:3.657 33:1 69:1 241:1 335:1 583:1 832:1 2888:1 3359:1 3881:1 6357:1 6358:1 
1 1 1:0 2:0 3:4 4:0 5:1 6:1.4603333 20:1 28:1 1736:1 3034:1 5145:1 6359:1 
1 1 1:0 2:1 3:3 4:0 5:1 6:3.5449667 69:1 159:1 491:1 950:1 3422:1 3760:1 4003:1 
1 1 1:0 2:0 3:15 4:0 5:1 6:0 7:2 14:2 15:1 31:1 101:1 107:1 113:1 610:1 829:1 832:1 902:1 2031:1 2804:1 
1 1 1:0 2:0 3:12 4:0 5:1 6:0 13:1 20:2 28:1 34:1 35:1 36:1 37:1 38:1 39:1 40:1 41:1 
1 1 1:1 2:0 3:14 4:0 5:1 6:0 13:1 33:1 64:1 165:1 276:1 292:1 1756:1 2503:1 3269:1 6730:1 6731:1 6732:1 6733:1 6734:1 
1 1 1:0 2:0 3:9 4:0 5:1 6:1 7:1 20:1 28:1 57:1 147:1 150:1 471:1 2824:1 5677:1 5678:1 
1 1 1:0 2:0 3:15 4:0 5:1 6:4.5407333 14:1 19:1 20:1 24:1 30:1 33:1 57:1 107:1 159:1 165:2 305:1 370:1 561:1 583:1 2031:1 2989:1 3397:1 5679:1 5680:1 5681:1 
1 1 1:0 2:0 3:15 4:0 5:1 6:4.2890333 7:1 20:1 28:1 33:1 44:1 57:1 64:1 66:1 72:1 81:1 105:1 139:1 351:1 546:1 555:1 830:1 888:1 2987:1 2988:1 2989:1 2990:1 
1 1 1:0 2:1 3:7 4:0 5:1 6:5.3482333 31:1 33:1 58:1 64:1 82:1 115:1 131:1 139:1 165:1 583:1 1304:1 1504:1 3624:1 4828:1 5615:1 5682:1 
1 1 1:1 2:3 3:15 4:1 5:1 6:7.5136 7:1 14:1 24:1 31:1 66:1 82:1 101:2 125:1 150:1 161:1 205:1 246:1 311:1 508:1 614:1 875:1 2879:1 3069:1 3340:1 4332:1 4363:1 5683:1 5684:1 5685:1 
1 1 1:0 2:2 3:8 4:0 5:1 6:3.4873333 20:1 33:1 66:1 68:1 82:1 116:1 143:1 729:2 2830:1 2957:1 4231:1 5686:1 
1 1 1:0 2:1 3:11 4:0 5:1 6:6.8784333 7:1 14:2 58:1 66:1 85:1 101:1 139:1 314:1 576:1 832:1 918:1 931:1 2148:1 2773:1 2883:1 4363:1 5756:1 6954:1 6955:1 
1 1 1:0 2:0 3:4 4:0 5:1 6:1.7065667 14:1 69:1 258:1 550:1 918:1 2867:1 
1 1 1:0 2:0 3:7 4:0 5:1 6:2.2555667 14:1 113:1 165:1 419:1 576:1 633:1 644:1 1215:1 1833:1 6362:1 6956:1 
1 1 1:0 2:2 3:5 4:0 5:1 6:4.7665333 7:1 24:1 33:1 88:1 583:1 1216:1 2022:1 2252:1 2824:1 3009:1 3889:1 3890:1 
1 1 1:0 2:0 3:13 4:0 5:1 6:5.4259667 20:3 33:3 72:1 82:1 370:1 583:1 986:3 1024:1 1039:1 2189:1 2917:1 3632:1 6616:1 7629:1 7630:1 
1 1 1:0 2:1 3:10 4:0 5:1 6:4.2717 13:1 14:1 20:1 24:1 33:1 387:1 491:1 2142:1 2520:1 2823:1 3484:1 5800:1 6106:1 6947:1 7631:1 
1 1 1:0 2:1 3:14 4:0 5:1 6:2.6164 7:1 14:2 24:1 33:1 42:1 69:1 82:1 159:1 227:1 829:2 830:1 952:1 2003:1 3053:1 3359:1 5709:1 
1 1 1:0 2:0 3:4 4:0 5:1 6:0.62963333 69:1 82:1 94:1 107:1 7632:1 
1 1 1:1 2:0 3:11 4:0 5:1 6:3.5893667 14:1 28:1 82:1 97:1 113:1 132:1 165:1 631:1 1857:1 2989:1 3026:1 3199:1 7284:1 7633:1 
1 1 1:0 2:1 3:12 4:0 5:1 6:3.6897333 7:1 14:1 24:2 57:1 66:1 82:1 134:1 198:1 448:1 832:1 1198:2 1534:1 3014:1 3428:1 
1 1 1:0 2:0 3:13 4:0 5:1 6:5.0227 7:1 24:1 57:1 69:1 82:1 113:1 130:1 147:1 158:1 168:1 206:1 583:1 1202:2 2878:1 2879:1 3502:1 7634:1 7635:1 
1 1 1:1 2:1 3:10 4:0 5:1 6:2.4416667 14:1 57:1 68:1 82:1 101:1 147:1 153:1 1146:1 2520:2 2823:2 3798:1 
1 1 1:0 2:2 3:12 4:0 5:1 6:6.2512333 13:1 24:1 31:1 33:2 59:1 82:1 113:1 161:1 198:2 276:1 583:1 584:1 924:1 3526:1 3774:1 4745:1 6747:1 7636:1 7637:1 
1 1 1:0 2:1 3:10 4:0 5:1 6:5.6305 24:1 33:1 82:1 104:1 153:1 315:1 338:1 942:1 1198:1 1202:1 1380:2 2865:1 4473:1 5925:1 6631:1 7638:1 
1 1 1:0 2:1 3:8 4:0 5:1 6:4.5872 20:1 28:1 57:1 59:1 81:1 82:1 168:1 213:1 338:1 491:1 1485:1 2590:1 2752:1 3166:1 3729:1 
1 1 1:0 2:1 3:18 4:0 5:1 6:5.8206333 26:1 33:1 47:2 53:1 54:1 66:1 68:1 82:1 87:1 132:1 213:1 307:1 358:1 498:1 506:1 555:1 583:1 1134:1 1266:1 1812:1 2142:1 2520:1 2804:1 2823:1 3279:1 
1 1 1:0 2:0 3:8 4:0 5:1 6:1.8351667 31:1 82:2 315:1 613:1 830:1 1304:1 2810:1 2823:1 2862:1 5851:1 
1 1 1:0 2:0 3:5 4:0 5:1 6:0.8889 57:1 311:1 638:1 2879:1 5678:1 7639:1 
1 1 1:0 2:0 3:14 4:0 5:1 6:2.8381 14:1 24:1 28:1 57:1 135:1 328:1 886:1 978:1 2520:4 2823:4 2867:1 5678:1 
1 1 1:1 2:0 3:12 4:0 5:1 6:1.5213667 7:1 13:1 14:1 28:1 33:1 44:1 57:1 63:1 66:1 69:1 2253:1 2840:1 7640:1 
1 1 1:0 2:1 3:11 4:0 5:1 6:2.5773667 7:1 9:1 33:1 57:1 63:1 124:1 246:1 535:1 830:1 2888:1 2917:1 3506:1 5609:1 5610:1 
1 1 1:0 2:2 3:5 4:0 5:1 6:5.5175333 7:1 13:1 44:1 56:1 57:1 112:1 123:1 467:1 1559:1 1672:1 2635:1 2865:1 5853:1 
1 1 1:0 2:2 3:6 4:0 5:1 6:2.9259333 28:1 33:1 57:1 64:1 150:1 820:1 931:1 1385:1 7641:1 
1 1 1:1 2:0 3:11 4:0 5:1 6:2.2321333 13:1 57:1 147:1 150:1 199:1 204:1 228:1 832:1 2252:1 2756:1 2988:1 6340:1 7642:1 7643:1 
1 1 1:0 2:0 3:19 4:0 5:1 6:5.6455 7:1 13:1 14:1 20:4 33:1 57:2 64:1 66:1 68:1 69:1 85:1 165:1 328:1 569:1 576:2 752:1 829:1 1287:2 5935:1 5936:1 
1 1 1:0 2:0 3:11 4:0 5:1 6:2.6407 14:1 33:1 57:1 71:1 81:1 146:1 475:1 519:1 1437:1 2003:1 2178:1 2830:1 3057:1 7338:1 7644:1 
1 1 1:0 2:2 3:6 4:0 5:1 6:2.2952333 7:1 14:1 57:1 74:1 2888:1 6001:1 7645:1 7646:1 
1 1 1:0 2:1 3:4 4:0 5:1 6:2.1777667 57:1 101:1 150:1 2031:1 3380:1 5615:1 7647:1 
1 1 1:0 2:1 3:11 4:0 5:1 6:4.1652 7:1 14:1 24:1 33:2 57:1 58:1 68:1 135:1 448:1 832:1 1198:1 2859:1 3001:2 
1 1 1:0 2:0 3:17 4:0 5:1 6:2.4921333 7:1 14:2 20:1 33:1 44:1 57:1 66:1 212:1 246:1 276:1 583:1 610:1 830:1 3065:1 3296:1 3847:1 6170:1 6234:1 7648:1 7649:1 
1 1 1:0 2:1 3:3 4:0 5:1 6:2.0370333 20:1 52:1 69:1 942:1 2840:1 
1 1 1:0 2:2 3:15 4:0 5:1 6:2.6074 7:2 13:1 31:2 52:1 56:1 94:1 107:1 546:1 613:2 825:1 941:1 1215:1 7650:1 7651:1 7652:1 
1 1 1:0 2:1 3:5 4:0 5:1 6:3.3366 33:1 52:1 57:1 59:1 69:1 442:1 1266:1 3446:1 3847:1 7653:1 
1 1 1:0 2:0 3:17 4:0 5:1 6:4.0747333 7:2 20:3 26:1 31:1 52:1 53:2 54:1 58:1 159:1 213:1 246:1 305:1 501:1 575:1 829:1 877:1 909:1 3937:1 5716:1 
1 1 1:0 2:0 3:6 4:0 5:1 6:0.375 24:1 33:1 52:1 80:1 101:1 2879:1 
1 1 1:0 2:1 3:13 4:0 5:1 6:3.2640333 20:2 24:1 47:1 52:1 57:1 59:1 69:2 71:1 147:1 151:1 188:1 213:1 832:1 978:2 1176:1 
1 1 1:0 2:1 3:10 4:0 5:1 6:4.7877 13:1 31:1 33:1 47:1 52:1 82:1 97:1 311:1 825:1 832:1 940:1 2173:1 2988:1 3394:1 3823:1 5613:1 7222:1 
1 1 1:4 2:0 3:9 4:0 5:1 6:3.4135667 7:1 24:1 107:1 463:1 491:1 624:1 829:1 6011:1 7654:1 7655:1 7656:1 7657:1 
1 1 1:0 2:0 3:7 4:0 5:1 6:2.0648 24:1 42:1 52:1 150:1 572:1 885:1 950:1 7658:1 7659:1 
1 1 1:0 2:2 3:18 4:0 5:1 6:5.5241667 7:2 14:1 52:2 94:1 159:1 198:1 241:1 307:1 378:1 535:1 546:1 547:1 638:1 847:1 1215:1 1262:1 1325:1 2826:1 7660:3 7661:1 7662:1 
1 1 1:0 2:1 3:5 4:0 5:1 6:0.83333333 7:1 13:1 36:1 44:1 1278:1 7663:1 
1 1 1:0 2:0 3:6 4:0 5:1 6:1.1629667 31:1 36:1 69:1 124:1 205:1 3397:1 7664:1 7665:1 
1 1 1:0 2:0 3:17 4:0 5:1 6:5.1106 7:1 20:1 21:1 24:1 28:1 33:1 36:1 57:1 64:1 69:1 71:1 101:1 147:1 150:1 151:1 198:2 442:1 518:1 753:1 821:1 984:1 1515:1 2910:1 7666:1 
1 1 1:0 2:0 3:13 4:0 5:1 6:6.5409667 7:2 14:1 20:2 31:1 33:1 37:1 57:1 58:2 62:1 72:1 111:1 134:1 149:1 518:1 731:1 888:1 2003:1 3219:1 3333:1 7667:1 
1 1 1:1 2:1 3:18 4:0 5:1 6:4.5987333 14:1 20:1 31:2 37:1 66:1 81:1 112:1 122:1 125:1 198:1 212:1 239:1 276:1 731:1 1198:1 1463:1 2662:1 5615:1 5682:1 5958:1 7668:1 7669:1 
1 1 1:0 2:1 3:13 4:0 5:1 6:6.6523 7:2 14:1 24:2 36:1 58:3 68:1 124:1 165:1 198:1 205:1 448:1 832:1 1115:1 1198:1 1287:1 2826:1 3110:1 3111:1 3755:1 
1 1 1:0 2:0 3:15 4:0 5:1 6:5.0729333 7:1 20:1 28:1 33:1 40:1 63:1 64:1 79:1 81:1 101:1 111:1 113:1 127:1 227:1 338:1 370:1 491:1 600:1 907:1 931:1 2810:1 2946:1 4615:1 
1 1 1:0 2:0 3:10 4:0 5:1 6:3.6008667 14:1 28:1 33:1 57:1 66:1 68:1 72:1 146:1 506:1 719:1 903:1 976:1 2752:1 3365:1 5928:1 7670:1 
1 1 1:0 2:0 3:10 4:0 5:1 6:0 24:1 28:1 33:1 36:1 198:1 315:1 1593:1 2917:1 3217:1 5317:1 
1 1 1:1 2:0 3:7 4:0 5:1 6:1.6342667 13:1 14:1 33:1 37:1 101:1 150:1 679:1 2112:1 7671:1 
1 1 1:0 2:0 3:11 4:0 5:1 6:0.95833333 7:2 33:1 44:1 72:1 81:1 370:1 1004:1 1287:1 2934:1 2935:1 3883:1 
1 1 1:0 2:0 3:5 4:0 5:1 6:0.48146667 30:1 31:1 57:1 124:1 1261:1 
1 1 1:0 2:0 3:7 4:0 5:1 6:1.9740667 7:1 13:1 14:1 33:1 44:1 68:1 124:1 1559:1 2879:1 7672:1 
1 1 1:0 2:2 3:7 4:0 5:1 6:3.7228667 7:1 13:1 24:1 69:1 85:1 94:1 97:1 107:1 124:1 1450:1 2833:1 2939:1 
1 1 1:0 2:1 3:7 4:0 5:1 6:1.6444333 7:2 13:1 33:1 56:1 124:1 307:1 1559:1 4378:1 
1 1 1:0 2:2 3:4 4:0 5:1 6:2.3631 59:1 82:1 94:1 124:1 239:1 830:1 7673:1 
1 1 1:0 2:1 3:17 4:0 5:1 6:3.6724333 14:2 15:1 20:1 24:1 28:1 64:1 66:1 72:1 107:1 158:1 159:1 198:1 1450:1 2022:1 2424:2 2554:1 2826:1 2898:1 3103:1 5654:1 
1 1 1:1 2:1 3:11 4:0 5:1 6:3.1424333 7:2 15:1 19:1 57:1 59:1 64:1 66:1 139:1 165:1 546:1 1281:1 1639:1 7674:1 7675:1 
1 1 1:0 2:0 3:16 4:0 5:1 6:1.9213 7:1 33:1 36:1 37:1 38:1 66:1 129:1 315:1 491:1 546:1 686:1 891:1 908:1 2901:1 4373:1 5657:1 5658:1 5659:1 5660:1 
1 1 1:1 2:0 3:11 4:0 5:1 6:3.0359 7:1 13:1 14:1 20:1 33:1 44:1 52:1 72:1 107:1 213:1 941:1 1559:1 1672:1 2635:1 4217:1 
1 1 1:0 2:0 3:11 4:0 5:1 6:1.0666667 7:3 24:2 33:1 52:1 68:1 124:1 370:1 546:1 830:1 2031:1 
1 1 1:0 2:0 3:11 4:0 5:1 6:1.6880333 7:1 33:1 42:1 52:1 76:1 81:1 227:1 258:1 546:1 1559:1 2830:1 2886:1 3253:1 
1 1 1:1 2:1 3:8 4:0 5:1 6:6.0726667 20:1 53:1 54:1 64:1 69:2 137:1 158:1 467:1 832:1 860:1 1994:1 2916:1 2979:1 3380:1 6754:1 7676:1 
1 1 1:0 2:0 3:9 4:0 5:1 6:4.2629333 20:1 33:1 53:1 68:1 69:1 113:1 158:1 832:1 888:1 3002:1 3105:1 5850:1 6009:1 7677:1 7678:1 7679:1 
1 1 1:1 2:1 3:13 4:0 5:1 6:3.7776 20:3 28:1 31:1 57:1 72:1 107:1 147:1 150:1 519:1 908:1 1923:1 3468:1 4646:1 7680:1 7681:1 
1 1 1:0 2:2 3:9 4:0 5:1 6:7.0263333 7:1 44:1 57:1 68:1 153:1 165:2 198:1 328:1 338:1 888:1 1559:1 2865:1 2896:1 3249:1 3779:1 7682:1 7683:1 7684:1 
1 1 1:0 2:0 3:9 4:0 5:1 6:1.4238 7:2 14:1 30:1 44:1 45:1 57:1 58:1 68:1 301:1 829:1 
1 1 1:0 2:2 3:13 4:0 5:1 6:4.5678667 7:1 20:1 24:1 46:1 82:1 107:1 131:1 378:1 933:1 2520:2 2823:2 2993:1 4650:1 6032:1 6325:1 7685:1 7686:1 
1 1 1:0 2:0 3:8 4:0 5:1 6:2.3259333 13:1 14:2 68:1 124:1 888:1 1755:1 2824:1 7687:1 7688:1 7689:1 
1 1 1:1 2:3 3:14 4:0 5:1 6:5.8566667 7:2 14:1 63:1 64:1 69:1 94:1 124:2 1450:1 2888:2 3244:1 7690:1 7691:1 7692:1 7693:1 7694:1 7695:1 7696:1 
1 1 1:0 2:0 3:15 4:0 5:1 6:0 7:2 14:2 15:1 31:1 101:1 107:1 113:1 610:1 829:1 832:1 902:1 2031:1 2804:1 
1 1 1:0 2:0 3:13 4:0 5:1 6:0 13:1 20:2 28:1 33:1 34:1 35:1 36:1 37:1 38:1 39:1 40:1 41:1 
1 1 1:0 2:0 3:11 4:0 5:1 6:0 7:1 14:1 19:1 33:2 50:1 51:1 52:1 53:1 54:1 55:1 
1 1 1:0 2:0 3:9 4:0 5:1 6:0 7:1 14:1 33:1 44:1 52:1 53:1 212:1 4370:1 4371:1 
1 1 1:1 2:0 3:17 4:0 5:1 6:0 7:1 13:1 24:1 33:1 52:1 198:1 610:1 638:1 1625:1 2862:1 3269:1 3758:1 4372:1 4373:1 4374:1 4375:1 4376:1 
1 1 1:0 2:0 3:11 4:0 5:1 6:0 24:1 28:1 33:1 52:1 63:1 66:1 72:1 105:1 3218:1 5692:1 7697:1 
1 1 1:0 2:2 3:7 4:0 5:1 6:2.3095 14:1 21:1 24:1 34:1 57:1 72:1 2662:1 2888:1 3355:1 4377:1 
1 1 1:0 2:0 3:5 4:0 5:1 6:1.2777667 14:1 57:1 64:1 2910:1 2911:1 7698:1 7699:1 
1 1 1:0 2:2 3:5 4:0 5:1 6:2.2952333 7:1 14:1 32:1 56:1 57:1 58:1 59:1 60:1 
1 1 1:0 2:1 3:8 4:0 5:1 6:3.3869 7:1 14:1 24:1 26:1 36:1 37:1 85:1 97:1 107:1 119:1 150:1 4379:1 
1 1 1:0 2:0 3:4 4:0 5:1 6:0.57143333 28:1 72:1 82:1 101:1 2988:1 
1 1 1:1 2:0 3:6 4:0 5:1 6:1.6083333 13:1 33:1 64:1 68:1 82:1 165:1 3201:1 7700:1 
1 1 1:0 2:0 3:15 4:0 5:1 6:7.0307667 7:2 14:1 20:1 31:1 52:1 58:1 66:1 71:1 111:1 159:1 165:1 809:1 832:1 1026:1 1089:1 1177:1 1198:1 2865:1 4477:1 7694:1 7701:1 7702:1 7703:1 
1 1 1:0 2:2 3:9 4:0 5:1 6:3.7161 8:3 14:1 24:1 36:1 37:1 65:1 125:1 158:1 163:1 1281:1 1325:1 7704:1 
1 1 1:0 2:2 3:15 4:0 5:1 6:7.9837 7:1 19:1 24:1 31:1 33:1 64:1 71:1 82:1 113:1 151:1 159:1 198:1 201:1 315:2 444:1 506:1 719:1 902:1 903:1 936:1 1115:1 1146:1 1202:1 1812:1 7705:1 
1 1 1:0 2:1 3:16 4:0 5:1 6:2.6342 7:3 8:1 19:1 20:1 28:1 31:1 57:2 81:1 82:1 213:1 546:1 612:1 613:1 829:1 2987:1 5853:1 7706:1 
1 1 1:0 2:1 3:8 4:0 5:1 6:1.375 7:1 8:1 14:1 57:1 97:1 165:1 198:1 355:2 933:1 
1 1 1:0 2:0 3:12 4:0 5:1 6:1.7777667 14:1 31:1 36:1 37:1 52:1 57:1 101:1 116:1 125:1 126:1 146:1 903:1 2520:1 2823:1 5072:1 
1 1 1:0 2:0 3:8 4:0 5:1 6:2.1111 26:1 33:2 53:1 54:1 64:1 150:1 1581:1 1756:1 3162:1 7707:1 
1 1 1:0 2:0 3:7 4:0 5:1 6:1.0476333 14:1 28:1 52:1 546:1 832:1 2830:1 2988:1 3029:1 
1 1 1:0 2:0 3:7 4:0 5:1 6:0.5 7:1 24:1 33:1 52:1 107:1 370:1 7708:1 7709:1 
1 1 1:1 2:0 3:9 4:0 5:1 6:1.8981333 68:1 127:1 594:1 870:1 914:1 1003:1 3954:1 5766:1 7710:1 7711:1 
1 1 1:0 2:0 3:14 4:0 5:1 6:2.5697 7:2 24:1 31:1 33:1 64:1 66:2 72:1 131:1 546:1 809:1 2003:1 3422:1 3666:1 6930:1 7965:1 7966:1 
1 1 1:0 2:0 3:9 4:0 5:1 6:0.53333333 20:1 33:1 101:1 113:2 198:1 643:1 644:1 3422:1 7967:1 
1 1 1:1 2:1 3:6 4:0 5:1 6:2.6435 14:1 20:1 69:1 163:1 3269:1 3422:1 3528:1 3675:1 7968:1 
1 1 1:0 2:1 3:9 4:0 5:1 6:3.3560667 7:1 14:1 19:1 20:1 31:1 33:1 600:1 809:1 964:1 2829:1 2840:1 2888:1 3422:1 
1 1 1:0 2:0 3:6 4:0 5:1 6:0.54166667 7:1 14:1 64:1 97:1 633:1 962:1 7969:1 
1 1 1:0 2:0 3:11 4:0 5:1 6:4.9972333 7:1 14:1 20:1 46:1 64:1 95:1 165:1 241:1 633:1 971:1 972:1 1771:1 2811:1 2982:1 5705:1 6912:1 7970:1 7971:1 
1 1 1:0 2:1 3:9 4:0 5:1 6:4.6464 20:1 24:1 33:1 72:1 88:1 517:1 633:1 1115:1 1202:1 1524:1 2591:1 2830:1 3901:1 7049:1 7972:1 7973:1 
1 1 1:0 2:0 3:22 4:0 5:1 6:4.6657333 19:1 20:2 27:1 33:1 69:1 85:1 101:1 145:1 146:1 370:1 378:1 633:1 638:2 886:1 931:1 988:1 1053:1 1377:1 1845:1 2520:1 2823:1 2903:1 2915:1 3723:1 7974:1 7975:1 
1 1 1:0 2:1 3:7 4:0 5:1 6:2.7890333 7:1 33:1 42:1 101:1 109:1 206:1 633:1 2112:1 2424:1 2631:1 3203:1 
1 1 1:0 2:1 3:19 4:0 5:1 6:10.1147 7:1 14:1 21:1 24:1 33:1 42:1 68:2 69:1 103:1 112:1 131:2 139:1 378:1 501:1 535:1 576:1 594:1 608:1 830:1 832:1 918:1 942:1 984:1 2520:4 2823:4 3263:1 6697:1 
1 1 1:0 2:1 3:7 4:0 5:1 6:2.4910333 14:1 66:1 124:1 144:1 311:1 918:1 1088:1 6047:1 7976:1 7977:1 
1 1 1:0 2:0 3:4 4:0 5:1 6:1.4488 28:1 73:1 918:1 1287:1 1745:1 
1 1 1:0 2:3 3:17 4:0 5:1 6:6.8797667 7:2 14:1 19:1 24:3 28:1 33:1 59:1 63:1 85:1 103:1 109:1 351:1 370:1 576:1 829:1 918:1 1415:1 2917:1 2928:1 4284:1 4663:1 7978:1 7979:1 
1 1 1:0 2:0 3:11 4:0 5:1 6:1.8393 7:1 14:2 31:1 127:1 613:1 918:1 921:1 978:1 2810:1 3893:1 4478:1 6047:1 
1 1 1:1 2:0 3:14 4:0 5:1 6:3.4658333 7:1 14:1 19:1 24:1 33:1 311:1 433:1 752:1 918:1 1204:1 1379:1 2587:1 2987:1 3496:1 3562:1 5958:1 7980:1 7981:1 
1 1 1:0 2:0 3:8 4:0 5:1 6:3.8 7:1 19:1 24:2 33:1 103:2 486:1 809:1 918:1 2022:1 2121:1 3129:1 3446:1 
1 1 1:2 2:0 3:14 4:0 5:1 6:6.7292333 20:1 24:1 33:1 69:1 85:1 94:1 159:2 198:1 213:1 228:2 241:1 891:1 1024:1 1158:1 1581:1 1786:2 7679:1 7982:1 7983:1 7984:1 7985:1 
1 1 1:0 2:0 3:9 4:0 5:1 6:0.44443333 19:1 116:1 633:1 918:2 931:1 2520:1 2823:1 7986:1 
1 1 1:0 2:0 3:8 4:0 5:1 6:1.3963 7:1 20:1 33:1 42:1 69:1 213:1 809:1 918:1 1625:1 4846:1 
1 1 1:0 2:1 3:19 4:0 5:1 6:4.5926 7:3 8:1 14:1 27:1 63:1 64:1 66:1 311:1 633:1 638:2 825:1 832:1 888:1 910:1 918:1 925:1 962:1 1026:1 1287:1 1559:1 3464:1 
1 1 1:0 2:0 3:10 4:0 5:1 6:3.2952333 24:1 64:1 85:1 94:1 95:1 105:1 205:1 576:1 918:1 3034:1 6137:1 7987:1 7988:1 7989:1 
1 1 1:1 2:0 3:5 4:0 5:1 6:5.1131 14:1 69:1 94:1 103:1 241:1 291:1 576:1 583:1 918:1 2809:1 2840:1 7990:1 
1 1 1:1 2:2 3:5 4:0 5:1 6:5.8254 33:1 109:1 131:1 139:1 536:1 587:1 921:1 933:1 1271:1 2635:1 3464:1 3465:1 3466:1 
1 1 1:0 2:0 3:7 4:0 5:1 6:2.1699333 7:1 14:1 918:1 963:1 2380:1 3446:1 3847:1 4337:1 7991:1 7992:1 
1 1 1:0 2:1 3:18 4:0 5:1 6:6.2474667 7:1 8:1 13:1 14:1 20:1 24:1 26:1 31:1 64:1 66:1 69:1 105:1 116:1 158:1 482:1 501:1 583:1 829:1 900:1 916:1 917:1 918:1 919:1 920:1 921:1 922:1 923:1 
1 1 1:0 2:0 3:3 4:0 5:1 6:1.625 28:1 246:1 311:1 930:1 931:1 
1 1 1:0 2:0 3:7 4:0 5:1 6:2.2555667 14:1 113:1 165:1 419:1 576:1 633:1 644:1 1215:1 1833:1 6362:1 6956:1 
1 1 1:0 2:0 3:4 4:0 5:1 6:0.5238 7:1 8:1 14:1 535:1 918:1 
1 1 1:1 2:0 3:7 4:0 5:1 6:3.2569667 14:2 61:1 101:1 213:1 311:1 576:1 966:1 1994:1 5575:1 7993:1 7994:1 
1 1 1:0 2:1 3:4 4:0 5:1 6:1.4318333 7:1 14:1 213:1 448:1 576:1 829:1 
1 1 1:0 2:1 3:5 4:0 5:1 6:2.9226 14:1 355:1 576:1 832:1 908:1 2830:1 2888:1 3806:1 7995:1 
1 1 1:1 2:2 3:5 4:0 5:1 6:2.6973333 7:1 13:1 33:1 576:1 1675:1 2824:1 3009:1 5488:1 
1 1 1:1 2:0 3:4 4:0 5:1 6:2.7678667 14:1 43:1 58:1 66:1 576:1 1771:1 7996:1 7997:1 
1 1 1:0 2:1 3:4 4:0 5:1 6:3.0227333 68:1 870:1 1202:1 1221:1 1222:1 2112:1 2888:1 
1 1 1:0 2:0 3:13 4:0 5:1 6:5.3055333 7:1 13:1 20:1 31:1 66:1 68:2 101:1 112:1 148:1 486:1 821:1 1115:1 1221:1 1222:1 1227:1 1559:1 3670:1 4388:1 6330:1 
1 1 1:0 2:2 3:9 4:0 5:1 6:5.7485333 7:1 20:1 33:1 58:1 64:1 68:1 116:1 198:1 336:1 820:1 1232:1 2813:1 2888:1 2988:1 3337:1 8156:1 8157:1 
1 1 1:0 2:1 3:12 4:0 5:1 6:9.0438667 7:2 13:1 20:1 24:1 64:1 69:1 70:1 71:1 165:1 366:1 583:1 1202:1 1216:1 1227:1 1415:1 1540:2 1541:1 2438:1 2459:1 3018:1 8158:1 8159:1 8160:1 
1 1 1:1 2:4 3:12 4:0 5:1 6:7.6742 7:1 26:1 101:1 109:1 205:1 370:1 638:2 753:1 852:1 1210:1 1212:1 1213:1 1214:1 1216:1 1262:1 2252:1 3927:1 3968:1 8161:1 8162:1 8163:1 
1 1 1:0 2:0 3:13 4:0 5:1 6:4.5226333 7:2 8:1 26:1 27:1 33:1 64:1 68:4 101:1 131:1 165:1 291:1 610:1 643:1 984:1 1814:1 8164:1 
1 1 1:2 2:0 3:11 4:0 5:1 6:3.5785667 33:2 44:1 45:1 68:1 72:1 101:2 155:1 1415:1 2252:1 8164:1 8165:2 8166:1 
1 1 1:2 2:1 3:8 4:0 5:1 6:3.9733333 24:1 28:1 44:1 66:1 105:1 478:1 1561:1 1822:1 1931:1 8167:1 8168:1 8169:1 8170:1 
1 1 1:0 2:2 3:9 4:0 5:1 6:8.7082 7:1 20:2 28:1 31:1 69:1 158:1 351:2 435:1 832:1 929:1 966:1 1227:1 2148:1 3854:1 6719:1 8171:1 8172:1 8173:1 8174:1 
1 1 1:0 2:0 3:6 4:0 5:1 6:3.7176 20:1 31:1 100:1 115:1 131:1 246:1 832:1 2112:1 2257:1 2805:1 2813:1 3367:1 
1 1 1:1 2:0 3:7 4:0 5:1 6:3.1460333 7:1 42:1 68:1 69:1 111:1 832:1 909:1 1221:1 1222:1 1287:1 8175:1 
1 1 1:0 2:1 3:18 4:0 5:1 6:3.5407667 7:2 24:1 33:1 64:1 68:1 101:1 115:4 150:1 832:1 937:1 1207:1 1220:1 1221:1 1222:1 2824:1 2871:1 2917:1 3009:1 3880:1 
1 1 1:0 2:3 3:15 4:0 5:1 6:6.4719333 7:4 20:1 26:1 59:1 66:1 68:1 158:1 518:1 546:1 610:1 852:1 937:1 1212:1 1213:1 1214:1 1220:1 1496:1 2896:1 3009:1 3806:1 8176:1 
1 1 1:0 2:0 3:6 4:0 5:1 6:2.5767333 7:1 20:1 457:1 518:1 852:1 937:1 1212:1 1213:1 1214:1 1220:1 
1 1 1:0 2:3 3:15 4:0 5:1 6:5.7042333 7:1 13:1 14:1 20:1 24:2 64:2 111:1 667:1 752:1 1049:1 1208:1 1209:1 1562:1 1816:1 2022:1 2896:1 3789:1 3840:1 6724:1 7677:1 8177:1 
1 1 1:0 2:1 3:15 4:0 5:1 6:4.7103667 7:2 33:1 44:1 45:1 66:1 113:1 115:1 555:1 583:1 588:1 909:1 937:1 1220:1 2812:1 2813:1 4755:1 8056:1 8178:1 8179:1 8180:1 8181:1 
1 1 1:0 2:0 3:10 4:0 5:1 6:3.1496 7:1 20:2 31:1 33:1 68:1 69:1 158:1 546:1 1644:1 2820:1 6622:1 7934:1 8182:1 
1 1 1:0 2:0 3:9 4:0 5:1 6:3.4202 7:1 31:2 44:1 45:1 68:1 542:1 546:1 572:1 1221:1 1222:1 1559:1 3057:1 5025:1 
1 1 1:1 2:2 3:11 4:0 5:1 6:5.6976333 7:1 14:1 26:1 28:1 33:1 58:1 351:1 1284:1 1304:1 1402:1 1422:1 2813:1 2879:1 3009:1 3446:1 3629:1 8183:1 8184:1 8185:1 
1 1 1:0 2:0 3:8 4:0 5:1 6:3.2205 7:1 13:1 20:1 31:1 200:1 437:1 518:1 829:1 830:1 937:1 1352:1 1843:1 2813:1 
1 1 1:0 2:0 3:7 4:0 5:1 6:3.3371333 20:3 31:1 63:1 158:1 518:1 643:1 1227:1 1228:1 1229:1 3018:1 
1 1 1:0 2:0 3:12 4:0 5:1 6:2.7815667 7:1 20:1 31:1 44:1 158:1 198:1 486:1 1227:1 1228:1 1229:1 2990:1 3354:1 4638:1 8186:1 8187:1 8188:1 
1 1 1:0 2:1 3:5 4:0 5:1 6:2.7344 24:1 69:1 852:1 900:1 1212:1 1213:1 1214:1 1215:1 1216:1 
1 1 1:0 2:1 3:16 4:0 5:1 6:4.5442667 7:3 8:1 20:1 31:1 33:1 94:1 101:1 158:1 172:1 201:1 640:1 809:1 832:1 871:1 1144:1 1559:1 3854:1 7967:1 8189:1 8190:1 
1 1 1:0 2:1 3:3 4:0 5:1 6:1.8995 14:1 69:1 489:1 2795:1 3872:1 
1 1 1:0 2:1 3:7 4:0 5:1 6:5.6057 7:1 28:1 31:1 64:1 68:1 69:1 246:1 829:1 832:1 1208:1 1209:1 1559:1 2635:1 3874:1 3875:1 
1 1 1:1 2:0 3:6 4:0 5:1 6:3.3129667 27:1 28:1 68:1 69:1 71:1 335:1 1176:1 1227:1 3881:1 5849:1 8191:1 
1 1 1:0 2:0 3:11 4:0 5:1 6:2.9624 20:1 24:1 43:1 58:2 66:1 832:1 2130:1 2840:1 2890:1 3449:1 4468:1 8192:1 
1 1 1:0 2:0 3:16 4:0 5:1 6:6.0593 24:1 26:1 28:1 33:1 58:1 64:1 66:1 68:2 113:1 116:1 144:1 150:1 155:1 165:1 328:1 939:1 1217:1 1437:1 3166:1 7574:1 8193:1 8194:1 8195:1 8196:1 8197:1 
1 1 1:0 2:0 3:13 4:0 5:1 6:5.4979 7:1 9:1 13:1 33:1 66:1 68:1 69:1 111:1 153:1 159:1 491:1 1652:1 1736:1 1934:1 2295:1 3422:1 4003:1 8198:1 8199:1 8200:1 8201:1 
1 1 1:1 2:3 3:10 4:0 5:1 6:5.8108 31:1 69:1 508:1 579:1 1216:1 1254:1 1667:1 1812:1 3890:1 4051:1 4332:1 8202:1 8203:1 8204:1 8205:1 8206:1 8207:1 
1 1 1:0 2:2 3:5 4:0 5:1 6:4.7665333 7:1 24:1 33:1 88:1 583:1 1216:1 2022:1 2252:1 2824:1 3009:1 3889:1 3890:1 
1 1 1:0 2:0 3:16 4:0 5:1 6:0 14:1 15:1 20:1 24:1 28:1 66:1 72:1 125:1 198:1 213:1 546:1 1215:1 1513:1 2826:1 2879:1 2984:1 
1 1 1:0 2:0 3:11 4:0 5:1 6:0 15:2 81:1 94:1 389:1 439:1 752:1 1163:1 2957:1 2985:1 2986:1 
1 1 1:0 2:0 3:11 4:0 5:1 6:0 24:1 28:1 33:1 52:1 63:1 66:1 72:1 105:1 3218:1 5692:1 7697:1 
1 1 1:1 2:4 3:15 4:0 5:1 6:4.9047667 7:2 14:3 31:1 57:1 64:2 66:1 101:1 148:1 239:1 829:1 979:1 1450:1 1648:1 6433:1 6460:1 6929:1 
1 1 1:0 2:0 3:14 4:0 5:1 6:4.2890333 7:1 20:1 28:1 44:1 57:1 64:1 66:1 72:1 81:1 105:1 139:1 351:1 546:1 555:1 830:1 888:1 2987:1 2988:1 2989:1 2990:1 
1 1 1:1 2:1 3:7 4:0 5:1 6:3.1094 7:1 14:1 28:1 59:1 69:1 82:1 107:1 1211:1 7917:1 8405:1 8406:1 
1 1 1:0 2:1 3:8 4:0 5:1 6:3.3869 7:1 14:1 24:1 26:1 36:1 37:1 85:1 97:1 107:1 119:1 150:1 4379:1 
1 1 1:1 2:0 3:10 4:0 5:1 6:5.7551 14:1 33:1 64:1 69:1 198:2 205:1 378:1 491:1 498:1 547:1 576:1 610:1 633:1 1672:1 6645:1 7867:1 8613:1 
1 1 1:0 2:0 3:7 4:0 5:1 6:2.1699333 7:1 14:1 918:1 963:1 2380:1 3446:1 3847:1 4337:1 7991:1 7992:1 
1 1 1:0 2:1 3:11 4:0 5:1 6:0.92593333 7:2 19:1 27:1 28:1 546:1 829:1 830:1 832:1 918:1 1385:1 3477:1 
1 1 1:1 2:1 3:8 4:0 5:1 6:3.5266667 14:1 33:1 127:1 153:1 159:1 241:1 457:1 932:1 1146:1 3491:1 7332:1 8625:1 8626:1 
1 1 1:1 2:2 3:3 4:0 5:1 6:3.8102 58:1 64:1 109:1 891:1 1208:1 1209:1 1218:1 2988:1 
1 1 1:0 2:1 3:3 4:0 5:1 6:2.0333333 335:1 752:1 831:1 832:1 2976:1 3881:1 
1 1 1:1 2:0 3:7 4:0 5:1 6:2.7362 13:1 28:1 68:1 69:1 82:1 88:1 638:1 4217:1 6875:1 9183:1 9184:1 
1 1 1:1 2:0 3:9 4:0 5:1 6:4.1967 20:1 30:1 64:1 82:1 105:1 107:1 205:1 238:1 518:1 2766:1 2886:1 7672:1 9185:1 9186:1 
1 1 1:0 2:2 3:17 4:0 5:1 6:5.7238 7:2 13:1 14:2 33:1 57:1 58:1 59:1 68:1 82:1 101:1 165:1 441:1 643:1 870:1 1211:1 1504:1 1771:1 2888:1 6362:1 6697:1 9187:1 9188:1 9189:1 
1 1 1:0 2:2 3:17 4:0 5:1 6:5.7238 7:2 13:1 14:2 57:1 58:1 59:1 68:1 82:1 101:1 165:1 441:1 643:1 870:1 1211:1 1504:1 1771:1 2888:1 6362:1 6697:1 9187:1 9188:2 9190:1 
1 1 1:1 2:1 3:12 4:0 5:1 6:5.5974667 20:1 33:1 63:1 69:1 82:1 125:1 241:1 247:1 257:1 273:1 305:1 583:1 638:1 751:1 1625:2 4728:1 5601:1 5602:1 5603:1 
1 1 1:0 2:0 3:11 4:0 5:1 6:2.7840667 7:1 24:1 31:1 33:1 64:1 82:1 248:1 613:1 1198:1 1200:1 1812:1 3218:1 5025:1 5917:1 
1 1 1:1 2:0 3:10 4:0 5:1 6:2.0529667 20:1 31:1 33:1 57:1 62:1 63:1 81:1 82:1 94:1 158:1 5723:1 9191:1 
1 1 1:1 2:0 3:18 4:0 5:1 6:4.4896 7:2 8:1 24:1 31:1 57:1 81:1 82:1 94:1 150:1 159:1 198:1 201:1 212:1 546:1 731:1 829:1 830:1 1559:1 2807:1 2810:1 3218:1 9192:1 
1 1 1:0 2:0 3:10 4:0 5:1 6:3.8627 7:2 19:1 24:1 33:1 68:1 82:1 150:1 370:1 631:1 986:1 1026:1 2824:1 3446:1 9193:1 
1 1 1:0 2:1 3:11 4:0 5:1 6:5.0934667 7:1 33:1 63:1 82:1 88:1 107:1 158:1 227:1 837:1 860:1 1592:1 1637:1 2475:1 2520:1 2823:1 3018:1 3670:1 
1 1 1:0 2:0 3:4 4:0 5:1 6:1.875 14:1 33:1 82:1 153:1 338:1 5917:1 6930:1 
1 1 1:0 2:5 3:13 4:0 5:1 6:8.4026 14:2 27:1 30:1 31:1 33:1 66:1 69:1 94:1 95:1 227:1 249:1 378:1 658:1 1146:1 1262:1 1755:1 3053:1 7219:1 7321:1 7900:1 9194:1 9195:1 
1 1 1:0 2:1 3:7 4:0 5:1 6:2.8952333 20:1 64:1 82:1 101:1 103:1 104:1 301:1 1198:1 1325:1 3407:1 
1 1 1:0 2:0 3:9 4:0 5:1 6:1.8148333 20:1 31:1 33:1 45:1 57:1 88:1 752:1 832:1 2862:1 3643:1 9196:1 9197:1 
1 1 1:0 2:0 3:16 4:0 5:1 6:3.3723667 7:3 13:2 14:2 31:2 57:1 66:1 213:1 239:1 247:1 457:1 546:1 2031:1 2644:1 2906:1 3380:1 9198:1 
1 1 1:1 2:0 3:14 4:0 5:1 6:2.7235333 7:1 14:1 33:1 57:1 58:1 113:2 159:1 610:1 832:2 909:1 984:1 2031:1 2520:1 2823:1 9199:1 9200:1 
1 1 1:1 2:1 3:12 4:0 5:1 6:5.7964667 7:1 14:1 28:1 30:1 57:1 69:1 101:2 109:1 165:1 168:1 206:1 510:1 595:1 612:1 2438:1 2458:1 3318:1 8362:1 9201:1 
1 1 1:0 2:0 3:6 4:0 5:1 6:0.55556667 33:2 46:1 57:1 165:1 1215:1 1833:1 
1 1 1:1 2:0 3:11 4:0 5:1 6:1.0769333 24:2 44:1 45:1 52:1 64:1 72:1 95:1 198:2 2826:1 5720:1 
1 1 1:1 2:1 3:11 4:0 5:1 6:2.4166667 20:1 28:1 31:1 33:1 40:1 53:1 109:1 165:2 213:1 831:1 936:1 9202:1 
1 1 1:0 2:0 3:12 4:0 5:1 6:5.5896667 7:2 14:1 33:1 52:1 58:1 68:2 89:1 101:1 134:1 832:1 984:1 1198:1 1681:1 2928:1 3057:1 4737:1 9203:1 9204:1 
1 1 1:0 2:2 3:20 4:0 5:1 6:4.1428667 7:2 14:1 20:1 24:1 33:2 52:1 57:1 58:1 81:1 137:1 146:1 301:1 546:2 638:1 731:1 789:1 1593:1 1625:1 2142:1 2810:1 3506:1 
1 1 1:0 2:0 3:13 4:0 5:1 6:1.9227333 7:1 24:1 33:1 52:1 66:1 72:1 101:1 572:1 719:1 1176:1 3069:1 3440:1 7646:1 9205:1 9206:1 
1 1 1:0 2:2 3:7 4:0 5:1 6:3.8571333 14:1 52:1 66:1 119:1 165:1 291:1 587:1 1593:1 2606:1 2635:1 2896:1 7719:1 
1 1 1:0 2:0 3:9 4:0 5:1 6:3.5153667 14:1 20:1 30:1 31:2 52:1 64:1 107:1 159:1 238:1 631:1 1115:1 2438:1 5884:1 
1 1 1:0 2:4 3:9 4:0 5:1 6:5.2316333 24:3 52:1 59:1 69:1 97:1 124:1 367:1 382:1 416:1 542:1 609:1 857:1 978:2 
1 1 1:0 2:3 3:20 4:0 5:1 6:6.5718 7:2 14:1 33:1 52:1 94:1 198:1 241:1 307:1 378:1 535:1 546:1 547:1 583:1 847:2 916:1 1215:1 1262:1 1325:1 2520:1 2823:1 2826:1 3635:1 7660:1 7662:1 9207:1 9208:1 
1 1 1:0 2:2 3:13 4:0 5:1 6:6.3337 7:2 14:1 52:1 94:1 95:1 198:1 241:1 307:1 378:1 535:1 546:1 547:1 583:1 847:1 1215:1 1262:1 1325:1 2826:1 7660:1 7662:1 
1 1 1:1 2:1 3:17 4:0 5:1 6:5.9380667 7:1 13:1 14:1 24:2 26:1 27:1 33:1 54:1 64:2 66:1 69:1 107:1 164:1 435:1 457:1 519:1 821:1 830:1 1994:1 2809:1 4663:1 5488:1 9209:1 
1 1 1:0 2:0 3:7 4:0 5:1 6:5.4641333 13:1 14:1 24:1 52:1 69:1 71:1 85:1 97:1 107:1 150:1 158:1 159:1 457:1 5081:1 9210:1 9211:1 
1 1 1:0 2:0 3:7 4:0 5:1 6:1.6380333 20:1 36:1 37:1 105:1 125:1 158:1 577:1 643:1 9212:1 
1 1 1:1 2:0 3:7 4:0 5:1 6:1.4757333 14:1 19:1 33:1 37:1 64:1 159:1 679:1 9213:1 9214:1 
1 1 1:0 2:0 3:4 4:0 5:1 6:2.5963 20:1 24:1 33:1 36:1 150:1 2867:1 9215:1 9216:1 
1 1 1:0 2:0 3:15 4:0 5:1 6:4.9603 7:4 14:1 24:2 36:1 64:1 68:1 125:1 831:1 937:1 1198:2 1211:1 2031:1 2810:1 2827:1 2871:1 4260:1 9217:1 
1 1 1:0 2:0 3:10 4:0 5:1 6:4.1592667 7:1 14:1 19:1 24:1 30:1 31:1 33:1 57:1 68:1 134:1 135:1 198:1 366:1 644:1 1437:1 2881:1 9218:1 
1 1 1:0 2:0 3:10 4:0 5:1 6:2.4953667 7:1 28:1 31:1 47:1 94:1 134:1 546:1 745:1 888:1 1287:1 2438:1 2934:1 2935:1 
1 1 1:0 2:3 3:12 4:0 5:1 6:8.4507667 14:1 24:1 33:1 59:1 66:1 68:1 103:2 146:1 158:1 198:1 227:1 257:1 328:1 448:1 473:1 491:1 1561:1 1590:1 2934:1 2935:1 3020:1 8167:1 8458:1 9219:1 
1 1 1:0 2:0 3:18 4:0 5:1 6:5.6117667 7:1 20:1 24:1 33:1 57:1 66:1 69:1 85:1 97:1 107:1 113:1 131:1 291:1 610:1 1080:1 2459:1 2520:1 2823:1 2865:1 2879:1 2934:1 2935:1 3906:1 6616:1 9220:1 9221:1 9222:1 
1 1 1:0 2:0 3:12 4:0 5:1 6:0.62963333 7:1 14:1 27:1 44:1 69:1 124:1 213:1 638:1 832:1 2424:1 2805:1 3203:1 3937:1 
1 1 1:1 2:1 3:10 4:0 5:1 6:6.5473 14:1 20:1 28:1 64:1 68:1 124:1 134:1 150:1 159:1 491:1 548:1 832:1 1204:1 1258:1 2212:1 5906:1 9223:1 9224:1 
1 1 1:0 2:1 3:4 4:0 5:1 6:1.3428667 7:1 44:1 124:1 205:1 2861:1 3238:1 
1 1 1:0 2:0 3:5 4:0 5:1 6:1.5333333 66:1 71:1 124:1 315:1 1115:1 2130:1 9225:1 
1 1 1:0 2:0 3:9 4:0 5:1 6:2.5724667 14:1 15:1 103:1 107:1 158:1 370:1 1410:1 2031:1 2719:1 2810:1 3654:1 9226:1 9227:1 
1 1 1:1 2:0 3:17 4:0 5:1 6:3.4366 10:1 14:1 15:1 20:1 24:1 33:1 69:1 72:1 107:2 132:1 2520:1 2820:1 2823:1 3069:1 6740:1 9014:1 9228:1 9229:1 9230:1 9231:1 
1 1 1:0 2:0 3:9 4:0 5:1 6:3.4074 14:2 15:1 31:1 33:1 66:1 69:2 729:1 869:1 919:1 2840:1 2953:1 9232:1 
1 1 1:0 2:0 3:5 4:0 5:1 6:1.125 7:1 24:1 36:1 38:1 97:1 144:1 885:1 
1 1 1:0 2:0 3:9 4:0 5:1 6:1.0694333 28:1 36:1 37:1 38:1 113:1 145:1 246:1 816:1 931:1 2520:1 
1 1 1:1 2:0 3:8 4:0 5:1 6:2.1543 33:1 44:1 52:1 107:1 555:1 719:1 832:1 6319:1 9233:1 9234:1 
1 1 1:1 2:1 3:14 4:0 5:1 6:6.1016 8:1 13:1 24:1 33:1 52:1 63:1 66:1 68:2 131:1 198:1 311:1 351:1 830:1 892:1 984:1 2459:1 4727:1 4739:1 5943:1 8100:1 9235:1 9236:1 
1 1 1:0 2:0 3:7 4:0 5:1 6:0.86666667 52:1 94:1 124:1 198:1 1088:1 2826:1 3356:1 9237:1 
1 1 1:0 2:1 3:6 4:0 5:1 6:4.7698333 7:2 24:1 43:1 52:1 69:1 139:1 245:1 246:1 546:1 888:1 2865:1 4953:1 
1 1 1:0 2:0 3:16 4:0 5:1 6:7.5343667 14:1 20:3 33:1 53:1 54:1 69:1 85:1 101:1 130:1 146:1 155:1 159:1 212:1 688:1 885:2 2520:1 2810:1 2820:1 2823:1 4389:1 5663:1 8281:1 9238:1 9239:1 
1 1 1:1 2:0 3:10 4:0 5:1 6:3.1620667 14:1 19:1 33:1 52:1 53:1 370:1 576:1 2520:1 2823:1 4739:1 5756:2 6616:1 9240:1 9241:1 
1 1 1:0 2:0 3:17 4:0 5:1 6:6.0568667 17:1 20:2 24:1 31:1 52:1 53:1 69:1 85:1 97:1 101:1 123:1 614:2 615:1 719:1 832:1 1026:1 2478:1 2886:1 2971:1 2974:1 3408:1 4337:1 9242:1 9243:1 
1 1 1:0 2:1 3:8 4:0 5:1 6:3.4484333 13:1 20:1 33:1 57:1 69:1 85:1 141:1 146:1 212:1 3166:1 9244:1 9245:1 9246:1 
1 1 1:0 2:2 3:11 4:0 5:1 6:5.0158667 14:2 21:1 24:1 28:1 57:1 97:1 101:1 113:1 132:1 165:2 830:1 1177:1 2912:1 5358:1 6801:1 9247:1 
1 1 1:0 2:1 3:10 4:0 5:1 6:4.2103333 7:1 20:1 24:1 33:1 57:1 59:1 72:1 107:1 198:1 370:1 542:1 731:1 1015:1 1771:1 2824:1 2857:1 
1 1 1:0 2:0 3:9 4:0 5:1 6:2.8115 20:1 28:1 31:1 47:1 57:1 131:1 246:1 546:1 931:1 986:1 2520:1 2823:1 4424:1 
1 1 1:0 2:0 3:12 4:0 5:1 6:4.8622667 8:1 14:1 20:1 26:1 28:1 57:1 68:1 198:1 213:1 491:1 923:1 1287:1 1502:1 3503:1 3806:1 6911:1 9248:1 9249:1 9250:1 
1 1 1:0 2:0 3:23 4:0 5:1 6:3.4682333 7:2 14:1 33:1 36:1 64:1 82:1 125:1 165:1 314:1 547:1 594:2 832:1 1026:1 2446:1 2520:3 2823:3 2824:1 2993:1 8690:1 9251:1 9252:1 
1 1 1:0 2:0 3:4 4:0 5:1 6:1.1555667 14:1 82:1 832:1 3344:1 8004:1 8005:1 
1 1 1:0 2:0 3:16 4:0 5:1 6:6.464 13:2 14:3 19:1 20:2 57:1 68:2 119:1 124:1 158:1 832:1 888:2 1210:1 1772:1 3806:2 6001:1 7631:1 9253:1 9254:1 
1 1 1:1 2:0 3:8 4:0 5:1 6:0.41026667 14:1 28:1 64:1 123:1 124:1 4217:1 6349:1 9255:1 
1 1 1:0 2:1 3:15 4:0 5:1 6:4.5213 7:1 14:1 19:1 20:1 31:1 59:1 64:1 85:1 112:1 113:1 123:1 124:1 276:1 874:1 1004:1 1352:1 2520:1 2804:1 2823:1 3643:1 3869:1 
1 1 1:1 2:0 3:4 4:0 5:1 6:0.41026667 14:1 124:1 2031:1 9256:1 
1 1 1:0 2:0 3:25 4:0 5:1 6:0 11:1 14:1 15:1 24:1 64:1 72:1 105:1 116:1 165:1 307:1 355:1 550:2 821:1 940:1 978:1 2520:2 2823:2 2862:2 2990:1 4368:1 4369:1 
1 1 1:0 2:0 3:12 4:0 5:1 6:0 13:1 20:2 28:1 34:1 35:1 36:1 37:1 38:1 39:1 40:1 41:1 
1 1 1:0 2:0 3:12 4:0 5:1 6:0 7:1 14:1 36:1 38:1 42:1 43:1 44:1 45:1 46:1 47:1 48:1 49:1 
1 1 1:0 2:2 3:20 4:0 5:1 6:4.2965333 7:1 14:2 20:1 31:1 33:1 44:1 57:1 68:1 69:1 72:1 81:1 147:1 198:1 355:1 831:1 2520:2 2823:2 3105:1 3139:1 3148:1 3816:1 8281:1 9257:1 
1 1 1:1 2:4 3:15 4:0 5:1 6:4.9047667 7:2 14:3 31:1 57:1 64:2 66:1 101:1 148:1 239:1 829:1 979:1 1450:1 1648:1 6433:1 6460:1 6929:1 
1 1 1:0 2:0 3:9 4:0 5:1 6:5.5983 7:1 20:1 24:1 37:1 66:1 68:1 69:1 71:1 92:1 101:1 311:1 439:1 549:1 688:1 1994:1 3769:1 9258:1 9259:1 
1 1 1:0 2:0 3:12 4:0 5:1 6:1.8842667 7:2 20:1 31:1 33:2 82:1 108:2 113:1 246:1 610:1 909:1 1912:1 2917:1 
1 1 1:0 2:0 3:10 4:0 5:1 6:2.3768667 7:1 33:1 57:1 68:1 147:1 239:1 638:1 660:1 709:1 975:1 1215:1 2975:1 9260:1 9261:1 
1 1 1:0 2:0 3:14 4:0 5:1 6:6.0873 7:1 14:1 20:1 24:1 52:1 57:1 66:1 69:1 81:1 147:1 159:1 201:1 442:1 474:1 491:1 517:1 546:1 875:1 888:1 1145:1 2885:1 3218:1 3935:1 9262:1 
1 1 1:0 2:1 3:10 4:0 5:1 6:4.2447333 14:1 20:1 52:1 69:1 107:1 113:1 168:1 467:1 612:1 674:1 885:1 933:1 2520:1 2554:1 2823:1 2829:1 
1 1 1:0 2:0 3:9 4:0 5:1 6:1.8619 14:1 30:1 31:2 33:1 52:1 370:1 821:1 913:1 3069:1 3428:1 3840:1 
1 1 1:0 2:0 3:12 4:0 5:1 6:1.9538 14:1 24:1 36:1 57:1 63:1 66:1 72:2 107:1 158:1 1176:1 3242:1 3330:1 5712:1 
1 1 1:0 2:1 3:10 4:0 5:1 6:2.5 7:1 15:1 20:1 28:1 127:1 205:1 305:1 556:1 614:1 643:1 1079:1 3397:1 7736:1 9263:1 
1 1 1:0 2:0 3:11 4:0 5:1 6:1.3214333 7:2 19:1 31:1 33:2 41:1 94:1 113:1 546:1 2458:1 2809:1 9264:1 
1 1 1:0 2:1 3:2 4:0 5:1 6:1.7176 36:1 38:1 942:1 2993:1 
1 1 1:0 2:0 3:11 4:0 5:1 6:0.53333333 7:1 14:1 82:1 107:1 546:1 830:1 1215:1 1631:1 2451:1 2957:1 3435:1 9265:1 
1 1 1:0 2:1 3:11 4:0 5:1 6:3.5325333 7:1 14:1 59:1 64:2 68:1 82:1 123:2 165:1 1468:1 1985:1 2824:1 2830:1 3380:1 9266:1 
1 1 1:0 2:0 3:19 4:0 5:1 6:3.2513333 7:2 14:3 20:1 31:2 57:1 66:1 82:1 101:1 135:1 355:1 546:1 613:1 2380:1 2881:1 3103:1 3506:1 3926:1 9267:1 
1 1 1:1 2:0 3:11 4:0 5:1 6:2.8657333 13:1 24:1 33:2 40:1 57:1 66:1 69:1 85:1 113:1 150:1 276:1 3682:1 9268:1 
1 1 1:0 2:1 3:11 4:0 5:1 6:5.2809667 7:1 14:1 28:1 31:3 33:1 53:1 64:1 68:1 79:1 134:1 150:1 159:1 238:1 546:1 2438:1 2862:1 3238:1 
1 1 1:3 2:0 3:11 4:0 5:1 6:3.1789667 7:2 24:1 63:1 64:1 107:1 816:1 876:1 888:1 2824:1 2835:1 3026:1 3031:1 3032:1 
1 1 1:0 2:2 3:12 4:0 5:1 6:4.1101 7:1 13:1 14:1 21:1 33:1 69:1 159:1 513:1 584:1 638:1 896:1 1561:1 2031:1 2073:1 3422:1 3464:1 9469:1 9470:1 
1 1 1:0 2:0 3:9 4:0 5:1 6:0.53333333 20:1 33:1 101:1 113:2 198:1 643:1 644:1 3422:1 7967:1 
1 1 1:0 2:1 3:10 4:0 5:1 6:3.8087 7:1 14:1 33:1 58:1 113:1 301:1 506:1 535:1 576:1 832:1 968:1 3422:1 3472:1 3873:1 9471:1 
1 1 1:0 2:0 3:11 4:0 5:1 6:4.1927333 7:1 14:1 19:1 20:1 24:1 33:1 64:1 69:1 71:1 419:1 830:1 919:1 984:1 1131:1 1755:1 3422:1 9472:1 9473:1 
1 1 1:0 2:0 3:6 4:0 5:1 6:2.7476333 24:1 139:1 165:1 576:1 900:1 2912:1 3422:1 3670:1 9474:1 9475:1 
1 1 1:0 2:0 3:8 4:0 5:1 6:3.0397 24:1 28:1 31:1 33:1 150:1 436:1 626:1 719:1 1131:1 7977:1 9476:1 
1 1 1:1 2:3 3:17 4:0 5:1 6:7.7574333 13:1 20:1 27:1 28:1 31:1 104:1 109:2 113:1 134:1 140:1 246:1 546:1 576:1 633:2 909:1 1328:1 1741:1 2520:1 2823:1 3068:1 3464:1 4739:1 6319:1 6336:1 9477:1 
1 1 1:2 2:0 3:19 4:0 5:1 6:4.925 7:2 14:2 20:2 21:1 24:1 33:1 47:1 64:1 70:1 112:1 132:1 518:1 576:1 583:1 633:1 932:1 962:1 989:1 3629:2 3670:1 9478:1 9479:1 
1 1 1:0 2:1 3:10 4:0 5:1 6:9.7435 20:3 69:2 109:1 119:1 139:1 158:1 205:1 233:2 569:1 612:1 633:1 687:1 832:2 876:1 1131:1 1152:1 3086:1 4613:1 9480:1 
1 1 1:1 2:0 3:18 4:0 5:1 6:3.4793667 7:3 19:1 20:1 24:1 33:1 58:1 66:1 68:1 633:1 832:1 918:1 1681:1 2824:1 2851:1 2993:1 3680:1 4647:1 5041:1 6989:1 7681:1 8632:1 
1 1 1:2 2:0 3:17 4:0 5:1 6:5.9837667 7:2 14:2 33:1 64:1 66:1 81:1 103:2 116:1 156:1 159:1 165:1 546:1 633:1 918:1 972:1 1261:1 1812:1 2427:1 2912:1 9481:1 9482:1 
1 1 1:0 2:2 3:10 4:0 5:1 6:5.1107667 7:1 14:1 24:1 31:1 94:1 378:1 576:1 613:1 789:1 896:1 918:1 1680:1 7662:1 9483:1 9484:1 
1 1 1:0 2:0 3:12 4:0 5:1 6:3.5213 7:2 8:1 13:1 20:1 63:1 68:1 366:1 439:1 888:2 918:1 1287:1 1559:1 2830:1 6261:1 8016:1 
1 1 1:0 2:0 3:6 4:0 5:1 6:1.1288 20:1 33:1 44:1 45:1 156:1 918:1 3493:1 3600:1 
1 1 1:0 2:1 3:9 4:0 5:1 6:1.625 7:1 33:1 44:1 613:1 918:1 1146:1 3464:1 3477:1 3758:1 5605:1 9485:1 
1 1 1:0 2:3 3:17 4:0 5:1 6:5.7099 7:2 14:1 24:1 31:1 56:1 66:2 94:1 433:1 576:1 918:1 1146:1 1198:1 2781:1 2917:1 3445:1 3558:1 4663:1 6311:1 9382:1 9486:1 9487:1 
1 1 1:0 2:1 3:18 4:0 5:1 6:6.2042333 7:2 8:1 14:2 20:1 28:1 31:2 63:1 370:1 617:1 888:1 918:1 963:1 1125:1 1672:1 1744:1 2896:1 3086:1 3452:1 3767:1 3769:1 8144:1 9488:1 9489:1 
1 1 1:0 2:1 3:12 4:0 5:1 6:4.1015667 7:1 14:1 28:1 31:1 58:1 66:1 371:1 463:1 482:1 486:1 546:1 633:1 918:1 3407:1 9490:1 9491:1 9492:1 9493:1 
1 1 1:0 2:0 3:16 4:0 5:1 6:2.9106 14:1 24:1 31:1 33:1 42:1 47:1 66:1 68:1 69:1 101:1 172:1 213:1 638:1 918:1 963:1 1994:1 2826:1 2938:1 4609:1 9494:2 
1 1 1:0 2:1 3:10 4:0 5:1 6:6.9943333 20:1 33:1 63:1 71:1 109:1 113:1 159:1 205:1 497:1 498:1 582:1 583:1 584:1 873:1 875:1 918:1 940:1 975:1 1639:1 3464:1 3666:1 9495:1 
1 1 1:0 2:1 3:7 4:0 5:1 6:3.9657333 7:2 14:1 28:1 56:1 101:1 112:1 239:1 307:1 644:1 918:1 941:1 1115:1 
1 1 1:0 2:2 3:14 4:0 5:1 6:7.5024667 7:2 18:1 19:1 20:1 24:2 59:1 146:1 241:1 439:1 832:1 931:1 950:1 1145:1 1328:1 1581:1 1670:1 3068:1 3189:1 6004:1 6039:1 6662:1 
1 1 1:0 2:0 3:13 4:0 5:1 6:0 7:1 19:1 26:1 28:1 33:1 42:1 165:1 829:1 918:1 1055:1 1206:1 2344:1 5956:1 
1 1 1:1 2:1 3:6 4:0 5:1 6:3.7268667 24:1 33:2 69:1 109:1 150:1 257:1 576:1 918:1 1218:1 4138:1 
1 1 1:0 2:2 3:5 4:0 5:1 6:4.5481667 14:1 24:1 64:1 85:1 103:1 134:1 918:1 970:1 1385:1 4758:1 9226:1 
1 1 1:0 2:0 3:8 4:0 5:1 6:1.8296333 13:1 20:1 33:1 69:1 145:1 213:1 918:1 1088:1 1206:1 1534:1 9496:1 
1 1 1:0 2:3 3:18 4:0 5:1 6:8.9022667 7:2 8:1 24:4 25:1 28:2 31:1 33:1 58:1 66:2 68:2 109:1 150:2 576:1 633:1 963:1 975:1 1287:1 1559:1 2821:1 3238:1 3421:1 4371:1 
1 1 1:0 2:1 3:13 4:0 5:1 6:5.603 7:2 14:1 24:1 48:1 63:1 68:1 158:1 198:1 307:1 535:1 610:1 878:1 918:1 919:1 923:1 941:1 2410:1 2520:1 2823:1 3460:1 9497:1 
1 1 1:1 2:3 3:18 4:0 5:1 6:6.4490667 7:1 14:1 20:1 28:1 101:1 134:1 159:1 198:1 213:2 370:1 491:1 633:1 634:1 635:1 832:1 1033:1 1196:1 1261:1 2142:1 2484:1 3007:1 4371:1 6026:1 6027:1 6028:1 
1 1 1:0 2:0 3:7 4:0 5:1 6:1.6296333 13:1 19:1 24:1 33:1 69:1 72:1 918:1 931:1 6046:1 
1 1 1:1 2:1 3:8 4:0 5:1 6:3.5266667 14:1 33:1 127:1 153:1 159:1 241:1 457:1 932:1 1146:1 3491:1 7332:1 8625:1 8626:1 
1 1 1:0 2:2 3:9 4:0 5:1 6:6.1916667 24:1 28:1 64:1 68:1 116:1 159:1 223:1 246:1 523:1 571:1 928:1 932:1 933:1 934:1 935:1 936:1 
1 1 1:1 2:0 3:9 4:0 5:1 6:3.7121667 14:1 20:1 33:1 66:1 69:1 94:1 150:1 233:1 633:1 1304:1 2554:1 2928:1 9498:1 
1 1 1:0 2:0 3:6 4:0 5:1 6:1.0444333 19:1 33:1 891:1 918:1 931:1 968:1 2917:1 
1 1 1:1 2:0 3:12 4:0 5:1 6:2.8856 7:2 14:1 24:1 33:1 69:1 97:1 246:1 355:1 492:1 633:1 2520:1 2823:1 6085:1 6256:1 9185:1 
1 1 1:1 2:0 3:12 4:0 5:1 6:2.8856 7:2 14:1 24:1 33:1 69:1 97:1 246:1 355:1 492:1 633:1 2520:1 2823:1 6085:1 6256:1 9185:1 
1 1 1:1 2:1 3:12 4:0 5:1 6:8.3655 20:1 31:1 64:1 94:1 201:1 213:1 248:1 478:1 546:1 555:2 612:1 633:1 719:1 731:1 2120:1 4473:1 8334:1 9499:1 9500:1 9501:1 9502:1 9503:1 
1 1 1:0 2:3 3:3 4:0 5:1 6:7.0148333 14:1 109:1 246:1 571:1 576:1 751:1 900:1 1260:1 1437:1 1923:1 2987:1 3760:1 
1 1 1:0 2:0 3:5 4:0 5:1 6:1.1288 28:1 33:2 129:1 158:1 576:1 3082:1 
1 1 1:0 2:1 3:11 4:0 5:1 6:5.0183667 7:1 20:2 33:1 71:1 113:1 158:1 165:1 241:1 576:1 638:2 1023:1 1524:1 2879:1 6339:1 6626:1 9504:1 
1 1 1:0 2:1 3:9 4:0 5:1 6:6.2820333 7:1 58:1 66:1 68:1 103:1 110:1 158:1 871:1 1162:1 1468:1 1994:1 2537:1 2813:1 3854:1 3893:1 4211:1 6164:1 
1 1 1:1 2:0 3:11 4:0 5:1 6:10.272967 20:1 28:1 68:1 119:1 134:1 139:1 159:1 172:2 1026:1 1080:1 1284:2 1304:1 1402:2 2112:1 2363:1 2537:1 2554:1 2988:1 4000:1 9679:1 9693:1 
1 1 1:0 2:0 3:11 4:0 5:1 6:4.8889333 7:1 20:1 24:1 31:1 144:1 200:1 457:1 489:1 1540:1 1541:1 1542:1 2252:1 2993:1 4010:1 5712:1 9694:1 9695:1 
1 1 1:0 2:0 3:7 4:0 5:1 6:3.5635 24:1 28:1 64:1 201:1 852:1 1212:1 1213:1 1214:1 1681:1 2799:1 2868:1 2988:1 
1 1 1:0 2:0 3:6 4:0 5:1 6:4.3404667 68:1 198:1 482:1 547:1 852:1 1211:1 1212:1 1213:1 1214:1 1625:1 2988:1 3484:1 3862:1 
1 1 1:1 2:0 3:6 4:0 5:1 6:2.1739333 69:1 852:1 1212:1 1213:1 1214:1 1756:1 4739:1 4740:1 
1 1 1:0 2:0 3:6 4:0 5:1 6:0 7:1 42:1 44:1 1004:1 2813:1 2879:1 
1 1 1:0 2:0 3:11 4:0 5:1 6:2.9258 7:1 33:1 66:1 68:1 113:1 119:1 518:1 832:1 937:1 984:1 1220:1 1221:1 1222:1 2917:1 6740:1 
1 1 1:0 2:5 3:9 4:0 5:1 6:10.1212 24:1 33:1 64:1 101:1 105:1 109:1 116:1 150:1 456:1 751:1 1201:1 1208:1 1209:1 1216:1 1220:1 2363:1 2537:1 2570:1 3779:1 3868:1 3869:1 3870:1 
1 1 1:0 2:2 3:6 4:0 5:1 6:4.1733 7:1 47:1 64:1 68:1 109:1 112:1 638:2 1208:1 1209:1 1210:1 1211:1 
1 1 1:0 2:0 3:5 4:0 5:1 6:1.2954667 20:1 33:1 158:1 830:1 1228:1 1229:1 9696:1 
1 1 1:1 2:0 3:10 4:0 5:1 6:3.7445333 20:1 31:1 33:1 64:1 69:1 158:1 165:1 198:1 832:1 1228:1 1229:1 1559:1 6718:1 9697:1 9698:1 
1 1 1:0 2:0 3:11 4:0 5:1 6:4.7045 20:2 28:1 33:1 66:1 69:1 85:1 153:1 165:1 583:1 611:1 1592:1 1644:1 2130:1 7524:1 9699:1 9700:1 
1 1 1:0 2:0 3:6 4:0 5:1 6:2.4078 20:1 33:1 113:1 115:1 206:1 437:1 546:1 1644:1 2886:1 6289:1 
1 1 1:0 2:0 3:5 4:0 5:1 6:2.3537 33:2 68:1 555:1 1202:1 1221:1 1222:1 2112:1 
1 1 1:0 2:0 3:7 4:0 5:1 6:3.3371333 20:3 31:1 63:1 158:1 518:1 643:1 1227:1 1228:1 1229:1 3018:1 
1 1 1:0 2:0 3:15 4:0 5:1 6:2.6401667 8:2 20:1 21:1 41:1 72:1 158:1 966:1 1227:1 1228:1 1229:1 1625:1 2972:1 2974:1 3354:1 6435:1 7946:1 9701:1 9702:1 
1 1 1:0 2:1 3:12 4:0 5:1 6:7.9317333 7:1 24:1 33:1 41:1 58:1 68:1 109:1 113:1 132:1 150:1 159:1 832:1 852:1 984:1 1212:1 1213:1 1214:1 1220:1 1284:1 1593:1 3874:1 4000:1 7867:1 
1 1 1:0 2:0 3:3 4:0 5:1 6:2.2054 72:1 335:1 2252:1 3296:1 3881:1 3930:1 
1 1 1:1 2:1 3:7 4:0 5:1 6:5.7152 19:1 38:1 58:1 68:2 131:1 205:1 335:1 643:1 886:1 2112:1 2662:1 3881:1 9053:1 9703:1 9704:1 
1 1 1:0 2:0 3:5 4:0 5:1 6:1.9023667 7:2 66:1 335:1 2252:1 2809:1 3881:1 9705:1 
1 1 1:1 2:2 3:11 4:0 5:1 6:4.4134 7:1 33:1 69:1 94:1 115:2 139:1 143:1 546:1 984:1 3023:1 3105:1 3518:1 4358:1 8199:1 9706:1 
1 1 1:1 2:2 3:10 4:0 5:1 6:4.4134 7:1 69:1 94:1 115:2 139:1 143:1 546:1 984:1 3023:1 3105:1 3518:1 4358:1 8199:1 9706:1 
1 1 1:0 2:0 3:3 4:0 5:1 6:1.7190333 19:1 68:1 335:1 2252:1 2901:1 3881:1 
1 1 1:1 2:1 3:2 4:0 5:1 6:1.8154667 58:1 109:1 1217:1 1218:1 
1 1 1:1 2:3 3:6 4:0 5:1 6:5.8108 31:1 69:1 508:1 579:1 1216:1 1667:1 1812:1 3890:1 4332:1 8204:1 8205:1 8206:1 8207:1 
-1 1 1:0 2:1 3:10 4:0 5:1 6:4.6963 14:1 20:1 31:1 33:1 42:1 53:1 61:1 62:1 63:1 64:1 65:1 66:1 67:1 68:1 69:1 70:1 71:1 
-0.6521300245880186 1 1:0 2:0 3:5 4:1 5:0 6:1.5713 33:1 68:1 69:1 80:1 81:1 82:1 83:1 
-1 1 1:0 2:2 3:13 4:1 5:0 6:7.2619 14:1 28:1 30:1 31:2 68:2 82:1 84:1 85:1 86:1 87:1 88:1 89:1 90:1 91:1 92:1 93:1 94:1 95:1 96:1 97:1 98:1 99:1 
-0 1 1:0 2:0 3:6 4:1 5:0 6:1.7555667 11:1 12:1 13:1 82:1 100:1 101:1 102:1 103:1 104:1 
-1 1 1:0 2:0 3:6 4:0 5:1 6:0.7143 14:1 31:1 82:1 105:1 106:1 107:1 108:1 
-0 1 1:0 2:2 3:7 4:1 5:0 6:3.4836333 24:1 33:1 107:1 109:1 110:1 111:1 112:1 113:1 114:1 115:2 116:1 
-0 1 1:1 2:0 3:11 4:1 5:0 6:2.0258 20:1 33:1 64:1 88:1 115:1 117:1 118:1 119:1 120:1 121:1 122:1 123:1 124:1 
-1 1 1:0 2:0 3:15 4:1 5:0 6:2.4074 15:1 24:2 25:1 26:1 27:1 28:1 34:1 36:1 37:1 69:1 101:1 125:1 126:1 127:1 128:1 129:1 130:1 131:1 
-0 1 1:0 2:4 3:17 4:0 5:1 6:8.0059667 7:1 13:1 20:3 25:1 31:2 38:3 41:1 59:1 68:1 132:1 133:1 134:1 135:1 136:1 137:1 138:1 139:1 140:1 141:1 142:1 143:1 144:1 145:1 
-0 1 1:0 2:0 3:9 4:1 5:0 6:5.7248333 20:1 31:1 33:1 52:1 53:1 54:1 100:1 150:1 151:1 152:1 153:1 154:1 155:1 156:1 157:1 158:1 159:1 160:1 
-1 1 1:0 2:0 3:4 4:0 5:1 6:0.7143 82:1 108:2 161:1 162:1 
-1 1 1:0 2:1 3:5 4:0 5:1 6:1.6489667 14:1 20:1 37:1 125:1 163:1 164:1 165:1 
-0 1 1:0 2:1 3:6 4:0 5:1 6:2.0416667 31:1 57:1 175:1 176:1 177:1 178:1 179:1 180:1 181:1 
-0 1 1:0 2:2 3:7 4:0 5:1 6:2.3470333 145:2 147:1 158:1 168:1 189:1 209:1 210:1 211:1 212:1 
-0.818746015108362 1 1:0 2:0 3:6 4:0 5:1 6:1.2111 31:1 40:1 57:1 66:1 216:1 217:1 218:1 219:1 
-0 1 1:0 2:1 3:3 4:0 5:1 6:3.2551333 57:1 158:1 234:1 235:1 236:1 237:1 238:1 239:1 
-0 1 1:0 2:2 3:9 4:0 5:1 6:3.3647333 158:2 159:1 168:2 189:1 225:1 266:1 267:1 268:1 269:1 270:1 271:1 272:1 
-0 1 1:0 2:2 3:3 4:0 5:1 6:2.9484333 20:1 189:1 293:1 294:1 295:1 296:1 297:1 
-0 1 1:0 2:1 3:6 4:0 5:1 6:3.1865 13:1 58:1 86:1 107:1 153:1 189:1 227:1 311:1 312:1 313:1 314:1 
-0 1 1:0 2:1 3:6 4:0 5:1 6:2.3333333 57:1 86:1 172:1 208:1 315:1 316:1 317:1 318:1 
-1 0 1:1 2:0 3:6 4:0 5:1 6:3.0987667 57:1 64:1 147:1 172:1 315:1 326:1 327:1 328:1 329:1 330:1 
-0 1 1:0 2:2 3:10 4:0 5:1 6:3.4314667 94:1 189:1 191:1 302:1 303:1 331:1 332:1 333:1 334:1 335:1 336:1 337:1 338:1 339:1 
-0.1655020071770489 0 1:0 2:0 3:7 4:0 5:1 6:0.66666667 57:1 66:1 123:1 150:1 172:1 227:1 285:1 304:1 
-0 1 1:0 2:2 3:3 4:0 5:1 6:4.8399667 59:1 64:1 69:1 189:1 362:1 363:1 364:1 365:1 366:1 367:1 
-0 1 1:0 2:1 3:8 4:0 5:1 6:1.9904667 31:1 57:1 206:1 255:1 302:1 303:1 378:1 379:1 380:1 381:1 
-0 1 1:0 2:1 3:5 4:0 5:1 6:2.8814667 105:1 189:1 227:1 292:1 369:1 382:1 383:1 384:1 385:1 
-0 1 1:0 2:1 3:6 4:0 5:1 6:2.7665333 24:1 69:1 189:1 401:1 402:1 403:1 404:1 405:1 406:1 
-1 1 1:0 2:1 3:6 4:0 5:1 6:4.2658667 24:1 57:1 66:1 69:1 276:1 358:1 407:1 408:1 409:1 410:1 411:1 412:1 
-1 1 1:0 2:0 3:5 4:0 5:1 6:2.1534333 40:1 69:1 189:1 407:1 425:1 426:1 427:1 428:1 
-0 1 1:0 2:1 3:8 4:0 5:1 6:1.9538333 57:1 172:1 173:1 262:1 435:1 436:1 437:1 438:1 439:1 440:1 
-0 1 1:0 2:2 3:8 4:0 5:1 6:3.9318667 20:1 31:1 57:1 85:1 172:1 276:1 355:1 444:1 445:1 446:1 447:1 448:1 449:1 
-0 1 1:0 2:1 3:9 4:0 5:1 6:2.0787 57:1 66:2 172:1 182:1 186:1 187:1 188:1 191:1 450:1 456:1 457:1 
-0.1938896125728372 0 1:0 2:0 3:17 4:0 5:1 6:0.5 57:1 64:1 66:3 145:2 172:1 241:1 242:1 255:1 441:1 471:1 472:1 473:2 474:1 475:1 
-0.2386369453367193 0 1:0 2:0 3:8 4:0 5:1 6:3.5304667 40:1 57:1 66:1 150:1 172:1 233:1 276:1 419:1 489:1 490:1 491:1 492:1 493:1 
-0 1 1:0 2:1 3:3 4:0 5:1 6:1.4523667 57:1 276:1 407:1 511:1 512:1 
-0 1 1:0 2:1 3:8 4:0 5:1 6:3.1924667 13:1 57:1 526:1 527:1 528:1 529:1 530:1 531:1 532:1 533:1 534:1 535:1 
-1 0 1:0 2:0 3:6 4:0 5:1 6:3.1137333 14:1 57:1 69:1 115:1 241:1 242:1 322:1 429:1 536:1 537:1 
-0 1 1:0 2:1 3:5 4:0 5:1 6:3.5338333 57:1 159:1 247:1 442:1 545:1 546:1 547:1 548:1 549:1 550:1 
-0 0.1444212577532243 1:0 2:2 3:12 4:0 5:1 6:3.0207333 20:1 57:1 66:1 85:1 145:1 147:1 172:1 182:1 186:1 189:1 442:1 450:1 502:1 508:1 541:1 542:1 
-0 1 1:0 2:1 3:5 4:0 5:1 6:1.4047667 31:1 57:1 206:1 228:1 255:1 573:1 574:1 
-1 1 1:0 2:0 3:7 4:0 5:1 6:1.0648 52:1 53:1 57:1 442:1 567:1 575:1 576:1 577:1 
-0 1 1:0 2:1 3:5 4:0 5:1 6:4.6169 57:1 71:1 158:1 227:1 582:1 583:1 584:1 585:1 586:1 587:1 588:1 589:1 
-0 0.08505064871526363 1:0 2:1 3:7 4:0 5:1 6:3.6592667 20:1 57:1 81:1 129:1 158:1 159:1 546:1 590:1 591:1 592:1 593:1 594:1 
-0 1 1:0 2:2 3:8 4:0 5:1 6:2.8232667 57:1 64:1 147:1 158:1 172:1 396:1 525:1 598:1 599:1 600:1 601:1 602:1 
-1 1 1:0 2:2 3:3 4:0 5:1 6:3.6472333 14:1 20:1 57:1 297:1 351:1 607:1 608:1 609:1 
-1 1 1:0 2:0 3:12 4:0 5:1 6:1.7857 7:1 14:1 20:1 57:2 115:1 146:1 159:1 172:1 442:1 525:1 612:1 613:1 614:1 615:1 
-0 1 1:0 2:1 3:8 4:0 5:1 6:2.6064667 57:1 146:1 576:1 633:1 634:1 635:1 636:1 637:1 638:1 639:1 640:1 641:1 
-0.4531315187681827 0 1:0 2:1 3:10 4:0 5:1 6:2.0423333 57:1 64:1 124:1 159:1 172:1 233:1 667:1 668:1 669:1 670:1 671:1 672:1 673:1 
-0 1 1:0 2:2 3:9 4:0 5:1 6:3.4456333 31:1 64:1 145:1 147:1 189:1 210:1 562:1 698:1 699:1 700:1 701:1 702:1 703:1 
-1 0 1:0 2:0 3:4 4:0 5:1 6:1.5571333 57:1 71:1 124:1 159:1 168:1 670:1 704:1 
-0 1 1:0 2:0 3:4 4:0 5:1 6:0.5926 64:1 189:1 710:1 711:1 712:1 
-0 1 1:0 2:1 3:2 4:0 5:1 6:1.6190333 57:1 337:1 407:1 718:1 
-0 1 1:0 2:0 3:1 4:0 5:1 6:1.7857 57:1 407:1 481:1 482:1 
-0 1 1:0 2:1 3:6 4:0 5:1 6:2.8452333 57:1 172:1 233:1 320:1 723:1 724:1 731:1 732:1 733:1 
-0 1 1:0 2:0 3:2 4:0 5:1 6:1.7539333 57:1 276:1 407:1 737:1 738:1 
-0 1 1:0 2:1 3:4 4:0 5:1 6:5.0701667 19:1 57:1 67:1 345:1 407:1 491:1 750:1 751:1 752:1 753:1 754:1 
-0.7498511744376345 0 1:0 2:0 3:7 4:0 5:1 6:3.9821333 20:1 40:1 57:1 64:1 66:1 159:1 213:1 214:1 274:1 430:1 786:1 787:1 788:1 
-0.038454361419963 0 1:0 2:0 3:10 4:0 5:1 6:0 13:1 31:1 57:1 175:1 176:1 177:1 442:1 797:1 798:1 799:1 
-1 0 1:0 2:0 3:7 4:0 5:1 6:3.0365 57:1 199:1 248:1 307:1 567:1 808:1 809:1 810:1 811:1 812:1 
-0 1 1:0 2:1 3:5 4:1 5:0 6:1.9846333 66:1 158:1 918:1 951:1 952:1 953:1 954:1 955:1 
-0 1 1:0 2:0 3:4 4:0 5:1 6:1.4166667 20:1 33:1 918:1 956:1 957:1 958:1 
-1 1 1:0 2:0 3:6 4:0 5:1 6:3.1223667 7:1 8:1 85:1 97:1 115:1 918:1 959:1 960:1 961:1 962:1 963:1 
-0 1 1:0 2:0 3:17 4:2 5:0 6:6.7629333 7:2 20:1 31:1 33:1 66:1 111:1 112:1 115:1 132:1 165:1 506:1 576:1 633:1 874:1 964:1 965:1 966:1 967:1 968:1 969:1 970:1 971:1 972:1 973:1 974:1 
-0 1 1:0 2:2 3:11 4:2 5:0 6:7.2842667 7:1 20:1 33:1 158:1 170:1 198:1 311:1 751:1 940:1 943:1 967:1 975:1 976:1 977:1 978:1 979:1 980:1 981:1 982:1 983:1 984:1 
-0 1 1:0 2:0 3:8 4:0 5:1 6:0 66:1 147:1 473:1 510:1 1002:1 1029:1 1030:1 1031:1 
-0 1 1:0 2:1 3:8 4:0 5:1 6:2.2817667 144:1 147:1 396:1 497:2 576:1 1038:1 1039:1 1040:1 1041:1 
-0 1 1:0 2:2 3:2 4:0 5:1 6:3.1008 615:1 980:1 1033:1 1042:1 1043:1 1044:1 
-0 1 1:0 2:0 3:4 4:0 5:1 6:1.8009333 338:1 633:1 635:1 1001:1 1005:1 1006:1 1045:1 
-0 1 1:0 2:1 3:6 4:0 5:1 6:2.7083333 198:1 1001:1 1046:1 1047:1 1048:1 1049:1 1050:1 1051:1 1052:1 1053:1 
-0 1 1:0 2:0 3:6 4:0 5:1 6:0.66666667 20:1 633:1 635:1 1001:1 1005:1 1006:1 1065:1 
-0 0.6293329753290609 1:0 2:0 3:7 4:0 5:1 6:1.1904667 144:1 963:1 988:1 992:1 1066:1 1067:1 1068:1 1069:1 1070:1 
-0 1 1:0 2:0 3:4 4:0 5:1 6:1.4464333 20:1 241:1 493:1 633:1 1094:1 1095:1 
-0 1 1:0 2:0 3:6 4:0 5:1 6:0.7619 615:1 1042:1 1106:1 1107:1 1108:1 1109:1 1110:1 
-0 1 1:0 2:0 3:4 4:0 5:1 6:1.8333333 330:1 633:1 1001:1 1009:1 1011:1 1116:1 1117:1 
-0 1 1:0 2:0 3:4 4:0 5:1 6:1.1666667 122:1 241:1 633:1 1008:1 1122:1 1123:1 
-0 1 1:0 2:0 3:5 4:0 5:1 6:1.7010667 69:1 633:1 919:1 1000:1 1008:1 1126:1 1130:1 1131:1 
-0 1 1:0 2:0 3:2 4:0 5:1 6:3.6805667 153:1 338:1 576:1 1135:1 1136:1 1137:1 1138:1 1139:1 
-0 1 1:0 2:1 3:12 4:0 5:1 6:0.85713333 31:1 137:1 145:1 169:1 497:1 633:1 779:1 1055:1 1140:1 1141:1 1142:1 1143:1 1144:1 
-0 1 1:0 2:0 3:4 4:0 5:1 6:1.6825333 81:1 100:1 165:1 172:1 291:1 1074:1 
-0 1 1:0 2:1 3:3 4:0 5:1 6:2.0926 401:1 831:1 1024:1 1146:1 1147:1 1148:1 
-0 1 1:0 2:0 3:8 4:1 5:0 6:1.6407667 33:1 68:1 113:2 115:1 546:1 975:1 1219:1 1220:1 1221:1 1222:1 
-0 1 1:0 2:1 3:4 4:1 5:0 6:2.1828333 20:1 68:1 198:1 561:1 1221:1 1222:1 1223:1 
-0 1 1:0 2:0 3:5 4:1 5:0 6:0.56666667 68:1 113:1 115:1 165:1 1221:1 1222:1 
-0 1 1:0 2:0 3:6 4:0 5:1 6:0.56666667 68:1 115:1 1221:1 1222:1 1224:1 1225:1 1226:1 
-0 1 1:0 2:1 3:5 4:0 5:1 6:3.9371333 7:1 20:1 42:1 115:1 158:1 612:1 933:1 1115:1 1227:1 1228:1 1229:1 
-0 1 1:0 2:0 3:5 4:0 5:1 6:1.3333333 20:1 81:1 1230:1 1231:1 1232:1 1233:1 1234:1 
-0 1 1:0 2:1 3:9 4:0 5:1 6:4.6742 20:2 94:1 198:1 205:1 832:1 910:1 1216:1 1247:1 1248:1 1249:1 1250:1 1251:1 1252:1 1253:1 1254:1 
-0 1 1:0 2:4 3:11 4:0 5:1 6:9.1387333 20:1 64:1 113:1 129:1 213:2 241:1 338:1 594:1 612:1 832:1 1166:1 1227:1 1262:2 1266:2 1273:1 1274:1 1275:1 1276:1 1277:1 1278:1 
-1 0 1:0 2:0 3:10 4:0 5:1 6:4.0024 28:1 31:1 94:1 145:1 159:1 307:1 929:1 1051:1 1279:1 1280:1 1281:1 1282:1 1283:1 1284:1 1285:1 1286:1 
-0 1 1:0 2:2 3:5 4:0 5:1 6:6.4710333 7:1 20:1 94:1 111:1 113:1 115:1 131:1 205:1 909:1 1216:1 1247:1 1248:1 1302:1 1303:1 1304:1 
-0 1 1:0 2:2 3:7 4:0 5:1 6:6.1883 20:2 24:1 31:1 158:1 340:1 641:1 1284:1 1311:1 1371:1 1372:1 1373:1 1374:1 1375:1 1376:1 1377:1 
-0 1 1:0 2:3 3:9 4:0 5:1 6:6.8266333 20:1 31:3 94:1 158:2 976:1 1284:1 1328:1 1378:1 1379:1 1380:1 1381:1 1382:1 1383:1 1384:1 1385:1 
-0 1 1:0 2:3 3:11 4:0 5:1 6:6.8708333 20:1 24:2 31:1 43:1 56:1 158:1 159:1 635:1 638:2 1444:1 1445:1 1446:1 1447:1 1448:1 1449:1 1450:1 1451:1 1452:1 1453:1 
-0 1 1:0 2:2 3:10 4:0 5:1 6:6.0198 20:2 24:1 58:1 64:1 72:1 88:1 94:1 159:1 1050:1 1284:1 1489:1 1490:1 1491:1 1492:1 1493:1 1494:1 1495:1 
-0.7773506074973853 0 1:0 2:0 3:14 4:0 5:1 6:4.5892667 13:1 20:1 33:1 66:2 105:1 159:1 241:1 566:1 832:1 1198:1 1394:1 1468:1 1511:1 1512:1 1513:1 1514:1 1515:1 1516:1 1517:1 1518:1 
-0 1 1:0 2:2 3:13 4:0 5:1 6:4.0877 13:1 19:1 24:1 31:3 58:1 94:1 643:1 829:1 929:1 1167:1 1410:1 1523:1 1524:1 1525:1 1526:1 1527:1 1528:1 
-0 1 1:0 2:2 3:15 4:0 5:1 6:5.5085 13:1 20:2 31:2 113:1 115:1 131:1 135:1 154:1 198:1 501:1 752:1 829:1 1196:1 1216:1 1554:1 1555:1 1556:1 1557:1 1558:1 1559:1 
-0 1 1:0 2:4 3:9 4:0 5:1 6:9.0923 24:1 31:1 64:1 69:1 72:1 115:1 122:1 172:1 213:1 241:1 338:1 1216:1 1227:1 1262:1 1266:1 1274:1 1564:1 1580:1 1581:1 1582:1 1583:1 1584:1 
-1 0 1:0 2:0 3:11 4:0 5:1 6:4.3603333 20:1 24:1 69:1 92:1 159:1 233:1 523:1 546:1 1287:1 1318:1 1601:1 1602:1 1603:1 1604:1 1605:1 1606:1 1607:1 
-0 1 1:0 2:0 3:9 4:0 5:1 6:3.7182333 31:1 33:1 159:1 311:1 398:1 816:1 1227:1 1597:1 1608:1 1609:1 1610:1 1611:1 1612:1 1613:1 1614:1 
-0 1 1:0 2:4 3:10 4:0 5:1 6:6.0333333 20:1 66:2 103:1 172:1 205:1 338:1 1196:1 1581:1 1645:1 1646:1 1647:1 1648:1 1649:1 1650:1 1651:1 1652:1 1653:1 
-0 1 1:0 2:3 3:8 4:0 5:1 6:6.1500667 20:1 31:1 158:1 159:1 367:1 609:1 1284:1 1309:1 1311:1 1376:1 1422:1 1654:1 1655:1 1656:1 1657:1 1658:1 1659:1 
-0.3681570123064427 1 1:0 2:2 3:4 4:0 5:1 6:4.6096667 20:1 58:1 66:1 68:1 535:1 751:1 1468:1 1675:1 1676:1 1677:1 1678:1 
-0 1 1:0 2:0 3:1 4:0 5:1 6:3.0981667 33:1 139:1 909:1 1679:1 1680:1 1681:1 
-0 1 1:0 2:1 3:9 4:0 5:1 6:2.0866 20:1 477:1 508:1 1420:1 1565:1 1682:1 1683:1 1684:1 1685:1 1686:1 1687:1 1688:1 
-0 1 1:0 2:3 3:5 4:0 5:1 6:2.5485 64:1 508:1 1523:1 1682:1 1689:1 1690:1 1691:1 1692:1 
-0 1 1:0 2:2 3:9 4:0 5:1 6:1.6580333 242:1 508:1 1079:1 1682:1 1693:1 1694:1 1695:1 1696:1 1697:1 1698:1 1699:1 
-0 1 1:0 2:2 3:12 4:0 5:1 6:3.6063 20:2 66:1 158:1 159:1 1222:1 1467:1 1715:1 1716:1 1717:1 1718:1 1719:1 1720:1 1721:1 1722:1 1723:1 1724:1 
-0 1 1:0 2:0 3:9 4:0 5:1 6:0.56666667 33:8 1673:1 1725:1 
-0 0.1515799648966635 1:0 2:2 3:11 4:0 5:1 6:7.0145667 20:1 24:1 33:1 64:1 69:1 113:1 159:1 285:1 430:1 612:1 667:1 989:1 1266:1 1668:1 1669:1 1726:1 1727:1 1728:1 1729:1 1730:1 1731:1 
-0 1 1:0 2:0 3:6 4:0 5:1 6:1.7142667 20:1 33:1 58:1 66:1 159:1 506:1 929:1 1732:1 1733:1 
-0 1 1:0 2:3 3:9 4:0 5:1 6:5.1646667 13:1 20:1 122:1 130:1 137:1 198:1 638:1 1047:1 1365:1 1534:1 1696:1 1734:1 1735:1 1736:1 1737:1 1738:1 
-0 1 1:0 2:3 3:10 4:0 5:1 6:6.8108 31:1 64:1 94:1 101:1 111:1 113:1 115:1 122:1 213:1 667:1 829:1 1144:1 1227:2 1262:1 1266:1 1274:1 1744:1 1745:1 
-0.7032296855622241 1 1:0 2:0 3:7 4:0 5:1 6:3.8554333 20:1 31:1 33:1 69:1 101:1 103:1 105:1 338:1 863:1 1194:1 1755:1 1756:1 1757:1 
-0 1 1:0 2:2 3:10 4:0 5:1 6:5.2834333 13:1 20:2 24:1 30:1 156:1 158:1 1318:1 1325:1 1678:1 1689:1 1771:1 1772:1 1773:1 1774:1 1775:1 1776:1 
-0 1 1:0 2:4 3:10 4:0 5:1 6:4.9019 24:1 257:1 546:1 561:1 847:1 1323:1 1777:1 1778:3 1779:1 1780:1 1781:1 1782:1 1783:1 1784:1 
-0 1 1:0 2:2 3:6 4:0 5:1 6:5.5908333 20:2 33:1 158:1 205:1 338:1 667:1 1136:1 1328:1 1468:1 1747:1 1775:1 1808:1 1809:1 
-0.3616825677669542 0 1:0 2:0 3:7 4:0 5:1 6:7.1351667 20:1 31:1 69:1 94:1 326:1 418:1 517:1 546:1 686:1 832:1 1026:1 1614:1 1810:1 1811:1 1812:1 1813:1 1814:1 
-0 1 1:0 2:1 3:9 4:0 5:1 6:5.0270333 20:1 33:1 73:1 158:2 198:1 213:1 1227:1 1815:1 1816:1 1817:1 1818:1 1819:1 1820:1 1821:1 
-0 1 1:0 2:2 3:11 4:0 5:1 6:4.1510333 13:1 20:1 24:1 31:1 66:1 158:1 378:1 953:1 1266:2 1822:1 1823:1 1824:1 1825:1 1826:1 1827:1 
-0 1 1:0 2:3 3:8 4:0 5:1 6:5.9639667 20:1 24:1 31:2 58:1 94:1 351:1 508:1 834:1 855:1 1523:1 1761:1 1773:1 1828:1 1829:1 1830:1 
-0 1 1:0 2:4 3:12 4:0 5:1 6:5.7504333 13:1 20:1 31:1 137:1 158:1 198:1 230:1 338:1 508:1 644:1 860:1 1266:1 1471:1 1834:1 1835:1 1836:1 1837:1 1838:1 1839:1 1840:1 
-0 1 1:0 2:4 3:9 4:0 5:1 6:5.7466667 20:3 159:1 198:1 555:1 825:1 1144:1 1311:1 1328:1 1775:1 1889:1 1890:1 1891:1 1892:1 1893:1 
-0 1 1:0 2:2 3:5 4:0 5:1 6:2.1485 20:1 241:1 508:1 1309:1 1310:1 1523:1 1704:1 1894:1 
-0 1 1:0 2:4 3:8 4:0 5:1 6:6.5939667 24:1 64:1 116:1 158:1 159:1 297:1 340:1 508:1 1216:1 1377:1 1523:1 1682:1 1689:1 1901:1 1902:1 1903:1 1904:1 
-0 1 1:0 2:3 3:7 4:0 5:1 6:8.9882 20:2 31:1 68:1 71:1 158:1 172:1 205:1 370:1 508:2 582:1 773:1 1167:1 1274:1 1775:1 1809:1 1811:1 1918:1 1921:1 1922:1 
-0 1 1:0 2:2 3:5 4:0 5:1 6:8.6351 24:1 31:1 58:1 77:1 94:1 158:1 181:1 205:1 257:1 888:1 1118:1 1284:1 1503:1 1746:1 1941:1 1942:1 1943:1 1944:1 
-0 1 1:0 2:2 3:7 4:0 5:1 6:6.3052667 20:2 30:1 47:1 64:1 109:1 130:1 159:1 233:1 1173:1 1461:1 1468:1 1602:1 1954:1 1955:1 1956:1 
-0 1 1:0 2:3 3:5 4:0 5:1 6:6.5529333 20:1 31:1 150:1 491:1 1388:1 1697:1 1784:1 1957:1 1958:1 1959:1 1960:1 1961:1 1962:1 1963:1 
-0 1 1:0 2:4 3:5 4:0 5:1 6:6.8236667 20:1 31:1 491:1 1380:1 1388:1 1448:1 1660:1 1661:1 1775:1 1959:1 1968:1 1969:1 1970:1 1971:1 
-0 1 1:0 2:2 3:9 4:0 5:1 6:5.3918 20:1 24:1 88:1 158:2 508:1 1216:1 1235:1 1274:1 1668:1 1669:1 1726:1 1727:1 1989:1 1990:1 1991:1 1992:1 
-0 0.830453652177202 1:0 2:1 3:6 4:0 5:1 6:6.5557 20:1 33:1 71:1 233:1 338:1 582:1 688:3 816:1 1144:1 1266:1 1505:1 1766:1 2015:1 2016:1 
-0 1 1:0 2:3 3:9 4:0 5:1 6:7.1740667 13:1 20:1 68:1 69:1 94:1 113:1 115:1 131:1 198:1 517:1 610:1 1523:1 2022:1 2023:1 2024:1 2025:1 2026:1 2027:1 2028:1 2029:1 
-0 1 1:1 2:4 3:4 4:0 5:1 6:5.439 20:1 130:1 1167:1 1697:1 1775:1 1784:1 1951:1 1958:1 1959:1 2072:1 
-0 1 1:0 2:2 3:11 4:0 5:1 6:6.9896667 20:2 24:1 63:1 66:1 85:1 103:1 205:1 241:1 351:1 886:1 1241:1 1895:1 2073:1 2074:1 2075:1 2076:1 2077:1 2078:1 2079:1 2080:1 
-0 1 1:0 2:1 3:5 4:0 5:1 6:3.8148 31:1 69:1 1288:1 1325:1 1784:1 2081:1 2082:1 2083:1 2084:1 2085:1 
-0 1 1:0 2:3 3:7 4:0 5:1 6:7.6906333 13:1 20:1 158:2 159:1 241:1 723:1 825:1 1120:1 1261:1 1503:1 1929:1 2048:1 2086:1 2087:1 2088:1 2089:1 2090:1 
-0 1 1:0 2:4 3:8 4:0 5:1 6:9.0562 13:1 24:1 31:1 66:1 351:1 517:1 1311:1 1325:1 1380:1 1411:1 1715:1 1781:1 1784:1 1843:1 2091:1 2092:1 2093:1 2094:1 2095:1 2096:1 
-0 1 1:0 2:3 3:8 4:0 5:1 6:6.4997667 64:2 66:1 81:1 109:1 233:1 338:1 546:1 1309:1 1461:1 1812:1 1928:1 1934:1 2116:1 2117:1 2118:1 2119:1 
-0 1 1:0 2:2 3:3 4:0 5:1 6:8.3672 58:1 69:1 115:1 159:1 206:1 419:1 1200:1 1284:1 1561:1 1562:1 1746:1 2120:1 2121:1 2122:1 2123:1 2124:1 
-0 1 1:0 2:2 3:9 4:0 5:1 6:7.4924333 20:2 58:1 68:1 113:1 115:1 131:1 158:1 491:1 638:1 984:1 1636:1 1700:1 1729:1 1962:1 2133:1 2134:1 2139:1 2140:1 2141:1 2142:1 
-1 0 1:0 2:1 3:12 4:0 5:1 6:4.7185333 30:1 31:1 64:2 69:1 116:1 396:1 730:1 752:1 1624:1 2172:1 2173:1 2174:1 2175:1 2176:1 2177:1 2178:1 
-0.7942779887363463 0 1:0 2:0 3:16 4:0 5:1 6:1.1481667 24:1 129:1 491:1 638:1 1561:1 2185:1 2186:1 2187:1 2188:1 2189:2 2190:1 2191:1 2192:1 2193:1 2194:1 2195:1 2196:1 
-0 1 1:0 2:2 3:11 4:0 5:1 6:4.6510333 20:2 81:1 137:1 158:1 198:1 667:1 1049:1 1546:1 1739:1 2160:1 2197:1 2198:1 2199:1 2200:1 2201:1 
-0.2430767705579714 0 1:0 2:0 3:13 4:0 5:1 6:2.3571333 20:1 64:1 101:1 159:1 198:1 370:1 555:1 1732:1 2109:1 2127:1 2133:1 2162:1 2163:1 2214:1 2215:1 2216:1 2217:1 
-0 1 1:0 2:2 3:12 4:0 5:1 6:1.8 20:1 64:1 198:1 1235:1 1305:1 1306:1 1582:1 1583:1 2222:1 2223:1 2224:1 2225:1 2226:1 2227:1 
-0 1 1:0 2:2 3:11 4:0 5:1 6:6.1422 20:1 24:2 64:1 66:1 85:1 130:1 221:1 295:1 320:1 419:1 832:1 1216:1 1462:1 1467:1 1468:1 2239:1 2240:1 2241:1 
-0 1 1:0 2:1 3:4 4:0 5:1 6:8.3408333 20:1 58:2 68:1 88:1 115:1 159:1 351:1 1050:1 1284:1 1561:1 2022:1 2244:1 2245:1 2246:1 2247:1 2248:1 
-0 1 1:0 2:2 3:11 4:0 5:1 6:3.1475 24:2 64:1 116:1 1216:1 1682:1 1701:1 1804:1 2262:1 2263:1 2264:1 2265:1 2266:1 2267:1 2268:1 
-0 1 1:0 2:2 3:8 4:0 5:1 6:4.2226333 20:1 24:1 64:1 116:1 159:1 735:1 1216:1 1523:1 1682:1 2262:1 2264:1 2269:1 2270:1 2271:1 
-0 1 1:0 2:2 3:7 4:0 5:1 6:4.4537 24:1 64:2 1350:1 1377:1 2029:1 2230:1 2262:1 2272:1 2273:1 2274:1 2275:1 2276:1 
-0 1 1:0 2:4 3:3 4:0 5:1 6:4.0723 24:1 159:1 508:1 861:1 1523:1 1689:1 2230:1 2277:1 
-0 1 1:0 2:3 3:3 4:0 5:1 6:2.7485 508:1 1318:1 1689:1 2230:1 2278:1 2279:1 
-0 1 1:0 2:3 3:6 4:0 5:1 6:5.2239667 13:1 24:1 561:1 847:1 1318:1 1781:1 1784:1 2050:1 2291:1 2292:1 2293:1 2294:1 2295:1 
-0.4230577716258029 0 1:0 2:0 3:9 4:0 5:1 6:2.8359667 20:1 30:1 31:1 69:1 684:1 1461:1 1463:1 2310:1 2311:1 2312:1 2313:1 2314:1 2315:1 
-0 1 1:0 2:4 3:8 4:0 5:1 6:6.2547333 20:1 47:1 130:1 135:1 198:1 1614:1 1775:1 1784:1 1970:1 1971:1 1990:1 2316:1 2317:1 2318:1 2319:1 2320:1 
-0 1 1:0 2:3 3:9 4:0 5:1 6:5.1866333 13:1 31:2 66:1 517:1 1292:1 1380:1 1715:1 1781:1 1784:1 2029:1 2295:1 2399:1 2400:1 2401:1 2402:1 
-1 0 1:0 2:1 3:14 4:0 5:1 6:5.1671333 14:1 20:1 130:1 158:1 159:2 198:1 1524:1 1586:2 1779:1 2109:1 2110:1 2165:1 2444:2 2445:1 2446:1 2447:1 2448:1 2449:1 2450:1 
-0 1 1:0 2:2 3:10 4:0 5:1 6:4.9722333 20:1 24:1 81:1 85:1 205:1 609:1 825:1 905:1 1227:1 1561:1 1693:1 2045:1 2485:1 2486:1 2487:1 2488:1 2489:1 
-0 1 1:0 2:2 3:8 4:0 5:1 6:5.5004667 20:2 158:2 241:1 295:1 491:1 1120:1 1261:1 2378:1 2490:1 2491:1 2492:1 2493:1 2494:1 2495:1 
-0 1 1:0 2:3 3:9 4:0 5:1 6:9.9789333 24:3 130:1 158:1 291:1 439:1 517:1 1284:1 1325:2 1410:1 1761:1 1803:1 2230:1 2523:1 2524:1 2525:1 2526:1 2527:1 2528:1 2529:1 2530:1 
-0 1 1:0 2:2 3:7 4:0 5:1 6:4.5322667 1325:1 1570:1 1706:1 1784:1 1867:1 2084:1 2363:1 2533:1 2534:1 2535:1 2536:1 2537:1 
-0 1 1:0 2:2 3:11 4:0 5:1 6:4.8262667 20:2 81:1 85:1 109:1 205:1 267:1 553:1 905:1 1227:1 1241:1 1315:1 1862:1 2045:1 2541:1 2542:1 2543:1 
-0 1 1:0 2:4 3:7 4:0 5:1 6:5.7127 24:1 30:1 31:1 66:1 159:1 241:1 257:1 886:1 1235:1 1450:1 1523:1 1902:1 2544:1 2545:1 2546:1 
-0 1 1:0 2:1 3:9 4:0 5:1 6:4.7760667 20:1 81:1 105:1 1181:1 1196:1 1210:1 1235:1 1941:1 2446:1 2550:1 2551:1 2552:1 2553:1 2554:1 2555:1 
-0 0.6302836399286945 1:0 2:1 3:6 4:0 5:1 6:5.5715667 20:1 24:1 158:1 491:1 939:1 1208:1 1319:1 1788:1 2009:1 2556:1 2557:1 2558:1 2559:1 2560:1 2561:1 
-1 0 1:0 2:0 3:7 4:0 5:1 6:4.8563 8:1 69:1 158:1 159:1 241:1 351:1 886:1 2038:1 2039:1 2573:1 2574:1 2575:1 2576:1 2577:1 2578:1 
-0 1 1:0 2:2 3:6 4:0 5:1 6:5.6315 31:1 159:1 291:1 435:1 1266:1 1639:1 1642:1 1867:1 2114:1 2210:1 2515:1 2579:1 2580:1 2581:1 
-0 1 1:0 2:2 3:11 4:0 5:1 6:5.8293667 20:1 24:1 31:1 69:1 109:1 113:1 115:1 131:1 159:1 562:1 984:1 1167:1 1422:1 1761:1 2209:1 2210:1 2457:1 2588:1 2589:1 
-0 1 1:0 2:4 3:8 4:0 5:1 6:7.9389 13:1 66:1 94:1 159:1 270:1 338:1 356:1 644:1 789:1 1018:1 1216:1 1266:2 1747:1 1822:1 1939:1 2602:1 2603:1 2604:1 
-0 1 1:0 2:3 3:12 4:0 5:1 6:5.801 20:2 31:1 81:1 113:1 115:1 158:1 198:1 205:1 311:1 1235:1 1284:1 1450:1 1466:1 1559:1 1649:1 1650:1 1767:1 1768:1 2641:1 
-0 1 1:0 2:1 3:6 4:0 5:1 6:5.3321333 20:1 68:1 71:1 81:1 111:1 172:1 205:1 370:1 582:1 905:1 2045:1 2230:1 2657:1 2658:1 2659:1 
