svm_type c_svc
kernel_type rbf
gamma 0.000101595
nr_class 3
total_sv 4182
rho 0.898397 0.732459 -0.947313
label 2 3 1
probA -167.252 -82.982 -20.1499
probB -165.039 -81.2898 18.0186
nr_sv 641 1847 1694
SV
1 1 1:0 2:0 3:28 4:0 5:1 6:0 7:1 8:1 9:1 10:1 11:1 12:1 13:1 14:1 15:1 16:1 17:1 18:1 19:1 20:1 21:1 22:1 23:1 24:1 25:1 26:1 27:1 28:1 29:1 30:1 31:1 32:1 33:1 34:1 
1 1 1:0 2:0 3:22 4:0 5:1 6:0 8:2 15:1 21:2 35:1 36:1 37:1 38:1 39:1 40:1 41:1 42:1 43:2 44:1 45:1 46:1 47:1 48:1 49:1 50:1 
1 1 1:0 2:2 3:18 4:0 5:1 6:4.2965333 7:1 8:1 15:2 21:1 32:1 38:1 51:1 52:2 53:1 54:1 55:1 56:1 57:1 58:1 59:1 60:1 61:1 62:1 63:1 64:1 65:1 66:1 
1 1 1:0 2:0 3:5 4:0 5:1 6:1.2777667 15:1 57:1 67:1 68:1 69:1 70:1 71:1 
1 1 1:0 2:0 3:19 4:0 5:1 6:4.0861 8:2 15:2 32:2 34:1 51:1 54:1 57:1 63:1 64:1 72:1 73:2 74:1 75:1 76:1 77:1 78:1 79:1 80:1 81:1 82:1 83:1 84:1 
1 1 1:0 2:0 3:12 4:0 5:1 6:1.4 7:1 14:1 15:2 43:1 74:1 85:1 86:1 87:2 88:1 89:1 90:1 91:1 
1 1 1:0 2:0 3:12 4:0 5:1 6:2.1916667 8:1 15:1 25:1 32:1 47:1 96:1 105:1 169:1 468:1 628:1 911:1 912:1 913:1 914:1 915:1 
1 1 1:0 2:0 3:12 4:0 5:1 6:4.2501 21:1 51:1 53:1 63:1 98:1 151:1 379:1 811:2 854:1 915:1 924:1 927:1 928:1 929:1 930:1 931:1 932:1 933:1 
1 1 1:0 2:0 3:4 4:0 5:1 6:3.6213 15:1 25:1 53:1 108:1 379:2 649:1 931:1 934:1 935:1 
1 1 1:1 2:1 3:14 4:0 5:1 6:7.3677333 7:1 9:1 15:1 52:1 53:1 115:1 204:1 427:1 487:1 576:1 738:1 753:1 893:1 912:1 936:1 937:1 938:1 939:1 940:1 941:1 942:1 943:1 944:1 945:1 946:1 
1 1 1:2 2:2 3:14 4:1 5:0 6:7.0201 25:2 49:2 362:1 694:1 923:1 924:2 925:1 926:1 947:1 948:1 949:1 950:2 951:1 952:1 953:1 954:1 955:1 
1 1 1:0 2:1 3:8 4:0 5:1 6:4.2615333 8:1 9:1 21:1 55:1 116:1 1208:1 1209:1 1210:1 1211:1 1212:1 1213:1 1214:1 1215:1 
1 1 1:3 2:0 3:8 4:0 5:1 6:3.6823 7:2 25:1 53:1 117:1 854:1 970:1 2778:1 2779:1 2780:1 2781:1 2782:1 
1 1 1:2 2:2 3:14 4:0 5:1 6:7.8533667 7:1 14:1 25:1 31:1 53:1 83:1 85:1 98:1 627:1 685:1 730:1 840:1 903:1 1075:1 1148:1 1190:1 1589:1 2018:1 2780:1 2783:1 2784:1 2785:1 2786:1 2787:1 
1 1 1:0 2:0 3:14 4:0 5:1 6:3.3881 7:1 8:1 14:1 15:2 21:1 29:1 53:1 54:1 63:1 85:1 88:1 822:1 848:1 2788:1 2789:1 2790:1 2791:1 2792:1 
1 1 1:0 2:0 3:14 4:0 5:1 6:9.1794667 7:1 33:1 43:1 53:1 79:1 85:1 96:2 98:1 161:1 175:1 204:1 318:1 411:1 649:1 707:1 719:1 811:1 947:2 1182:1 2793:1 2794:1 2795:1 2796:1 2797:1 
1 1 1:0 2:0 3:6 4:0 5:1 6:1.2296333 14:1 15:1 21:1 53:1 84:1 85:1 148:1 210:1 
1 1 1:0 2:1 3:15 4:0 5:1 6:4.789 8:3 32:1 35:1 44:1 85:1 151:1 157:1 165:1 169:1 192:1 382:1 911:1 914:1 956:1 1253:1 1743:2 1926:1 2798:1 2799:1 
1 1 1:1 2:1 3:10 4:0 5:1 6:2.4416667 15:1 54:1 57:1 58:1 85:1 272:1 273:1 822:1 840:2 903:2 2800:1 
1 1 1:0 2:0 3:13 4:0 5:1 6:2.5353667 7:1 8:2 38:1 63:1 85:1 97:1 115:1 148:1 169:1 377:1 865:1 954:1 962:1 2794:1 2801:1 
1 1 1:0 2:0 3:9 4:0 5:1 6:6.2459333 7:1 8:1 20:1 25:1 53:1 54:1 85:1 294:1 468:1 566:1 576:1 660:1 665:1 824:1 836:1 854:1 912:1 2802:1 2803:1 
1 1 1:1 2:0 3:10 4:0 5:1 6:3.3499333 8:1 14:1 49:2 85:1 377:1 382:1 628:1 707:1 2525:1 2804:1 2805:1 2806:1 
1 1 1:0 2:1 3:8 4:0 5:1 6:3.1392 7:1 15:1 29:1 85:1 88:1 96:1 273:1 795:1 907:1 1166:1 2513:1 2807:1 
1 1 1:0 2:0 3:13 4:0 5:1 6:1.9221 7:1 14:1 58:1 74:1 85:1 176:1 427:1 554:1 561:1 576:1 836:1 840:1 2570:1 2808:1 2809:1 2810:1 
1 1 1:0 2:1 3:17 4:0 5:1 6:6.7645667 8:1 14:1 15:2 21:2 32:1 43:1 53:1 54:1 63:1 84:1 85:1 88:1 148:1 165:1 210:1 356:1 514:1 534:1 956:1 1091:1 1230:1 1598:1 2811:1 2812:1 2813:1 
1 1 1:0 2:0 3:9 4:0 5:1 6:0.55556667 7:1 15:2 70:1 85:1 97:1 254:1 673:1 824:1 2806:1 
1 1 1:0 2:0 3:10 4:0 5:1 6:1.9140333 8:1 21:1 25:1 45:1 57:1 63:1 147:1 951:1 1253:1 2798:1 2814:1 2815:1 2816:1 
1 1 1:0 2:1 3:9 4:0 5:1 6:7.8622 8:1 20:1 21:1 38:1 53:1 57:1 88:1 94:1 137:1 271:1 454:1 860:1 1353:1 1449:1 1921:1 2817:2 2818:1 2819:1 2820:1 
1 1 1:0 2:1 3:9 4:0 5:1 6:3.4746 8:1 14:1 15:1 57:1 64:1 107:1 112:1 859:1 1131:1 2821:1 2822:1 2823:1 
1 1 1:1 2:1 3:8 4:0 5:1 6:4.651 7:1 8:1 27:1 55:1 57:1 80:1 96:1 97:1 169:1 865:1 1811:1 2628:1 2824:1 2825:1 
1 1 1:0 2:2 3:8 4:0 5:1 6:5.1790333 7:1 15:1 25:1 57:1 80:1 147:1 237:1 872:2 1107:1 2816:1 2826:1 2827:1 2828:1 2829:1 
1 1 1:0 2:1 3:15 4:0 5:1 6:7.8886 7:1 8:2 21:2 25:1 31:1 32:1 43:1 53:2 58:1 70:1 79:1 134:1 165:1 220:1 660:1 826:1 892:1 1207:1 1230:1 2825:1 2830:1 2831:1 2832:1 
1 1 1:0 2:0 3:5 4:0 5:1 6:1.5463 7:1 15:1 20:1 53:1 134:1 390:1 2790:1 
1 1 1:0 2:0 3:11 4:0 5:1 6:3.6104333 8:1 15:1 25:2 38:1 44:1 70:1 84:1 134:1 362:1 660:1 718:1 861:1 878:1 1013:1 1890:1 2833:1 
1 1 1:0 2:0 3:8 4:0 5:1 6:2.3698667 8:1 25:1 57:1 84:1 88:1 89:1 134:1 881:1 1033:1 1158:1 1190:1 2834:1 
1 1 1:0 2:1 3:12 4:0 5:1 6:5.3015333 7:1 8:1 25:2 32:1 55:1 98:1 134:1 465:1 468:1 673:1 912:1 992:1 1143:1 2617:1 2835:1 2836:1 2837:1 2838:1 2839:1 
1 1 1:0 2:0 3:5 4:0 5:1 6:2.0654667 7:1 15:1 134:1 165:1 988:1 2840:1 2841:1 2842:1 
1 1 1:0 2:2 3:13 4:0 5:1 6:10.392433 15:1 25:1 29:1 88:1 97:1 98:1 134:1 165:1 169:1 377:1 382:1 514:1 627:1 854:1 965:1 988:1 2270:1 2414:1 2525:1 2843:1 2844:1 2845:1 2846:1 2847:1 2848:1 2849:1 2850:1 
1 1 1:0 2:0 3:6 4:0 5:1 6:4.1516 7:1 32:1 53:1 165:1 625:1 840:1 853:1 903:1 1253:1 2803:1 2851:1 2852:1 2853:1 
1 1 1:0 2:0 3:14 4:0 5:1 6:6.4368667 7:1 15:1 21:2 53:2 54:1 70:1 80:1 84:1 97:1 98:1 115:1 165:1 229:1 281:1 814:1 815:1 840:1 864:1 903:1 2854:1 2855:1 2856:1 2857:1 
1 1 1:0 2:0 3:8 4:0 5:1 6:0.54166667 7:1 8:1 25:1 38:1 115:1 134:1 709:1 935:1 2858:1 
1 1 1:0 2:1 3:10 4:0 5:1 6:3.2454 20:1 47:1 64:1 134:1 192:1 358:1 514:2 840:1 885:1 903:1 988:1 2859:1 2860:1 2861:1 
1 1 1:0 2:1 3:5 4:0 5:1 6:2.4952333 14:1 15:1 89:1 91:1 94:1 371:1 567:1 2862:1 
1 1 1:0 2:1 3:17 4:0 5:1 6:5.4333333 7:1 8:3 21:2 32:2 79:1 169:1 190:1 660:1 822:1 823:1 960:1 965:1 2709:1 2853:1 2863:2 2864:1 2865:1 2866:1 2867:1 
1 1 1:0 2:0 3:17 4:0 5:1 6:3.1481333 7:1 32:1 41:1 84:1 88:1 89:1 107:1 115:1 190:1 510:1 707:1 1253:1 2443:1 2754:1 2868:2 2869:1 2870:1 2871:1 2872:1 
1 1 1:0 2:1 3:7 4:0 5:1 6:2.2751333 8:1 55:1 89:1 94:1 147:1 377:1 2178:1 2792:1 2873:1 2874:1 
1 1 1:0 2:1 3:6 4:0 5:1 6:3.3583333 7:1 54:1 70:1 94:1 134:1 143:1 171:1 970:1 2875:1 2876:1 2877:1 
1 1 1:0 2:1 3:10 4:0 5:1 6:6.7866333 7:2 21:2 43:2 57:1 64:1 112:1 823:1 863:1 897:1 970:1 988:2 1294:1 1719:1 2878:1 2879:1 2880:1 
1 1 1:0 2:0 3:8 4:0 5:1 6:0.33333333 7:1 70:2 115:1 176:1 2881:1 2882:1 2883:1 
1 1 1:1 2:1 3:9 4:0 5:1 6:4.9399 15:1 32:2 53:1 117:1 169:1 178:1 210:1 1192:1 2374:1 2882:1 2883:1 2884:1 2885:1 2886:1 
1 1 1:0 2:0 3:10 4:0 5:1 6:0.77776667 7:1 8:1 25:1 38:1 43:1 63:1 641:1 1230:1 2833:1 2887:1 2888:1 
1 1 1:0 2:0 3:7 4:0 5:1 6:2.2592667 7:1 27:1 89:1 427:1 811:1 876:1 2889:1 2890:1 2891:1 2892:1 2893:1 
1 1 1:0 2:0 3:11 4:0 5:1 6:1.6111 7:1 15:1 38:1 53:1 89:1 673:1 854:1 1106:1 2307:1 2889:1 2894:1 2895:1 2896:1 
1 1 1:0 2:0 3:16 4:0 5:1 6:1.4166667 8:1 15:1 41:1 63:1 83:1 89:1 108:1 121:1 628:1 665:1 1182:1 2744:1 2801:1 2864:1 2889:1 2897:1 2898:1 2899:1 
1 1 1:0 2:0 3:15 4:0 5:1 6:1.0444333 7:1 8:1 20:1 21:1 27:1 55:1 89:1 151:1 169:1 179:1 190:1 628:1 2825:1 2889:1 2900:1 2901:1 
1 1 1:0 2:0 3:7 4:0 5:1 6:1.3333333 38:1 115:1 134:1 148:1 641:1 934:1 2902:1 2903:1 
1 1 1:0 2:0 3:9 4:0 5:1 6:3.523 7:1 8:1 15:1 27:1 54:1 88:1 134:1 681:1 957:1 1829:1 2617:1 2801:1 2835:1 2904:1 2905:1 
1 1 1:0 2:0 3:11 4:0 5:1 6:1.3393 14:1 32:1 44:1 57:1 63:1 134:1 851:1 881:1 914:1 2906:1 2907:1 2908:1 2909:1 
1 1 1:0 2:2 3:8 4:0 5:1 6:8.6870333 8:1 21:1 25:1 54:1 70:1 92:1 98:1 105:1 117:1 339:1 440:1 649:1 719:1 1166:1 1557:1 1941:1 2653:1 2855:1 2910:1 2911:1 
1 1 1:0 2:0 3:9 4:0 5:1 6:4.2629333 7:1 21:1 43:1 49:1 53:1 54:1 66:1 92:1 98:1 189:1 1253:1 2912:1 2913:1 2914:1 2915:1 2916:1 
1 1 1:0 2:0 3:14 4:0 5:1 6:4.0211667 8:1 14:1 21:1 53:1 57:1 74:2 541:1 567:1 1412:1 1963:2 2270:1 2798:1 2917:1 2918:1 2919:1 2920:1 2921:1 2922:1 
1 1 1:0 2:0 3:11 4:0 5:1 6:3.0092667 25:1 32:1 51:2 85:1 149:1 151:1 641:1 935:2 964:1 990:1 1235:1 2923:1 2924:2 
1 1 1:0 2:1 3:11 4:0 5:1 6:7.1205 8:1 15:1 25:4 43:1 54:1 84:1 85:1 124:1 273:1 487:1 641:1 1730:1 1811:1 2306:1 2853:1 2925:1 2926:1 2927:1 2928:1 
1 1 1:0 2:0 3:17 4:0 5:1 6:6.464 7:1 14:2 15:3 20:1 21:2 43:1 54:2 57:1 98:1 234:2 242:1 641:1 707:1 1253:2 2616:1 2929:1 2930:1 2931:1 2932:1 
1 1 1:0 2:0 3:6 4:0 5:1 6:2.2903333 9:1 29:1 53:1 115:1 641:1 2933:1 2934:1 2935:1 2936:1 
1 1 1:1 2:1 3:11 4:0 5:1 6:3.9016667 7:1 8:1 14:1 15:1 44:1 47:1 54:2 88:1 147:1 523:1 641:1 970:1 2767:1 2790:1 2937:1 
1 1 1:0 2:0 3:8 4:0 5:1 6:0.66666667 8:1 21:1 43:1 147:1 641:1 2798:1 2816:1 2938:1 2939:1 
1 1 1:0 2:0 3:9 4:0 5:1 6:3.523 7:1 8:1 15:1 27:1 54:1 88:1 134:1 681:1 957:1 1829:1 2617:1 2801:1 2835:1 2904:1 2905:1 
1 1 1:0 2:0 3:13 4:0 5:1 6:7.5108 7:1 8:3 15:1 21:1 32:2 54:1 63:1 76:1 92:1 134:1 165:1 534:1 654:1 719:1 935:1 1230:2 1253:1 1554:1 2940:1 2941:1 2942:1 
1 1 1:0 2:2 3:9 4:0 5:1 6:7.0263333 8:1 38:1 54:1 57:1 63:1 212:1 273:1 315:1 731:1 854:2 863:1 875:1 1230:1 1253:1 2943:1 2944:1 2945:1 2946:1 
1 1 1:0 2:0 3:13 4:0 5:1 6:3.1476 8:1 10:1 14:2 15:1 47:1 54:1 70:1 85:1 146:2 468:1 567:1 606:1 649:1 990:1 1312:1 2816:1 2947:1 
1 1 1:0 2:0 3:28 4:0 5:1 6:0 7:1 8:1 9:1 10:1 11:1 12:1 13:1 14:1 15:1 16:1 17:1 18:1 19:1 20:1 21:1 22:1 23:1 24:1 25:1 26:1 27:1 28:1 29:1 30:1 31:1 32:1 33:1 34:1 
1 1 1:0 2:0 3:26 4:0 5:1 6:0 8:1 9:1 10:1 11:1 12:1 13:1 14:1 15:1 17:1 19:1 20:1 21:1 22:1 23:1 24:1 25:1 26:1 27:1 28:1 29:1 30:1 31:1 32:1 33:1 36:1 1124:1 
1 1 1:1 2:0 3:14 4:0 5:1 6:0 7:1 14:1 70:1 74:1 366:1 471:1 854:1 1320:1 2948:1 2949:1 2950:1 2951:1 2952:1 2953:1 
1 1 1:0 2:0 3:19 4:0 5:1 6:4.0861 8:2 15:2 32:2 34:1 51:1 54:1 57:1 63:1 64:1 72:1 73:2 74:1 75:1 76:1 77:1 78:1 79:1 80:1 81:1 82:1 83:1 84:1 
1 1 1:1 2:1 3:7 4:0 5:1 6:3.1094 8:1 15:1 29:1 53:1 84:1 85:1 94:1 2954:1 2955:1 2956:1 2957:1 
1 1 1:0 2:0 3:4 4:0 5:1 6:0.57143333 29:1 59:1 85:1 822:1 2958:1 
1 1 1:0 2:0 3:7 4:0 5:1 6:2.2772667 14:1 53:1 84:1 85:1 210:1 454:1 485:1 649:1 854:1 2959:1 
1 1 1:0 2:1 3:14 4:0 5:1 6:3.4881 8:2 10:1 21:2 27:1 57:1 147:1 165:1 854:1 2798:1 2960:1 2961:1 2962:1 2963:1 2964:1 2965:1 2966:1 2967:1 
1 1 1:0 2:1 3:21 4:0 5:1 6:6.3439 7:1 8:4 15:2 25:2 32:2 54:3 57:1 58:1 63:1 66:1 73:1 94:1 98:1 147:1 261:1 318:1 628:1 676:1 854:1 2189:1 2831:1 2968:1 2969:1 
1 1 1:0 2:0 3:12 4:0 5:1 6:5.0602 8:1 15:2 57:1 63:1 110:1 111:1 210:1 487:1 607:1 813:1 822:1 962:1 1849:1 2744:1 2803:1 2970:1 
1 1 1:0 2:0 3:11 4:0 5:1 6:1.3214333 7:1 8:2 20:1 32:1 49:1 115:1 116:1 134:1 147:1 2888:1 2971:1 2972:1 
1 1 1:0 2:2 3:6 4:0 5:1 6:5.1865 15:1 21:1 272:1 273:1 555:1 580:1 823:1 893:1 1435:1 2973:1 2974:1 2975:1 
1 1 1:0 2:1 3:15 4:0 5:1 6:5.0190333 8:2 25:1 29:1 32:1 38:1 54:1 59:1 115:2 134:1 148:1 165:1 499:1 627:1 641:1 970:1 1274:1 2767:1 2976:1 2977:1 2978:1 2979:1 
1 1 1:0 2:0 3:5 4:0 5:1 6:1.875 15:1 25:1 29:1 53:1 84:1 935:1 2792:1 2980:1 
1 1 1:0 2:1 3:13 4:0 5:1 6:2.9695333 7:1 10:1 15:2 59:1 84:1 131:1 134:1 151:1 440:1 822:1 823:1 840:1 903:1 2610:1 2792:1 2911:1 
1 1 1:0 2:0 3:9 4:0 5:1 6:1.2 7:1 14:1 54:1 57:1 83:1 179:1 824:1 2981:1 2982:1 2983:1 2984:1 
1 1 1:0 2:0 3:9 4:0 5:1 6:1.2474667 7:1 8:2 44:1 55:1 57:2 147:1 701:1 995:1 2798:1 
1 1 1:1 2:0 3:8 4:0 5:1 6:3.4103333 7:1 8:1 15:1 57:1 63:1 76:1 96:1 143:1 241:1 534:1 573:1 2985:1 2986:1 
1 1 1:0 2:0 3:10 4:0 5:1 6:1.1238 7:2 8:2 20:1 44:1 55:1 57:1 140:1 147:1 151:1 832:1 
1 1 1:0 2:0 3:7 4:0 5:1 6:0.5 7:1 8:1 25:1 84:1 134:1 823:1 2987:1 2988:1 
1 1 1:0 2:0 3:12 4:0 5:1 6:3.1206 7:1 8:1 15:1 25:1 76:1 120:1 121:1 134:1 589:1 719:1 832:1 878:1 954:1 2861:1 2989:1 2990:1 
1 1 1:0 2:1 3:14 4:0 5:1 6:3.8207667 7:1 8:2 15:1 25:1 35:1 43:1 59:1 131:1 134:1 440:1 649:1 854:1 859:1 861:1 2270:1 2789:1 2991:1 2992:1 2993:1 
1 1 1:0 2:0 3:7 4:0 5:1 6:0 7:1 8:1 25:1 134:1 147:1 649:1 2833:1 
1 1 1:0 2:1 3:10 4:0 5:1 6:2.5899667 21:1 25:2 57:1 58:1 89:1 94:1 125:1 147:1 738:1 823:1 1941:1 2994:1 2995:1 
1 1 1:0 2:2 3:14 4:0 5:1 6:5.3571333 7:1 8:1 15:1 25:1 55:1 57:1 88:1 141:1 197:1 379:1 446:1 673:2 823:1 872:1 893:1 912:1 947:1 970:1 3434:1 3435:1 
1 1 1:0 2:0 3:6 4:0 5:1 6:2.1962667 21:1 98:1 1953:1 2148:1 2404:1 3436:2 3437:1 3438:1 
1 1 1:0 2:1 3:15 4:0 5:1 6:7.0648 14:2 15:1 43:1 49:2 59:1 87:1 96:1 371:1 379:2 457:1 649:1 689:1 854:2 915:1 918:1 920:1 1354:1 1373:1 2189:1 3439:1 
1 1 1:1 2:2 3:14 4:0 5:1 6:8.7487667 9:1 15:1 20:1 25:1 32:1 67:1 70:1 165:1 206:1 271:1 649:1 823:1 872:1 915:1 970:2 1274:1 1412:1 2052:1 2784:1 3175:1 3402:1 3440:1 3441:1 3442:1 3443:1 
1 1 1:0 2:1 3:7 4:0 5:1 6:2.2594667 21:1 107:1 915:1 1009:1 1024:1 2911:1 3240:1 3444:1 3445:1 
1 1 1:0 2:1 3:8 4:0 5:1 6:6.8407667 21:1 32:1 53:1 70:1 94:1 377:1 854:1 879:1 931:1 1831:1 2803:1 2977:1 3446:1 3447:1 3448:1 3449:1 3450:1 
1 1 1:0 2:1 3:10 4:0 5:1 6:3.2354667 7:1 8:2 20:1 21:1 43:1 96:1 649:1 822:1 823:1 931:1 993:1 1188:1 1191:1 3359:1 
1 1 1:1 2:0 3:14 4:0 5:1 6:2.3805 7:1 8:1 10:1 15:1 20:1 21:1 43:1 70:2 108:1 169:1 931:1 3451:1 3452:1 3453:1 3454:1 
1 1 1:0 2:1 3:17 4:0 5:1 6:8.3335333 8:3 21:1 25:1 29:1 32:1 43:1 60:1 70:1 125:1 140:1 151:1 169:1 220:1 270:1 315:1 567:1 586:1 918:1 931:1 970:2 1023:1 1253:1 3241:1 3452:1 3455:1 3456:1 
1 1 1:0 2:0 3:4 4:0 5:1 6:3.1852 15:1 29:1 53:1 270:1 931:1 1085:1 1320:1 1589:1 3282:1 
1 1 1:0 2:0 3:16 4:0 5:1 6:4.7562 8:2 25:1 32:1 35:1 53:1 68:1 88:1 113:1 147:1 165:1 673:1 840:1 903:1 931:1 2797:1 2825:1 3457:1 3458:1 3459:1 3460:1 3461:1 
1 1 1:0 2:3 3:18 4:0 5:1 6:5.7741 7:1 8:2 10:1 20:1 25:2 43:1 44:1 54:1 59:1 70:2 121:1 147:1 333:1 377:1 475:1 824:1 931:1 1719:1 2991:1 3231:1 3462:1 3463:1 3464:1 
1 1 1:0 2:0 3:3 4:0 5:1 6:3.5479 20:1 76:1 108:1 496:1 3418:1 3465:1 3466:1 
1 1 1:0 2:0 3:12 4:0 5:1 6:5.6677333 8:1 9:1 15:1 32:2 41:1 49:1 54:1 70:1 165:1 203:1 487:1 822:1 931:1 935:1 1002:1 1230:1 1253:1 2211:1 3306:1 3467:1 
1 1 1:0 2:0 3:7 4:0 5:1 6:3.599 21:1 98:1 165:2 291:1 674:1 915:2 931:1 2054:2 2395:1 2573:1 
1 1 1:0 2:0 3:11 4:0 5:1 6:2.6587333 8:1 20:1 25:2 105:1 140:1 154:1 893:1 931:1 950:1 1229:1 3468:1 3469:1 3470:1 
1 1 1:0 2:1 3:11 4:0 5:1 6:2.3968 8:2 15:1 21:1 32:1 43:1 112:1 379:1 586:1 881:2 952:1 2744:1 3240:1 
1 1 1:0 2:0 3:11 4:0 5:1 6:2.5047667 7:1 25:2 32:2 41:1 140:1 147:1 753:1 915:1 1077:1 1843:1 2816:1 3418:1 3471:1 
1 1 1:0 2:0 3:11 4:0 5:1 6:4.2164 7:1 8:1 25:1 70:1 97:1 147:1 165:1 913:1 1207:1 1926:1 3389:1 3433:1 3472:1 3473:1 3474:1 3475:1 3476:1 
1 1 1:0 2:0 3:11 4:0 5:1 6:4.2164 7:1 8:1 25:1 70:1 97:1 147:1 165:1 913:1 1207:1 1926:1 3389:1 3433:1 3472:1 3473:1 3474:1 3475:1 3476:1 
1 1 1:1 2:1 3:15 4:0 5:1 6:7.3677333 7:1 9:1 15:1 53:1 115:1 204:1 427:1 487:1 576:1 738:1 753:1 840:1 893:1 903:1 912:1 936:1 937:1 938:1 939:1 940:1 941:1 942:1 943:1 944:1 945:1 946:1 
1 1 1:0 2:2 3:9 4:0 5:1 6:6.1916667 25:1 29:1 54:1 70:1 151:1 165:1 233:1 270:1 850:1 950:1 1104:1 1192:1 2323:1 3477:1 3478:1 3479:1 
1 1 1:0 2:0 3:9 4:0 5:1 6:3.6074 8:2 10:1 15:1 25:1 165:1 377:1 468:1 790:1 931:1 990:1 1128:1 1274:1 1500:1 2947:1 
1 1 1:0 2:2 3:14 4:0 5:1 6:8.9963 7:3 8:1 15:3 35:1 70:1 96:1 108:1 165:1 209:1 281:1 379:1 468:1 541:1 578:1 915:1 1197:1 1229:1 2751:1 3332:1 3480:1 3481:1 
1 1 1:0 2:1 3:9 4:0 5:1 6:1.25 8:1 9:1 20:1 25:1 29:1 881:1 931:1 1610:1 2790:1 3482:1 
1 1 1:0 2:1 3:11 4:0 5:1 6:1.5291 8:1 15:1 25:1 34:2 822:1 854:1 915:1 931:1 1008:1 3169:1 3483:1 3484:1 
1 1 1:1 2:0 3:7 4:0 5:1 6:3.1674 15:1 32:1 54:1 115:1 165:1 176:1 411:1 824:1 915:1 1983:1 2853:1 3232:1 
1 1 1:0 2:2 3:14 4:0 5:1 6:7.5024667 8:2 19:1 20:1 21:1 25:2 43:1 79:1 83:1 94:1 125:1 685:1 1189:1 1190:1 1554:1 2316:1 2825:1 3262:1 3296:1 3485:1 3486:1 3487:1 
1 1 1:1 2:1 3:5 4:0 5:1 6:1.2797667 15:1 32:1 47:1 931:1 3488:1 3489:1 
1 1 1:0 2:0 3:7 4:0 5:1 6:7.8973333 15:1 21:1 37:1 98:1 125:1 143:1 169:1 317:1 379:1 487:1 719:1 945:1 964:1 1120:1 2897:1 2927:1 2991:1 3490:1 3491:1 3492:1 
1 1 1:0 2:1 3:10 4:0 5:1 6:5.5548667 7:2 8:1 15:1 25:1 38:1 49:1 98:1 108:1 168:1 379:1 770:1 847:1 854:1 1920:1 2790:1 3175:1 3493:1 
1 1 1:2 2:0 3:9 4:0 5:1 6:3.3177667 7:1 8:1 20:1 29:1 97:1 660:1 691:1 954:1 2676:1 3494:1 3495:1 3496:1 3497:1 
1 1 1:0 2:1 3:9 4:0 5:1 6:3.9 32:2 54:1 70:1 88:1 169:1 318:1 496:1 1770:1 2736:1 2761:1 2923:1 3915:1 3916:1 
1 1 1:0 2:1 3:11 4:0 5:1 6:3.4629667 7:1 47:1 52:1 79:1 91:1 137:1 499:1 546:1 822:1 1230:1 1837:1 2083:1 2404:1 3901:1 3917:1 3918:1 
1 1 1:0 2:0 3:6 4:0 5:1 6:0.77776667 7:1 8:1 49:1 88:1 112:1 1230:1 3918:1 
1 1 1:1 2:0 3:7 4:0 5:1 6:2.7777667 27:1 32:1 822:1 1230:1 1231:1 2746:1 2821:1 3919:1 3920:1 
1 1 1:0 2:0 3:14 4:0 5:1 6:2.0416667 7:1 8:1 32:1 44:1 573:1 822:1 881:1 951:1 2412:1 2772:1 2773:1 2774:1 3921:1 3922:1 3923:1 3924:1 3925:1 
1 1 1:0 2:2 3:11 4:0 5:1 6:3.8296333 7:1 8:2 21:1 49:1 63:1 88:2 811:1 885:1 992:1 1253:1 1260:1 2798:1 2863:1 3204:1 
1 1 1:0 2:0 3:14 4:0 5:1 6:5.1527667 8:2 20:1 21:3 63:2 88:1 313:1 405:1 573:2 673:1 1260:1 1587:1 2437:1 2438:1 2530:1 2753:1 3926:1 
1 1 1:0 2:2 3:10 4:0 5:1 6:6.0111333 7:1 8:1 20:1 21:1 25:1 32:1 44:1 53:1 79:1 94:1 375:1 514:1 951:1 2083:1 3359:1 3918:1 3927:1 3928:1 3929:1 
1 1 1:0 2:1 3:8 4:0 5:1 6:3.3834333 7:1 21:1 32:1 64:1 88:1 98:1 573:1 1169:1 1233:1 1398:1 1700:1 3930:1 3931:1 
1 1 1:0 2:3 3:6 4:0 5:1 6:5.0312 7:1 20:1 272:1 273:1 893:1 970:1 1231:1 1435:1 1556:1 3838:1 3932:1 
1 1 1:0 2:4 3:10 4:0 5:1 6:8.7728333 7:1 25:1 41:1 53:2 54:3 59:2 115:1 272:1 824:1 872:1 897:1 918:1 1166:1 1197:1 1231:1 2550:1 2873:1 3933:1 
1 1 1:0 2:2 3:14 4:0 5:1 6:5.2189 15:1 21:2 29:1 38:1 54:1 59:2 98:1 333:1 514:1 811:1 884:1 1770:1 2296:1 2613:1 2736:1 2813:1 3934:1 3935:1 3936:1 
1 1 1:1 2:0 3:6 4:0 5:1 6:2.2194333 8:1 32:1 54:1 146:1 443:1 1230:1 1770:1 2736:1 3937:1 
1 1 1:0 2:1 3:4 4:0 5:1 6:5.1309 79:1 689:1 811:1 957:1 1221:1 2412:1 2596:1 2772:1 2773:1 2774:1 3938:1 3939:1 
1 1 1:1 2:1 3:8 4:0 5:1 6:5.6989 21:1 70:1 79:1 88:1 313:1 514:1 2325:1 2755:1 3285:1 3918:1 3940:1 3941:1 3942:1 3943:1 3944:1 
1 1 1:1 2:2 3:3 4:0 5:1 6:3.8102 70:1 872:1 970:1 983:1 1837:1 2776:1 2892:1 2958:1 
1 1 1:0 2:0 3:4 4:0 5:1 6:2.1830667 21:1 54:1 165:1 1253:1 1260:1 2798:1 3945:1 3946:1 
1 1 1:0 2:0 3:9 4:0 5:1 6:3.1496 8:1 21:2 32:1 53:1 54:1 98:1 147:1 1260:1 3313:1 3947:1 3948:1 3949:1 
1 1 1:0 2:1 3:11 4:0 5:1 6:4.9244667 8:1 21:2 54:1 70:1 165:1 297:1 660:1 822:1 854:1 970:1 1483:1 1770:1 2736:1 2761:1 3495:1 3950:1 3951:1 
1 1 1:0 2:0 3:5 4:0 5:1 6:2.0097667 21:1 98:1 1033:1 2342:1 2760:1 3952:1 3953:1 3954:1 
1 1 1:0 2:1 3:17 4:0 5:1 6:4.5442667 7:2 8:3 9:1 21:1 32:1 34:1 43:1 98:1 115:1 528:1 665:1 822:1 1205:1 1207:1 1230:1 1524:1 3955:1 3956:1 3957:1 3958:1 
1 1 1:0 2:0 3:6 4:0 5:1 6:3.0805333 38:1 54:1 80:1 443:1 854:1 1230:1 1770:1 2736:1 2746:1 3096:1 
1 1 1:0 2:0 3:7 4:0 5:1 6:3.7329333 147:1 236:1 738:1 920:1 970:1 1182:1 1520:1 2307:1 2752:1 2861:1 2927:1 
1 1 1:0 2:4 3:13 4:0 5:1 6:8.8846333 8:1 20:1 21:2 25:1 32:1 97:1 236:1 311:1 312:1 573:1 854:1 859:1 893:1 970:1 1207:1 1316:1 2177:1 2792:1 3959:1 3960:1 3961:1 3962:1 3963:1 
1 1 1:0 2:0 3:12 4:0 5:1 6:6.9413 8:1 15:2 32:2 64:1 151:1 315:1 443:1 487:1 586:1 1138:1 1220:1 1398:1 1608:1 3434:1 3916:1 3964:1 3965:1 3966:1 3967:1 3968:1 
1 1 1:0 2:0 3:26 4:0 5:1 6:0 8:1 9:1 10:1 11:1 12:1 13:1 14:1 15:1 17:1 19:1 20:1 21:1 22:1 23:1 24:1 25:1 26:1 27:1 28:1 29:1 30:1 31:1 32:1 33:1 36:1 1124:1 
1 1 1:0 2:0 3:13 4:0 5:1 6:0 7:1 14:1 21:2 29:1 89:1 179:1 190:1 2888:1 2889:1 3011:1 3160:1 4440:1 
1 1 1:0 2:0 3:12 4:0 5:1 6:0 8:1 15:1 41:1 63:1 89:1 121:1 628:1 1182:1 2744:1 2864:1 2889:1 2897:1 
1 1 1:0 2:0 3:11 4:0 5:1 6:0 7:2 8:1 15:1 20:1 92:1 134:1 718:1 853:1 3723:1 4441:1 
1 1 1:0 2:2 3:5 4:0 5:1 6:2.2952333 8:1 15:1 33:1 57:1 94:1 970:1 2767:1 4442:1 
1 1 1:0 2:0 3:7 4:0 5:1 6:1 15:1 32:1 41:1 70:1 117:1 915:1 2881:1 2897:1 
1 1 1:0 2:1 3:18 4:0 5:1 6:6.2474667 8:1 9:1 14:1 15:1 21:1 25:1 27:1 32:1 53:1 70:1 88:1 98:1 151:1 250:1 468:1 876:1 881:1 931:1 953:1 1002:1 1075:1 1557:1 2838:1 3065:1 4770:1 4771:1 4772:1 
1 1 1:0 2:2 3:7 4:0 5:1 6:5.4210333 7:1 25:2 32:1 54:2 529:1 835:1 913:1 970:1 1649:1 3477:1 3641:1 4773:1 4774:1 
1 1 1:0 2:0 3:3 4:0 5:1 6:1.625 29:1 270:1 514:1 2825:1 3883:1 
1 1 1:0 2:2 3:9 4:0 5:1 6:6.1916667 25:1 29:1 54:1 70:1 151:1 165:1 233:1 270:1 850:1 950:1 1104:1 1192:1 2323:1 3477:1 3478:1 3479:1 
1 1 1:0 2:2 3:9 4:0 5:1 6:6.1916667 25:1 29:1 54:1 70:1 151:1 165:1 233:1 270:1 850:1 950:1 1104:1 1192:1 2323:1 3477:1 3478:1 3479:1 
1 1 1:0 2:0 3:9 4:0 5:1 6:3.6074 8:2 10:1 15:1 25:1 165:1 377:1 468:1 790:1 931:1 990:1 1128:1 1274:1 1500:1 2947:1 
1 1 1:0 2:2 3:15 4:1 5:0 6:6.4265 7:2 25:2 38:1 79:1 96:1 329:1 493:1 822:1 885:1 938:1 1166:1 1189:1 2892:1 3402:1 3492:1 3641:1 4573:1 4775:1 4776:1 4777:1 4778:1 4779:1 
1 1 1:0 2:2 3:14 4:1 5:0 6:6.4265 7:1 25:2 38:1 79:1 96:1 329:1 493:1 822:1 885:1 938:1 1166:1 1189:1 2892:1 3402:1 3492:1 3641:1 4573:1 4775:1 4776:1 4777:1 4778:1 4779:1 
1 1 1:0 2:2 3:6 4:0 5:1 6:4.1733 8:1 41:1 54:1 70:1 140:1 673:2 872:1 1837:1 2776:1 2930:1 2957:1 
1 1 1:0 2:1 3:5 4:0 5:1 6:2.7344 25:1 53:1 454:1 1316:1 2412:1 2772:1 2773:1 2774:1 2838:1 
1 1 1:1 2:1 3:2 4:0 5:1 6:1.8154667 872:1 970:1 983:1 4052:1 
1 1 1:0 2:0 3:16 4:0 5:1 6:4.0553333 7:1 8:1 15:1 27:1 29:1 32:1 41:1 53:1 55:1 59:1 70:1 85:1 96:1 152:1 811:1 956:1 1186:1 2978:1 3059:1 3313:1 4451:1 
1 1 1:0 2:1 3:8 4:0 5:1 6:2.8972333 8:1 25:1 85:1 97:1 120:1 476:1 567:1 649:1 840:1 903:1 935:1 2821:1 
1 1 1:0 2:1 3:13 4:0 5:1 6:2.2158667 8:1 21:1 25:1 38:1 59:1 70:1 85:1 94:1 148:1 151:1 417:1 890:1 907:1 2798:1 2968:1 5688:1 
1 1 1:0 2:0 3:10 4:0 5:1 6:2.0325 7:1 8:2 25:1 54:1 85:1 88:1 97:1 120:1 822:1 823:1 2798:1 2911:1 
1 1 1:0 2:1 3:15 4:0 5:1 6:8.7875333 14:1 15:1 20:1 25:1 54:2 63:1 84:1 85:1 88:1 97:1 108:1 117:1 120:1 140:1 147:1 318:2 409:1 719:1 770:1 1961:1 2816:1 2923:1 4244:1 5689:1 5690:1 
1 1 1:0 2:1 3:15 4:0 5:1 6:6.6473 7:1 15:1 25:2 54:1 70:2 85:1 165:2 487:1 649:1 719:1 970:1 1890:1 2881:1 2968:1 3402:1 5691:1 5692:1 5693:1 5694:1 5695:1 5696:1 5697:1 
1 1 1:0 2:1 3:15 4:0 5:1 6:6.6473 7:1 15:1 25:2 54:1 70:2 85:1 165:2 487:1 649:1 719:1 970:1 1890:1 2881:1 2968:1 3402:1 5691:1 5692:1 5693:1 5694:1 5695:1 5696:1 5697:1 
1 1 1:0 2:0 3:15 4:0 5:1 6:3.0497667 21:2 57:1 59:1 70:2 85:1 88:1 108:2 151:1 190:2 1129:1 2889:1 3313:2 3674:1 
1 1 1:0 2:0 3:5 4:0 5:1 6:1.6444333 15:1 53:1 57:1 76:1 85:1 2307:1 3238:1 
1 1 1:0 2:1 3:17 4:0 5:1 6:2.7177 7:1 8:1 15:1 20:1 21:2 27:1 32:1 38:1 97:1 98:1 108:1 112:1 121:1 169:1 881:2 882:1 3134:1 3388:1 5698:1 
1 1 1:0 2:0 3:15 4:0 5:1 6:5.0810667 7:1 8:3 14:1 15:2 29:1 54:1 85:1 96:1 147:1 362:1 1143:1 1294:1 1320:1 2867:1 3132:1 3322:1 5699:1 5700:1 5701:1 
1 1 1:0 2:1 3:17 4:0 5:1 6:6.9087 8:2 14:1 15:1 21:2 25:1 38:1 79:1 84:1 85:1 91:1 549:1 665:1 872:1 912:1 1545:1 2990:1 3262:1 3490:1 4317:1 5702:1 5703:1 5704:1 5705:1 5706:1 5707:1 
1 1 1:0 2:0 3:5 4:0 5:1 6:0.93333333 8:1 15:1 29:1 57:1 210:1 962:1 
1 1 1:0 2:0 3:14 4:0 5:1 6:3.4490667 14:2 15:1 28:1 29:1 32:1 43:1 53:1 55:1 57:1 88:1 377:1 653:1 659:1 2789:1 2884:1 3772:1 5708:1 5709:1 
1 1 1:0 2:0 3:7 4:0 5:1 6:3.7341 15:1 38:1 53:1 57:1 99:1 510:1 649:1 863:1 876:1 982:1 2307:1 2596:1 
1 1 1:0 2:0 3:5 4:0 5:1 6:3.6211667 15:1 53:2 88:1 115:1 210:1 356:1 707:1 2959:1 3024:1 
1 1 1:0 2:1 3:19 4:0 5:1 6:6.0674333 8:2 14:1 20:1 21:2 29:1 54:1 57:1 58:1 63:1 70:2 169:1 206:1 443:1 628:1 790:1 977:1 2149:1 2676:1 2863:1 2864:1 2865:1 5710:1 5711:1 5712:1 
1 1 1:0 2:0 3:10 4:0 5:1 6:2.9239333 7:1 21:2 49:1 57:1 58:1 80:1 126:1 232:1 271:1 707:1 1294:1 5713:1 5714:1 
1 1 1:0 2:0 3:4 4:0 5:1 6:1.7844 7:1 15:1 53:1 57:1 609:1 2888:1 3871:1 
1 1 1:1 2:1 3:12 4:0 5:1 6:5.9372333 15:2 21:1 38:1 53:1 57:1 70:2 97:1 98:1 115:1 515:1 541:1 641:1 890:1 1400:1 1427:1 2861:1 3524:1 5715:1 
1 1 1:0 2:0 3:8 4:0 5:1 6:2.8563333 8:1 15:2 35:1 54:1 57:1 58:1 88:1 108:1 165:1 318:1 608:1 
1 1 1:1 2:1 3:10 4:0 5:1 6:4.905 7:1 8:1 15:1 20:1 25:1 53:1 84:1 88:1 134:1 147:1 523:1 823:1 885:1 2418:1 2792:1 2971:1 5716:1 
1 1 1:0 2:0 3:6 4:0 5:1 6:2.0654667 7:2 15:1 134:1 165:1 988:1 2840:1 2841:1 2842:1 
1 1 1:0 2:1 3:14 4:0 5:1 6:3.2640333 7:1 21:2 25:1 41:1 43:1 53:2 57:1 58:1 94:1 127:1 134:1 425:1 649:1 811:1 965:2 2803:1 
1 1 1:0 2:2 3:9 4:0 5:1 6:6.1505333 7:1 15:1 21:1 25:1 54:2 88:1 108:1 134:1 229:1 487:1 822:1 859:1 1649:1 2853:1 2957:1 3477:1 5717:1 
1 1 1:0 2:0 3:13 4:0 5:1 6:1.2963 7:1 15:1 32:1 53:1 84:1 134:1 152:1 377:1 577:1 641:1 840:1 903:1 5718:1 5719:1 5720:1 
1 1 1:0 2:2 3:22 4:0 5:1 6:4.3313333 7:1 8:2 15:1 29:1 32:1 35:1 49:1 57:1 59:4 84:1 134:1 859:1 861:1 875:1 1192:1 1412:2 2798:1 2990:1 5721:1 5722:1 5723:1 5724:1 
1 1 1:0 2:0 3:17 4:0 5:1 6:5.5021 7:1 8:2 15:2 29:1 53:2 57:1 63:1 70:1 88:1 89:1 115:1 124:1 440:1 876:1 1189:1 2052:1 2570:1 2788:1 2896:1 3468:1 3670:1 5725:1 
1 1 1:0 2:0 3:15 4:0 5:1 6:4.8037333 7:1 21:3 25:1 29:1 53:1 57:1 72:1 88:1 89:1 210:1 487:1 510:1 649:1 673:1 1587:1 2628:1 3154:1 4589:1 5726:1 5727:1 5728:1 
1 1 1:0 2:0 3:12 4:0 5:1 6:2.1296333 7:1 21:1 79:1 81:1 84:1 89:1 121:1 254:1 673:2 824:1 876:1 952:1 5729:1 5730:1 
1 1 1:1 2:0 3:14 4:0 5:1 6:0.93056667 8:1 15:1 21:1 29:1 31:1 32:1 59:1 84:1 88:1 89:1 115:1 191:1 440:1 881:1 5731:1 
1 1 1:0 2:0 3:9 4:0 5:1 6:2.6277667 7:1 8:1 15:1 20:1 45:1 54:1 96:1 190:1 893:1 2714:1 5732:1 5733:1 
1 1 1:0 2:2 3:7 4:0 5:1 6:3.8297 7:1 55:1 57:1 67:1 68:1 115:1 190:1 273:1 454:1 850:1 1166:1 1183:1 
1 1 1:0 2:0 3:11 4:0 5:1 6:3.8009333 7:1 8:1 25:1 38:1 41:1 49:2 89:1 117:1 628:1 660:1 884:1 956:1 988:1 1294:1 5734:1 5735:1 
1 1 1:0 2:0 3:11 4:0 5:1 6:1.4 7:1 8:1 25:1 55:1 57:1 89:1 147:1 822:1 876:1 881:1 905:1 2873:1 3063:1 
1 1 1:0 2:0 3:4 4:0 5:1 6:4.1547333 53:2 79:1 98:1 457:1 839:1 2281:1 2579:1 2803:1 3249:1 3253:1 
1 1 1:0 2:2 3:22 4:0 5:1 6:6.1551333 7:1 8:3 15:1 29:2 38:1 55:1 84:1 116:2 121:1 282:1 318:1 649:2 823:1 839:1 854:1 859:1 912:1 2422:1 2821:1 3199:1 3607:1 5736:1 5737:1 5738:1 
1 1 1:0 2:2 3:10 4:0 5:1 6:7.1662 14:1 15:1 192:1 382:1 555:1 707:1 823:1 839:1 912:1 1166:1 1173:1 1290:1 1800:1 2861:1 3199:1 3264:1 3715:1 4756:1 5707:1 
1 1 1:0 2:2 3:16 4:0 5:1 6:6.1448667 7:1 8:1 10:1 14:1 15:2 20:1 21:2 25:1 53:1 57:1 70:1 88:1 573:1 574:1 681:1 885:1 914:1 993:1 2790:1 2816:1 4673:1 5739:1 
1 1 1:0 2:2 3:15 4:0 5:1 6:6.6686667 8:1 10:1 14:1 15:2 20:1 21:2 50:1 53:1 57:1 70:1 88:1 573:1 574:1 681:1 885:1 914:1 993:1 2790:1 2816:1 3804:1 4673:1 5739:1 
1 1 1:1 2:2 3:13 4:0 5:1 6:5.9844 7:1 8:1 15:1 21:2 43:2 53:1 84:1 409:1 823:1 947:1 1059:1 2270:1 2795:1 2796:1 2853:1 2882:1 2883:1 3725:1 5740:1 
1 1 1:0 2:0 3:3 4:0 5:1 6:3.6778 7:1 15:1 54:1 273:1 641:1 865:1 1941:1 3401:1 4589:1 
1 1 1:0 2:1 3:4 4:0 5:1 6:1.4762 8:1 15:1 35:1 94:1 641:1 3209:1 
1 1 1:0 2:2 3:8 4:0 5:1 6:3.7228667 7:1 8:1 14:1 25:1 53:1 84:1 108:1 115:1 641:1 935:1 1169:1 3791:1 5693:1 
1 1 1:0 2:0 3:16 4:0 5:1 6:2.0423333 8:1 15:2 53:1 63:1 70:2 88:2 115:1 440:1 641:1 822:1 861:1 2863:1 3670:1 5741:1 5742:1 5743:1 
1 1 1:0 2:0 3:8 4:0 5:1 6:0.91003333 8:1 36:1 707:1 839:1 2307:1 2989:1 3484:1 5744:1 
1 1 1:0 2:0 3:15 4:0 5:1 6:1.0444333 7:1 8:1 20:1 21:1 27:1 55:1 89:1 151:1 169:1 179:1 190:1 628:1 2825:1 2889:1 2900:1 2901:1 
1 1 1:1 2:0 3:16 4:0 5:1 6:2.2805 15:1 38:1 59:1 92:1 110:1 115:1 134:1 148:1 190:1 191:1 649:1 707:1 878:1 1320:1 2790:1 5745:1 5746:1 
1 1 1:0 2:0 3:10 4:0 5:1 6:3.6111 7:2 43:1 44:1 55:1 57:1 88:1 96:2 660:1 2373:1 2414:1 2935:1 5747:1 
1 1 1:0 2:0 3:13 4:0 5:1 6:4.0211667 8:1 14:1 21:1 53:1 57:1 74:2 541:1 567:1 1412:1 1963:2 2270:1 2798:1 2918:1 2919:1 2920:1 2921:1 2922:1 
1 1 1:0 2:0 3:7 4:0 5:1 6:3.6592667 25:1 32:1 54:1 57:1 59:1 85:1 169:1 375:1 1033:1 1253:1 2375:1 2652:1 3674:1 
1 1 1:0 2:0 3:9 4:0 5:1 6:1.0555333 7:1 15:1 21:1 34:1 70:1 74:1 192:1 381:1 2825:1 5748:1 
1 1 1:0 2:0 3:13 4:0 5:1 6:3.1476 8:1 10:1 14:2 15:1 47:1 54:1 70:1 85:1 146:2 468:1 567:1 606:1 649:1 990:1 1312:1 2816:1 2947:1 
1 1 1:0 2:1 3:15 4:0 5:1 6:5.2683667 21:1 22:1 29:1 31:1 32:1 85:1 88:1 110:1 236:1 371:1 876:1 934:1 1055:1 1322:1 1904:1 2898:1 5749:1 5750:1 5751:1 5752:1 5753:1 
1 1 1:0 2:1 3:10 4:0 5:1 6:2.6515 15:1 32:1 35:1 84:1 409:1 496:1 597:1 649:1 2812:1 3063:1 3769:1 5754:1 5755:1 
1 1 1:0 2:1 3:7 4:0 5:1 6:1.9124667 15:1 32:1 53:1 57:1 115:1 641:1 2865:1 3166:1 3313:1 
1 1 1:0 2:0 3:16 4:0 5:1 6:0.75 7:1 8:1 9:1 15:1 70:1 74:1 108:1 176:1 641:1 2754:1 2798:1 2896:2 5756:1 5757:1 5758:1 5759:1 
1 1 1:0 2:2 3:9 4:0 5:1 6:5.1322667 7:1 14:1 15:2 29:1 49:1 59:1 63:1 212:1 514:1 641:1 832:1 988:1 1811:1 2992:1 4258:1 4749:1 
1 1 1:1 2:0 3:17 4:0 5:1 6:5.4474333 7:1 8:1 14:1 15:1 21:2 29:1 53:1 54:1 70:1 76:1 88:1 96:1 270:1 362:1 641:1 840:1 893:1 903:1 1608:1 5707:1 5743:1 5760:1 5761:1 5762:1 
1 1 1:1 2:1 3:6 4:0 5:1 6:2.4102667 7:1 25:1 94:1 271:1 641:1 2990:1 5763:1 5764:1 
1 1 1:1 2:0 3:8 4:0 5:1 6:0.93406667 8:1 25:1 70:1 74:1 147:1 641:1 854:1 5765:1 5766:1 
1 1 1:1 2:0 3:16 4:0 5:1 6:2.2805 15:1 38:1 59:1 92:1 110:1 115:1 134:1 148:1 190:1 191:1 649:1 707:1 878:1 1320:1 2790:1 5745:1 5746:1 
1 1 1:0 2:0 3:16 4:0 5:1 6:0 15:1 21:1 25:1 29:1 36:1 38:1 59:1 88:1 147:1 148:1 191:1 454:1 649:1 1478:1 2861:1 2982:1 
1 1 1:0 2:0 3:11 4:0 5:1 6:0 36:2 47:1 55:1 83:1 91:1 115:1 821:1 827:1 884:1 3422:1 
1 1 1:0 2:0 3:14 4:0 5:1 6:4.2890333 8:1 21:1 29:1 44:1 55:1 57:1 59:1 63:1 70:1 88:1 129:1 137:1 147:1 468:1 988:1 1235:1 1253:1 1926:1 2958:1 5767:1 
1 1 1:0 2:0 3:12 4:0 5:1 6:1.4 7:1 14:1 15:2 43:1 74:1 85:1 86:1 87:2 88:1 89:1 90:1 91:1 
1 1 1:0 2:0 3:4 4:0 5:1 6:0.5 15:1 115:1 192:1 709:1 2853:1 
1 1 1:0 2:0 3:5 4:0 5:1 6:1.4583333 7:1 57:1 169:1 1493:1 2816:1 2927:1 5768:1 
1 1 1:0 2:2 3:12 4:0 5:1 6:4.7665333 15:2 32:2 45:1 53:1 59:1 84:1 94:1 134:1 147:1 371:1 375:1 641:1 879:1 2936:1 5769:1 5770:1 
1 1 1:0 2:0 3:4 4:0 5:1 6:0.7436 7:1 89:1 454:1 5711:1 5771:1 
1 1 1:0 2:0 3:10 4:0 5:1 6:0.56666667 8:1 15:1 27:1 54:1 59:1 70:1 89:1 190:1 191:1 454:1 2798:1 
1 1 1:0 2:1 3:6 4:0 5:1 6:4.3485667 7:1 20:1 25:1 94:1 96:2 121:1 839:1 912:1 1400:1 2188:1 2751:1 
1 1 1:0 2:0 3:10 4:0 5:1 6:2.1308 7:1 8:1 25:1 53:1 67:1 68:1 84:1 134:1 169:1 641:1 2794:1 2911:1 
1 1 1:0 2:0 3:7 4:0 5:1 6:3.8913667 7:1 8:1 29:1 43:1 44:1 53:1 70:1 85:1 98:1 408:1 660:1 832:1 2912:1 
1 1 1:0 2:1 3:5 4:0 5:1 6:2.8805333 8:1 85:1 115:1 241:1 318:1 574:1 2658:1 2767:1 
1 1 1:0 2:1 3:12 4:0 5:1 6:1.873 57:1 70:1 88:1 94:1 121:1 567:1 954:1 2404:1 2861:1 4624:1 5772:1 5773:1 5774:1 5775:1 
1 1 1:0 2:2 3:14 4:0 5:1 6:6.0774 7:1 8:2 38:1 54:1 55:1 57:1 140:1 148:1 161:1 169:1 281:1 454:1 471:1 586:1 628:1 854:1 1173:1 1232:1 1719:1 1775:1 3495:1 5776:1 
1 1 1:0 2:1 3:4 4:0 5:1 6:2.1521333 7:1 8:1 57:1 454:1 476:1 2628:1 5777:1 
1 1 1:0 2:0 3:10 4:0 5:1 6:5.2962667 14:1 21:1 27:1 29:1 53:1 57:1 165:1 377:1 605:1 854:1 910:1 970:1 2418:1 3377:1 5778:1 5779:1 5780:1 5781:1 
1 1 1:0 2:0 3:12 4:0 5:1 6:0.85713333 7:1 15:1 25:1 27:1 134:1 192:1 468:1 707:1 824:1 990:1 1831:1 3167:1 
1 1 1:0 2:0 3:14 4:0 5:1 6:5.8646333 7:1 32:1 53:1 88:1 98:1 134:1 165:1 399:1 840:1 903:1 1237:1 1830:1 1861:1 2097:1 2895:1 3045:1 4021:1 4251:1 4375:1 5782:1 5783:1 5784:1 
1 1 1:1 2:0 3:10 4:0 5:1 6:1.5245667 7:1 15:1 21:1 31:1 32:1 134:1 607:1 2789:1 3306:1 5785:1 5786:1 
1 1 1:0 2:0 3:11 4:0 5:1 6:2.5428667 8:1 21:1 25:1 43:1 70:1 134:1 147:1 823:1 887:1 2011:1 2816:1 3046:1 5787:1 
1 1 1:0 2:1 3:11 4:0 5:1 6:7.2276333 7:1 8:1 14:1 15:1 21:1 32:2 54:1 59:1 89:1 96:1 335:1 649:1 859:1 890:1 951:1 1980:1 2270:1 2867:1 2992:1 3186:1 4548:1 
1 1 1:3 2:0 3:11 4:0 5:1 6:3.1789667 8:2 25:1 70:1 84:1 169:1 549:1 1253:1 2011:1 2798:1 5695:1 5786:1 5788:1 5789:1 
1 1 1:0 2:0 3:10 4:0 5:1 6:1.5809667 8:1 29:1 32:2 89:1 173:1 851:1 854:1 881:1 3244:1 3829:1 5790:1 
1 1 1:0 2:2 3:18 4:0 5:1 6:5.177 8:1 9:1 15:1 25:2 34:1 38:1 97:1 108:1 362:1 379:1 840:4 872:1 881:1 903:4 2770:1 2958:1 3434:1 4348:1 
1 1 1:0 2:1 3:18 4:0 5:1 6:5.3710333 7:1 8:3 14:1 15:1 20:1 32:1 54:1 88:1 96:1 931:1 947:1 956:1 970:1 1449:1 1578:1 3434:1 4451:1 4879:1 6026:1 6027:1 6028:1 6029:1 
1 1 1:0 2:1 3:15 4:0 5:1 6:6.1304333 8:2 15:1 20:1 21:1 22:1 25:1 53:1 83:1 97:1 115:1 165:1 241:1 544:1 1294:1 1420:1 2211:1 2798:1 2947:1 2995:1 3043:1 3434:1 3495:1 3804:1 6030:1 
1 1 1:0 2:0 3:10 4:0 5:1 6:4.2240667 7:1 15:2 20:1 49:1 53:1 54:1 67:1 949:1 1177:1 2825:1 3434:1 3546:1 6031:1 6032:1 6033:1 
1 1 1:0 2:0 3:11 4:0 5:1 6:7.9269667 7:1 8:2 25:1 29:2 46:1 54:1 64:1 96:1 98:1 115:1 117:1 165:1 627:1 865:1 915:1 956:1 970:1 1649:1 2628:1 2798:1 5018:1 6034:1 
1 1 1:0 2:0 3:3 4:0 5:1 6:0.58333333 15:1 379:1 6035:1 6036:1 
1 1 1:0 2:0 3:6 4:0 5:1 6:1.9682333 8:1 15:1 165:1 915:1 964:1 971:1 2798:1 3433:1 6037:1 
1 1 1:0 2:1 3:16 4:0 5:1 6:7.5744333 8:1 21:2 25:1 32:1 45:1 53:1 70:2 88:1 98:1 412:1 528:1 709:1 753:2 811:1 915:1 957:1 964:1 1106:1 1141:1 1207:1 1830:1 3722:1 4955:1 6038:1 
1 1 1:0 2:1 3:4 4:0 5:1 6:2.8471 88:1 377:1 628:1 915:1 1111:1 1837:1 3205:1 6039:1 
1 1 1:1 2:1 3:6 4:0 5:1 6:2.3305667 8:1 96:1 105:1 115:1 915:1 2865:1 3528:1 4286:1 
1 1 1:0 2:0 3:6 4:0 5:1 6:4.3452333 15:1 21:1 25:1 96:1 165:1 169:1 379:2 915:1 951:1 1060:1 1398:1 3793:1 
1 1 1:0 2:0 3:19 4:0 5:1 6:4.7545 7:1 20:1 41:1 44:1 49:1 140:1 362:1 541:1 822:1 840:2 854:1 878:1 903:2 931:1 1830:1 1956:1 2011:1 2798:2 3161:1 3789:2 6040:1 
1 1 1:1 2:0 3:10 4:0 5:1 6:2.2837333 7:2 27:2 32:1 147:1 644:1 649:1 851:1 931:1 2935:1 3431:1 4831:1 
1 1 1:0 2:1 3:13 4:0 5:1 6:5.7420667 7:2 8:1 15:1 25:1 29:1 49:1 79:1 89:1 108:1 379:1 689:1 931:1 990:1 1060:1 1229:1 2817:1 3169:1 3175:2 6041:1 
1 1 1:1 2:0 3:14 4:0 5:1 6:1.4305667 7:1 8:1 25:1 97:1 146:1 151:1 493:1 881:1 931:1 938:1 3781:2 3820:1 3851:1 5917:1 6042:1 
1 1 1:0 2:0 3:15 4:0 5:1 6:2.6777667 7:1 15:1 20:1 21:1 41:1 59:1 80:1 478:1 649:1 876:1 879:1 931:1 1073:1 2892:1 3171:1 6043:1 6044:1 6045:1 
1 1 1:0 2:1 3:9 4:0 5:1 6:2.2762 15:1 107:1 822:1 847:1 854:1 931:1 978:2 2418:1 4044:1 6046:1 6047:1 
1 1 1:0 2:1 3:14 4:0 5:1 6:4.0141667 8:1 21:1 38:1 43:1 49:1 63:1 241:1 446:1 823:1 840:1 903:1 931:1 1830:1 2853:1 3054:1 3810:1 4620:1 6048:1 6049:1 6050:1 
1 1 1:1 2:2 3:5 4:0 5:1 6:5.8254 7:1 103:1 146:1 186:1 788:1 850:1 872:1 988:1 1002:1 1888:1 4595:1 6051:1 6052:1 
1 1 1:0 2:0 3:5 4:0 5:1 6:0.6 10:1 21:1 31:1 44:1 565:1 931:1 
1 1 1:0 2:1 3:6 4:0 5:1 6:2.1238 32:1 44:1 70:1 94:1 586:1 854:1 881:1 1196:1 3492:1 
1 1 1:0 2:0 3:12 4:0 5:1 6:3.9591 7:1 8:1 20:1 25:1 32:1 41:1 121:1 149:1 375:1 586:1 881:1 915:1 931:1 1019:1 1229:1 3142:1 5848:1 6053:1 6054:1 
1 1 1:0 2:1 3:9 4:0 5:1 6:0.8 15:1 25:1 43:1 881:1 931:2 2444:1 2816:1 6055:1 6056:1 
1 1 1:0 2:0 3:9 4:0 5:1 6:5.9909 7:1 15:1 20:1 21:1 27:1 53:1 54:1 57:1 87:1 487:1 660:1 709:1 719:1 811:1 823:1 915:1 2834:1 3011:1 6057:1 
1 1 1:0 2:0 3:14 4:0 5:1 6:3.3497667 7:1 8:1 29:1 32:1 43:1 54:1 88:2 212:1 822:1 854:1 881:1 915:1 951:1 1921:1 2751:1 3209:1 6058:1 6059:1 
1 1 1:0 2:1 3:11 4:0 5:1 6:0.92593333 8:2 20:1 28:1 29:1 43:1 44:1 147:1 881:1 931:1 1719:1 3707:1 
1 1 1:0 2:0 3:4 4:0 5:1 6:1.7065667 15:1 53:1 198:1 931:1 2911:1 2959:1 
1 1 1:0 2:2 3:7 4:0 5:1 6:5.4210333 7:1 25:2 32:1 54:2 529:1 835:1 913:1 970:1 1649:1 3477:1 3641:1 4773:1 4774:1 
1 1 1:0 2:0 3:9 4:0 5:1 6:5.9909 7:1 15:1 20:1 21:1 27:1 53:1 54:1 57:1 87:1 487:1 660:1 709:1 719:1 811:1 823:1 915:1 2834:1 3011:1 6057:1 
1 1 1:0 2:0 3:10 4:0 5:1 6:6.7969667 32:1 106:1 427:1 567:1 753:1 813:1 822:2 938:1 1033:1 1034:1 2959:1 3384:1 4513:1 6060:1 6061:1 6062:1 6063:1 6064:1 6065:1 
1 1 1:1 2:0 3:7 4:0 5:1 6:1.8686 20:1 25:1 379:1 915:1 935:1 1002:1 3829:1 6066:1 6067:1 
1 1 1:0 2:0 3:5 4:0 5:1 6:3.4956 21:1 53:1 165:1 270:1 358:1 650:1 915:1 4029:1 4707:1 6068:1 
1 1 1:0 2:0 3:18 4:0 5:1 6:7.0451667 7:1 8:1 9:1 21:3 25:1 38:1 53:1 88:1 165:1 204:1 457:1 707:1 890:1 1122:1 1449:1 2626:2 3064:1 3449:1 3487:1 4157:1 6069:1 6070:1 6071:1 6072:1 6073:1 
1 1 1:0 2:0 3:16 4:0 5:1 6:7.3317667 7:1 8:2 25:1 49:1 54:1 59:1 63:1 79:2 88:1 143:1 147:1 281:1 379:1 590:1 840:1 903:1 931:1 2306:1 2788:1 2976:1 3162:1 3227:1 3641:1 3795:1 6074:1 
1 1 1:0 2:1 3:9 4:0 5:1 6:3.7014667 7:1 27:1 49:1 76:1 143:1 514:1 822:1 892:1 915:1 2420:1 2941:1 3625:1 3729:1 6075:1 6076:1 
1 1 1:0 2:0 3:6 4:0 5:1 6:0.45833333 7:1 8:1 147:1 915:1 930:1 947:1 
1 1 1:0 2:0 3:10 4:0 5:1 6:2.23 32:1 41:1 83:1 98:1 152:1 468:1 549:1 725:1 1400:1 2420:1 3492:1 3801:1 6077:1 
1 1 1:0 2:0 3:12 4:0 5:1 6:5.1341333 15:1 54:1 70:1 88:2 165:1 379:1 514:1 716:1 718:1 811:1 951:1 990:1 1019:1 1389:1 1554:1 2853:1 2982:1 6078:1 6079:1 6080:1 
1 1 1:0 2:0 3:4 4:0 5:1 6:1.1288 7:1 29:1 98:1 379:1 381:1 855:1 
1 1 1:0 2:2 3:11 4:0 5:1 6:6.6063667 20:1 29:2 37:1 52:4 54:1 88:1 94:1 555:2 790:1 829:1 1173:2 1221:1 1770:1 1941:1 2736:1 
1 1 1:0 2:0 3:4 4:0 5:1 6:1.5196667 8:1 54:1 1205:1 1770:1 2736:1 6314:1 
1 1 1:0 2:0 3:12 4:0 5:1 6:2.2437333 7:1 21:1 27:1 54:1 125:1 549:1 707:1 1770:1 2598:1 2736:1 3179:1 4562:1 6315:1 6316:1 6317:1 
1 1 1:0 2:1 3:14 4:0 5:1 6:5.4567 8:1 15:2 22:1 32:1 53:1 54:1 63:1 88:2 98:1 443:1 454:1 914:1 1075:1 1177:1 1230:1 1770:1 2736:1 4682:1 6038:1 6318:1 
1 1 1:0 2:0 3:2 4:0 5:1 6:3.8259333 53:2 54:1 529:1 811:1 1231:1 2927:1 3918:1 
1 1 1:0 2:0 3:5 4:0 5:1 6:2.6428333 21:1 165:1 1221:1 1412:1 2758:1 3204:1 3970:1 6319:1 6320:1 
1 1 1:0 2:2 3:11 4:0 5:1 6:7.9084667 7:1 25:1 26:1 59:1 88:1 98:1 272:1 576:1 970:1 1316:1 2011:1 2412:1 2628:1 2752:1 2772:1 2773:1 2774:1 2958:1 3127:1 3264:1 3805:1 6321:1 6322:1 
1 1 1:0 2:0 3:7 4:0 5:1 6:4.3404667 7:1 38:1 54:1 250:1 719:1 824:1 2412:1 2772:1 2773:1 2774:1 2957:1 2958:1 6065:1 6323:1 
1 1 1:0 2:0 3:13 4:0 5:1 6:2.0416667 8:1 32:1 44:1 573:1 822:1 881:1 951:1 2412:1 2772:1 2773:1 2774:1 3921:1 3922:1 3923:1 3924:1 3925:1 
1 1 1:0 2:5 3:8 4:0 5:1 6:10.8831 25:1 70:1 96:1 110:1 111:1 141:1 151:1 468:1 731:1 822:1 872:1 1316:1 1837:1 2293:1 2752:1 2776:1 2799:1 3964:1 4573:1 5683:1 6324:1 6325:1 
1 1 1:0 2:3 3:8 4:0 5:1 6:4.6455333 8:1 15:1 25:2 26:1 70:1 970:1 1316:1 1598:1 1789:1 1837:1 2776:1 3054:1 6326:1 
1 1 1:0 2:1 3:7 4:0 5:1 6:5.6057 8:1 29:1 32:1 43:1 53:1 54:1 70:1 270:1 297:1 881:1 1230:1 1837:1 1888:1 2776:1 6327:1 
1 1 1:0 2:3 3:6 4:0 5:1 6:4.3709 7:1 8:1 52:1 53:1 54:1 835:1 859:1 1231:1 2613:1 2752:1 2947:1 6328:1 
1 1 1:0 2:0 3:8 4:0 5:1 6:2.2843667 7:3 14:1 21:1 91:1 98:1 870:1 2342:1 2760:1 4406:1 
1 1 1:0 2:1 3:10 4:0 5:1 6:3.6002333 8:1 27:1 32:1 54:1 88:1 98:1 169:1 573:1 707:1 1770:1 2736:1 5511:1 6329:1 6330:1 6331:1 
1 1 1:0 2:1 3:18 4:0 5:1 6:3.5407667 7:1 8:2 25:1 43:1 52:4 54:1 70:1 96:1 822:1 1164:1 1232:1 1373:1 1770:1 2676:1 2736:1 2752:1 2798:1 2873:1 2947:1 
1 1 1:0 2:2 3:7 4:0 5:1 6:4.0708 8:1 32:1 43:1 53:1 70:1 443:1 573:1 718:1 811:1 881:1 1316:1 1837:1 2776:1 
1 1 1:0 2:1 3:4 4:0 5:1 6:2.0333333 7:1 43:1 64:1 91:1 311:1 3959:1 4258:1 
1 1 1:0 2:1 3:3 4:0 5:1 6:2.0333333 43:1 64:1 91:1 311:1 3959:1 4258:1 
1 1 1:0 2:1 3:15 4:0 5:1 6:7.1375333 8:2 9:3 32:1 43:1 44:1 63:1 88:1 97:1 151:1 377:1 826:1 881:1 890:1 918:1 1608:1 1743:1 1926:1 2048:1 4052:1 6332:1 6333:1 6334:1 6335:1 
1 1 1:0 2:1 3:10 4:0 5:1 6:1.6607 9:1 25:1 32:1 88:1 649:1 707:1 822:1 875:1 4052:1 6336:1 6337:1 
1 1 1:0 2:1 3:3 4:0 5:1 6:1.5201667 7:1 38:1 1166:1 2958:1 4052:1 
1 1 1:0 2:2 3:4 4:0 5:1 6:4.7665333 8:1 25:1 204:1 876:1 1221:1 1232:1 1316:1 1589:1 2596:1 2798:1 6338:1 
1 1 1:0 2:0 3:9 4:0 5:1 6:0 7:1 15:1 36:1 38:1 157:1 552:1 2892:1 6670:1 6671:1 
1 1 1:0 2:0 3:23 4:0 5:1 6:0 12:1 15:1 25:1 36:1 51:1 52:2 59:1 70:1 151:1 198:2 443:1 468:1 499:1 682:1 854:1 965:1 990:1 1235:1 3772:2 6672:1 
1 1 1:0 2:0 3:9 4:0 5:1 6:0 7:1 8:1 15:1 63:1 92:1 134:1 176:1 3436:1 6673:1 
1 1 1:1 2:0 3:17 4:0 5:1 6:0 7:1 8:1 14:1 25:1 38:1 134:1 366:1 673:1 824:1 956:1 2801:1 3772:1 6259:1 6674:1 6675:1 6676:1 6677:1 
1 1 1:0 2:2 3:7 4:0 5:1 6:2.3095 15:1 22:1 25:1 57:1 59:1 859:1 883:1 2308:1 2689:1 3011:1 
1 1 1:0 2:0 3:8 4:0 5:1 6:2.0873 7:1 8:1 15:1 57:1 63:1 282:1 823:1 1230:1 2814:1 6260:1 
1 1 1:1 2:0 3:6 4:0 5:1 6:2.1739333 53:1 1320:1 2412:1 2772:1 2773:1 2774:1 6941:1 6942:1 
1 1 1:0 2:0 3:4 4:0 5:1 6:2.1830667 21:1 54:1 165:1 1253:1 1260:1 2798:1 3945:1 3946:1 
1 1 1:1 2:2 3:13 4:0 5:1 6:9.0234 8:1 25:1 29:1 44:1 53:1 70:2 115:1 147:1 289:1 446:1 476:1 649:1 951:1 1173:1 1221:1 1837:1 2776:1 2853:1 3232:1 3287:1 3607:1 6896:1 6943:1 6944:1 6945:1 
1 1 1:0 2:0 3:4 4:0 5:1 6:1.1640333 7:1 8:1 822:1 1231:1 2958:1 3359:1 
1 1 1:0 2:0 3:15 4:0 5:1 6:8.2948333 7:1 31:1 43:1 53:1 54:1 85:1 88:1 131:1 371:1 487:1 567:1 644:1 840:2 903:2 954:1 959:1 2434:1 2838:1 2936:1 3124:1 3304:1 3807:1 5961:1 7590:2 
1 1 1:0 2:0 3:14 4:0 5:1 6:3.9303667 7:1 8:1 29:1 32:1 49:1 84:1 85:1 98:1 318:1 377:1 454:1 571:1 823:1 856:1 965:1 970:1 2935:1 5858:1 7591:1 7592:1 
1 1 1:0 2:1 3:14 4:0 5:1 6:2.984 7:1 8:2 9:1 25:1 54:1 55:1 57:1 85:1 88:1 147:1 454:1 528:1 628:1 881:1 912:1 1116:1 1846:1 6685:1 
1 1 1:0 2:1 3:10 4:0 5:1 6:3.0846333 8:1 25:1 45:1 63:1 85:1 859:1 863:1 1230:1 1253:1 2813:1 7593:1 7594:1 7595:1 7596:1 
1 1 1:1 2:1 3:11 4:0 5:1 6:5.5974667 7:1 21:1 53:1 79:1 85:1 141:1 169:1 191:1 294:1 544:1 673:1 824:2 876:1 964:1 3944:1 6931:1 7597:1 7598:1 
1 1 1:0 2:1 3:15 4:0 5:1 6:6.6473 7:1 15:1 25:2 54:1 70:2 85:1 165:2 487:1 649:1 719:1 970:1 1890:1 2881:1 2968:1 3402:1 5691:1 5692:1 5693:1 5694:1 5695:1 5696:1 5697:1 
1 1 1:0 2:2 3:10 4:0 5:1 6:5.1137 7:1 8:1 15:1 21:1 54:1 57:1 84:1 85:1 282:1 439:1 499:1 924:1 970:2 1253:1 1800:1 7599:1 
1 1 1:0 2:0 3:4 4:0 5:1 6:1.1547667 7:1 85:1 457:1 854:1 2958:1 7600:1 
1 1 1:0 2:1 3:17 4:0 5:1 6:6.9087 8:2 14:1 15:1 21:2 25:1 38:1 79:1 84:1 85:1 91:1 549:1 665:1 872:1 912:1 1545:1 2990:1 3262:1 3490:1 4317:1 5702:1 5703:1 5704:1 5705:1 5706:1 5707:1 
1 1 1:0 2:0 3:10 4:0 5:1 6:3.7773667 7:1 8:2 15:2 35:1 57:1 88:1 137:1 169:1 823:1 876:1 5486:1 6401:1 7601:1 7602:1 
1 1 1:0 2:0 3:3 4:0 5:1 6:1.1111 15:1 53:1 57:1 2307:1 
1 1 1:0 2:1 3:7 4:0 5:1 6:4.3611 7:1 21:1 29:1 44:1 57:1 63:1 99:1 137:2 147:1 872:1 1230:1 2795:1 
1 1 1:0 2:0 3:6 4:0 5:1 6:1.1619 7:1 8:1 15:1 35:1 57:1 110:1 111:1 
1 1 1:0 2:1 3:11 4:0 5:1 6:2.5773667 7:1 8:1 10:1 44:1 57:1 169:1 270:1 641:1 859:1 861:1 2873:1 3801:1 7603:1 7604:1 
1 1 1:0 2:1 3:6 4:0 5:1 6:1.625 8:2 15:1 35:1 57:1 70:1 660:1 872:1 
1 1 1:0 2:0 3:8 4:0 5:1 6:3.7685667 25:1 53:1 57:1 58:1 131:1 173:1 514:1 1205:1 2155:1 3449:1 3829:1 3933:1 5353:1 
1 1 1:0 2:0 3:18 4:0 5:1 6:3.3682667 15:1 21:1 32:1 54:1 57:1 63:1 74:1 81:1 88:2 158:1 176:2 496:1 626:1 649:1 822:1 2106:1 3558:1 5753:1 7605:1 7606:1 7607:1 7608:1 
1 1 1:0 2:0 3:7 4:0 5:1 6:0 7:1 8:1 44:1 47:1 55:1 57:1 147:1 
1 1 1:0 2:0 3:5 4:0 5:1 6:0.375 20:1 55:1 57:1 881:1 1214:1 
1 1 1:0 2:0 3:7 4:0 5:1 6:1.5231333 15:1 32:1 41:1 134:1 457:1 1192:1 1354:1 7609:1 
1 1 1:0 2:0 3:7 4:0 5:1 6:1.2381 8:1 14:1 21:1 25:1 134:1 861:1 1033:1 2995:1 6858:1 
1 1 1:1 2:0 3:15 4:0 5:1 6:3.3785 7:1 8:2 20:1 21:1 32:1 43:1 58:1 147:1 151:1 165:1 443:1 543:1 881:1 1230:1 2816:1 2853:1 6067:1 7610:1 7611:1 
1 1 1:1 2:1 3:12 4:0 5:1 6:6.0129667 8:1 21:1 29:3 53:1 108:2 147:1 568:1 822:1 2414:1 2935:1 2958:1 2990:1 3287:1 7612:1 7613:1 7614:1 
1 1 1:0 2:0 3:11 4:0 5:1 6:2.1585667 15:1 21:1 31:1 32:1 49:1 98:1 134:1 641:1 649:1 1033:1 2790:1 2861:1 3804:1 7615:1 
1 1 1:0 2:0 3:6 4:0 5:1 6:3.0046333 15:1 21:1 43:1 53:2 84:1 134:1 1459:1 2414:1 2795:1 
1 1 1:0 2:0 3:5 4:0 5:1 6:1.1111 7:1 15:1 53:1 134:1 954:1 2307:1 
1 1 1:0 2:1 3:7 4:0 5:1 6:1.8095333 15:1 134:1 476:1 649:1 854:1 1214:1 2420:1 7616:1 7617:1 
1 1 1:0 2:0 3:11 4:0 5:1 6:0.5 7:1 8:2 15:1 25:1 29:1 35:1 57:1 63:1 134:1 823:1 2833:1 
1 1 1:0 2:0 3:16 4:0 5:1 6:1.2963 7:2 15:1 32:1 53:1 84:1 134:1 152:1 377:1 577:1 641:1 840:1 903:1 5718:1 5719:2 5720:1 7618:1 
1 1 1:0 2:0 3:10 4:0 5:1 6:3.1274667 15:1 29:1 32:1 53:1 88:1 96:1 98:1 115:2 134:1 1417:1 2861:1 4690:1 5185:1 7619:1 
1 1 1:0 2:2 3:12 4:0 5:1 6:4.5025 7:1 20:1 32:2 85:1 89:1 586:1 990:1 1719:1 2412:1 3875:1 7599:1 7600:1 7620:1 7621:1 7622:1 7623:1 7624:1 
1 1 1:0 2:0 3:4 4:0 5:1 6:0 49:1 86:1 89:1 2861:1 
1 1 1:0 2:2 3:12 4:0 5:1 6:4.8460333 7:1 8:1 21:1 32:1 70:1 105:1 147:1 152:1 190:1 408:1 499:1 766:1 1229:1 2234:1 2676:1 2767:1 2863:1 7625:1 
1 1 1:0 2:1 3:17 4:0 5:1 6:3.2215667 7:1 21:1 25:3 29:1 57:1 88:1 89:1 169:1 190:1 362:1 381:1 427:1 822:1 881:1 988:1 1230:1 2801:1 2945:1 3264:1 4770:1 
1 1 1:0 2:1 3:10 4:0 5:1 6:3.5639 8:1 29:1 70:1 88:1 115:1 839:1 854:1 920:1 970:1 992:1 1596:1 2189:1 6260:1 7626:1 
1 1 1:0 2:0 3:7 4:0 5:1 6:3.5889 7:1 27:1 43:1 64:1 190:1 427:1 988:1 1067:1 2297:1 2921:1 6559:1 7627:1 
1 1 1:0 2:0 3:6 4:0 5:1 6:1.7367667 21:1 25:1 53:1 165:1 379:1 2882:1 2883:1 3408:1 7628:1 
1 1 1:0 2:0 3:7 4:0 5:1 6:6.1999667 7:1 8:1 21:1 88:1 97:1 98:1 143:1 641:1 811:1 823:1 851:1 854:1 912:1 1354:1 6057:1 6325:1 7629:1 
1 1 1:0 2:0 3:14 4:0 5:1 6:1.7127 8:1 15:1 28:1 31:1 32:1 59:1 63:1 70:1 115:1 375:1 382:1 576:1 641:1 2011:1 2744:1 7630:1 
1 1 1:0 2:0 3:11 4:0 5:1 6:6.7346667 15:3 31:1 32:1 54:1 64:1 115:1 468:1 487:1 641:1 719:1 790:1 951:1 1230:1 2414:1 7631:1 7632:1 7633:1 7634:1 7635:1 
1 1 1:0 2:0 3:17 4:0 5:1 6:6.0146667 7:2 8:1 20:1 25:1 32:1 36:1 38:1 54:2 59:1 88:1 108:1 259:1 893:1 970:1 1124:1 2098:2 2884:1 2982:1 3025:1 3495:1 3507:1 4797:1 7636:1 
1 1 1:0 2:0 3:10 4:0 5:1 6:2.5269333 15:1 25:1 36:1 88:1 98:1 934:1 2307:1 2432:1 2821:1 3438:1 4989:1 7637:1 7638:1 
1 1 1:0 2:1 3:17 4:0 5:1 6:3.6724333 15:2 21:1 25:1 29:1 36:1 38:1 59:1 70:1 84:1 88:1 98:1 148:1 165:1 709:2 1169:1 2596:1 3670:1 5537:1 5830:1 7639:1 
1 1 1:0 2:0 3:16 4:0 5:1 6:5.2620667 14:1 15:1 27:1 28:1 36:1 41:1 70:2 84:1 88:1 96:1 443:1 487:2 628:1 786:1 839:1 864:1 887:1 2011:1 2896:1 3523:1 4284:1 7640:1 
1 1 1:0 2:0 3:18 4:0 5:1 6:6.1359333 7:1 8:1 14:2 15:2 21:2 22:1 25:1 31:1 36:1 51:1 53:1 88:1 98:1 146:1 210:1 313:1 381:1 487:1 567:1 738:1 934:1 2536:1 5793:1 7641:1 
1 1 1:0 2:0 3:16 4:0 5:1 6:1.9213 7:1 8:1 88:1 89:1 147:1 190:1 192:1 381:1 487:1 516:1 2889:1 2892:1 2992:1 5727:1 6675:1 7642:1 7643:1 7644:1 7645:1 
1 1 1:0 2:0 3:13 4:0 5:1 6:7.5108 7:1 8:3 15:1 21:1 32:2 54:1 63:1 76:1 92:1 134:1 165:1 534:1 654:1 719:1 935:1 1230:2 1253:1 1554:1 2940:1 2941:1 2942:1 
1 1 1:0 2:0 3:8 4:0 5:1 6:3.1329667 20:1 21:1 32:1 38:1 63:1 92:1 97:1 117:1 134:1 154:1 169:1 561:1 914:1 
1 1 1:0 2:1 3:11 4:0 5:1 6:4.5158333 8:2 15:1 21:1 54:1 92:1 98:1 107:1 156:1 165:1 499:1 813:1 853:1 2767:1 2971:1 7646:1 7647:1 
1 1 1:1 2:0 3:10 4:0 5:1 6:7.3039 7:1 21:1 46:1 53:1 76:1 98:1 151:1 186:1 232:1 811:2 853:1 854:1 876:1 2892:1 3390:1 3878:1 4783:1 7486:1 7648:1 7649:1 
1 1 1:0 2:2 3:17 4:0 5:1 6:4.25 7:2 8:2 20:1 27:1 85:1 89:1 117:1 131:3 295:2 908:1 2798:1 2927:2 3304:1 7650:1 7651:1 7652:1 
1 1 1:0 2:0 3:11 4:0 5:1 6:5.8229667 7:2 8:1 15:1 21:1 25:1 53:1 79:1 85:1 147:1 446:1 487:1 912:1 1177:1 2418:1 2833:1 2911:1 3262:1 3641:1 4000:1 
1 1 1:0 2:0 3:11 4:0 5:1 6:0.51853333 14:1 641:1 854:1 978:2 2906:1 3035:1 7653:1 7654:1 7655:1 7656:1 7657:1 
1 1 1:0 2:1 3:11 4:0 5:1 6:4.5158333 8:2 15:1 21:1 54:1 92:1 98:1 107:1 156:1 165:1 499:1 813:1 853:1 2767:1 2971:1 7646:1 7647:1 
1 1 1:0 2:1 3:10 4:0 5:1 6:4.2103333 7:1 8:1 21:1 25:1 38:1 57:1 59:1 84:1 94:1 236:1 823:1 1412:1 2418:1 2798:1 4797:1 5706:1 
1 1 1:0 2:0 3:22 4:0 5:1 6:0 8:2 15:1 21:2 35:1 36:1 37:1 38:1 39:1 40:1 41:1 42:1 43:2 44:1 45:1 46:1 47:1 48:1 49:1 50:1 
1 1 1:0 2:0 3:9 4:0 5:1 6:0 7:1 15:1 36:1 38:1 157:1 552:1 2892:1 6670:1 6671:1 
1 1 1:0 2:0 3:9 4:0 5:1 6:1 8:1 21:1 29:1 57:1 58:1 96:1 571:1 2798:1 7658:1 7659:1 
1 1 1:0 2:1 3:7 4:0 5:1 6:2.5686333 7:1 14:1 15:1 32:1 57:1 98:1 514:1 990:1 996:1 2789:1 3448:1 
1 1 1:0 2:0 3:15 4:0 5:1 6:4.5407333 7:1 15:1 20:1 21:1 25:1 31:1 35:1 40:1 57:1 84:1 165:1 823:1 854:2 876:1 964:1 2050:1 5767:1 7660:1 7661:1 7662:1 
1 1 1:0 2:0 3:15 4:0 5:1 6:4.2890333 7:1 8:1 21:1 29:1 44:1 55:1 57:1 59:1 63:1 70:1 88:1 129:1 137:1 147:1 468:1 988:1 1235:1 1253:1 1926:1 2958:1 5767:1 
1 1 1:0 2:0 3:8 4:0 5:1 6:2.0873 7:1 8:1 15:1 57:1 63:1 282:1 823:1 1230:1 2814:1 6260:1 
1 1 1:0 2:1 3:8 4:0 5:1 6:5.3482333 7:1 32:1 70:1 85:1 146:1 840:1 847:1 854:1 876:1 903:1 970:1 988:1 1716:1 1751:1 2048:1 3855:1 7607:1 
1 1 1:1 2:3 3:15 4:0 5:1 6:7.5136 8:1 15:1 25:1 32:1 39:1 76:1 85:1 88:1 96:1 191:1 270:1 439:1 514:1 822:2 836:1 912:1 918:1 2861:1 3100:1 3548:1 4318:1 6667:1 7663:1 7664:1 
1 1 1:0 2:2 3:8 4:0 5:1 6:3.4873333 7:1 21:1 47:1 54:1 85:1 88:1 151:1 536:1 2791:2 2816:1 3114:1 6576:1 
1 1 1:0 2:0 3:14 4:0 5:1 6:2.25 8:2 14:1 15:1 47:1 55:1 84:1 85:1 91:1 152:1 165:1 660:1 907:1 935:1 1320:1 7665:1 7666:1 
1 1 1:0 2:2 3:11 4:0 5:1 6:11.858433 7:1 15:1 21:1 25:1 54:1 85:1 88:2 165:1 272:1 377:1 510:1 514:1 596:1 665:1 854:1 893:1 970:1 1890:1 2048:1 2628:1 2767:1 2792:1 3264:1 3290:1 3389:1 5537:1 5581:1 
1 1 1:0 2:0 3:7 4:0 5:1 6:0.43333333 29:1 57:1 443:1 730:1 920:1 5690:1 7667:1 
1 1 1:0 2:0 3:5 4:0 5:1 6:3.9997333 15:1 57:1 124:1 126:1 165:1 487:1 890:1 920:1 934:1 2855:1 5428:1 
1 1 1:0 2:1 3:11 4:0 5:1 6:3.7129333 8:1 15:1 32:1 57:1 73:1 88:1 96:1 649:1 854:1 864:1 876:1 1290:1 1811:1 3319:1 4756:1 7668:1 
1 1 1:0 2:1 3:6 4:0 5:1 6:3.0518667 15:1 38:1 57:1 58:1 365:1 377:1 1837:1 2936:1 7669:1 7670:1 
1 1 1:0 2:0 3:17 4:0 5:1 6:5.4436333 15:2 32:2 57:1 63:1 66:1 74:1 77:1 88:2 97:1 98:1 108:1 270:1 822:1 840:1 876:1 903:1 912:1 935:1 3282:1 7671:1 7672:1 7673:1 7674:1 
1 1 1:0 2:0 3:10 4:0 5:1 6:3.9782 15:2 29:1 31:1 41:1 57:1 84:1 89:1 203:1 440:1 623:1 887:1 935:1 1229:1 2011:1 3163:1 
1 1 1:0 2:1 3:6 4:0 5:1 6:2.4160667 7:1 32:1 134:1 597:1 2900:1 3119:1 7675:1 7676:1 7677:1 
1 1 1:0 2:0 3:25 4:0 5:1 6:2.6938 8:1 14:1 21:2 29:1 32:2 55:1 57:1 58:1 59:1 70:1 89:1 147:1 150:1 151:1 152:1 169:1 190:1 576:1 597:1 855:1 2043:1 2863:1 2866:1 5909:1 7678:1 7679:1 
1 1 1:0 2:1 3:3 4:0 5:1 6:2.3143 21:1 57:1 85:1 371:1 698:1 1033:1 
1 1 1:0 2:1 3:14 4:0 5:1 6:3.2019333 7:1 8:3 14:1 15:1 25:1 54:1 55:1 84:1 85:1 147:1 649:1 859:1 861:1 864:1 907:1 5912:1 7680:1 
1 1 1:0 2:0 3:7 4:0 5:1 6:3.8913667 7:1 8:1 29:1 43:1 44:1 53:1 70:1 85:1 98:1 408:1 660:1 832:1 2912:1 
1 1 1:0 2:1 3:11 4:0 5:1 6:3.5454667 8:2 20:1 29:2 57:1 59:1 98:1 377:1 641:1 761:1 850:1 3301:1 3401:1 3574:1 7681:1 
1 1 1:0 2:0 3:15 4:0 5:1 6:2.9694333 15:1 21:1 22:1 29:1 32:1 57:1 89:1 92:1 108:1 134:1 190:1 191:1 197:1 339:1 541:1 853:1 879:1 1214:1 
1 1 1:0 2:3 3:15 4:0 5:1 6:4.8370667 7:1 8:1 14:1 15:1 32:3 38:1 44:1 134:1 147:2 544:1 859:1 1837:1 1846:1 2770:1 7682:1 7683:1 7684:1 
1 1 1:1 2:1 3:14 4:0 5:1 6:6.6196333 8:2 21:1 29:1 38:1 43:1 54:1 88:1 89:1 98:1 147:1 190:1 191:1 318:1 514:1 811:1 842:1 883:1 892:1 2853:1 3546:1 5858:1 7670:1 7685:1 
1 1 1:1 2:1 3:18 4:0 5:1 6:4.2205333 7:1 14:2 53:1 76:1 89:1 117:1 125:2 157:1 175:1 176:1 190:1 191:1 294:1 427:1 577:1 2270:1 2869:1 3477:1 4471:1 6416:1 7686:1 7687:1 
1 1 1:1 2:0 3:14 4:0 5:1 6:2.278 7:1 8:1 15:1 25:1 29:1 38:1 53:1 88:1 89:1 120:1 147:1 165:1 203:1 709:1 2789:1 2833:1 7688:1 
1 1 1:0 2:0 3:10 4:0 5:1 6:4.3166667 7:1 14:1 29:1 39:1 49:1 57:1 63:1 87:1 89:1 91:1 117:1 810:1 912:2 2905:1 7689:1 7690:1 
1 1 1:1 2:1 3:12 4:0 5:1 6:8.0745667 7:1 8:3 9:1 25:1 54:1 88:1 89:1 165:1 271:1 408:1 649:1 822:1 906:1 918:1 970:1 1148:1 1229:1 2306:1 2851:1 3065:1 3359:1 7691:1 
1 1 1:0 2:0 3:7 4:0 5:1 6:2.9953667 15:1 32:1 822:1 839:1 854:1 1192:1 1253:1 2270:1 3674:1 7692:1 7693:1 
1 1 1:0 2:0 3:15 4:0 5:1 6:7.5994667 7:1 8:1 21:1 32:2 54:3 55:1 68:1 70:1 88:1 379:1 443:1 529:1 811:1 822:1 953:1 970:2 1038:1 1650:1 1700:1 3434:1 4749:1 5936:1 6909:1 7913:1 
1 1 1:0 2:2 3:10 4:0 5:1 6:5.3345333 7:1 8:1 38:1 49:1 53:1 54:1 272:1 362:1 819:1 947:1 990:1 1106:1 1920:1 3057:1 3434:1 5874:1 7919:1 
1 1 1:0 2:0 3:7 4:0 5:1 6:0.96213333 8:1 15:1 25:1 98:1 881:1 3434:1 4040:1 7920:1 
1 1 1:0 2:2 3:13 4:0 5:1 6:6.0834667 7:1 15:1 20:1 43:1 49:1 53:1 63:1 79:1 141:1 679:1 835:1 918:1 1038:1 1128:1 1684:1 2930:1 3011:2 3434:1 6925:1 7921:1 7922:1 
1 1 1:0 2:2 3:6 4:0 5:1 6:3.9907333 8:1 15:1 53:1 70:1 379:1 813:1 835:1 850:1 876:1 881:1 990:1 
1 1 1:0 2:0 3:2 4:0 5:1 6:1.9034333 53:1 108:1 915:1 6116:1 7923:1 
1 1 1:0 2:1 3:13 4:0 5:1 6:3.4047667 7:2 8:1 15:1 27:1 38:2 88:1 431:1 443:1 468:1 811:1 854:1 861:1 915:1 968:1 5956:1 7924:1 
1 1 1:0 2:0 3:10 4:0 5:1 6:0.83836667 7:1 25:1 27:1 59:1 70:1 121:1 915:1 2825:1 3313:1 7925:1 
1 1 1:1 2:3 3:18 4:0 5:1 6:6.4490667 8:1 15:1 21:1 29:1 38:1 43:1 165:1 377:1 476:1 487:1 649:2 822:1 823:1 838:1 915:1 1064:1 1102:1 1129:1 1354:1 2404:1 3436:1 5500:1 7926:1 7927:1 7928:1 
1 1 1:0 2:0 3:12 4:0 5:1 6:2.0416667 7:1 8:2 9:1 21:1 88:1 96:1 147:1 660:1 833:1 915:1 1082:1 2978:1 3543:1 7929:1 
1 1 1:0 2:1 3:10 4:0 5:1 6:4.6739333 15:1 70:1 79:1 88:1 96:1 165:1 788:1 876:1 931:1 990:1 1073:1 1589:1 2990:1 3667:1 7930:1 7931:1 
1 1 1:1 2:0 3:9 4:0 5:1 6:7.7417333 8:1 25:1 32:1 53:1 54:1 76:1 105:1 108:1 165:1 234:1 362:1 931:1 1073:1 1983:2 2414:1 3209:1 7691:1 7932:1 7933:1 
1 1 1:0 2:2 3:9 4:0 5:1 6:3.8964333 8:1 22:1 25:1 29:1 87:1 91:1 115:1 272:1 379:1 476:1 707:1 931:1 935:1 7934:1 
1 1 1:0 2:2 3:10 4:0 5:1 6:4.5019667 8:2 20:1 29:1 44:1 49:1 850:2 881:1 931:1 935:1 951:1 2825:1 4595:1 5835:1 6228:1 
1 1 1:0 2:0 3:7 4:0 5:1 6:3.2653667 15:1 32:1 53:1 379:1 709:1 854:1 920:1 931:1 951:1 2418:1 2616:1 
1 1 1:0 2:2 3:12 4:0 5:1 6:5.9443 8:1 27:1 32:1 88:1 96:1 98:1 108:1 116:1 204:1 361:1 363:1 931:1 2316:1 2892:1 2958:1 3452:1 3455:1 7935:1 7936:1 7937:1 7938:1 
1 1 1:1 2:1 3:16 4:0 5:1 6:5.7013 7:1 8:1 20:1 32:1 59:1 64:1 427:2 466:1 582:1 781:1 854:1 863:1 931:1 1700:1 1920:1 2776:1 5504:1 6073:1 7900:1 7939:1 7940:1 7941:1 7942:1 
1 1 1:0 2:0 3:7 4:0 5:1 6:1.6296333 7:1 14:1 20:1 25:1 53:1 59:1 931:1 2825:1 7943:1 
1 1 1:0 2:0 3:13 4:0 5:1 6:7.9795 8:2 29:1 32:2 44:1 54:1 146:1 151:1 270:1 281:1 362:1 379:1 832:1 931:1 956:1 1207:1 2270:1 2414:1 2420:1 3437:1 7730:1 7944:1 7945:1 7946:1 
1 1 1:1 2:3 3:17 4:0 5:1 6:5.4656 7:1 8:2 20:2 21:1 25:1 94:1 96:1 241:1 859:1 881:2 931:1 1587:1 2270:1 3063:1 3402:1 3763:1 5186:1 6228:1 7947:1 7948:1 
1 1 1:0 2:2 3:16 4:0 5:1 6:6.9357 7:1 8:2 25:1 27:1 29:1 54:1 88:2 141:1 707:1 822:1 875:1 931:1 948:1 951:1 964:1 970:2 990:1 2826:1 3809:1 6105:1 7949:1 
1 1 1:0 2:0 3:11 4:0 5:1 6:2.1408667 29:1 38:1 88:1 270:1 753:1 840:2 903:2 931:1 1158:1 2825:1 7950:1 7951:1 
1 1 1:0 2:1 3:10 4:0 5:1 6:6.2069 7:1 15:1 21:1 32:1 38:1 54:1 514:1 555:1 811:1 854:1 915:1 1183:1 1846:1 2307:1 3065:1 3331:1 5201:1 5690:1 7952:1 
1 1 1:0 2:1 3:9 4:0 5:1 6:6.2069 15:1 21:1 32:1 38:1 54:1 514:1 555:1 811:1 854:1 915:1 1183:1 1846:1 2307:1 3065:1 3331:1 5201:1 5690:1 7952:1 
1 1 1:0 2:0 3:6 4:0 5:1 6:3.5238 53:1 377:1 718:1 913:1 1148:1 1235:1 1649:1 1650:1 1682:1 7953:1 7954:1 
1 1 1:0 2:0 3:4 4:0 5:1 6:3.6213 15:1 25:1 53:1 108:1 379:2 649:1 931:1 934:1 935:1 
1 1 1:0 2:4 3:13 4:0 5:1 6:6.7949667 7:1 9:1 15:1 29:1 32:1 43:2 88:1 98:1 165:1 840:1 903:1 931:1 972:1 990:1 992:1 993:1 994:1 995:1 996:1 997:1 998:1 
1 1 1:2 2:2 3:14 4:0 5:1 6:7.0201 25:2 49:2 362:1 694:1 923:1 924:2 925:1 926:1 947:1 948:1 949:1 950:2 951:1 952:1 953:1 954:1 955:1 
1 1 1:0 2:0 3:9 4:0 5:1 6:4.3681 25:1 53:1 55:1 88:1 98:1 485:1 915:1 1007:1 1035:1 1073:1 2628:1 2825:1 5935:1 7955:1 
1 1 1:0 2:1 3:13 4:0 5:1 6:3.1992333 7:1 8:1 21:2 94:1 151:1 446:1 514:1 881:1 915:1 931:1 1008:1 1009:1 1038:1 2901:1 2982:1 3528:1 3707:1 
1 1 1:0 2:0 3:13 4:0 5:1 6:2.1078 7:1 9:1 25:2 38:1 165:2 931:1 935:1 1185:1 3523:1 4879:1 5821:1 7956:1 7957:1 7958:1 7959:1 
1 1 1:1 2:0 3:5 4:0 5:1 6:2.1083333 15:1 129:1 379:1 468:1 931:1 5935:1 7960:1 
1 1 1:3 2:1 3:14 4:0 5:1 6:4.4641333 15:2 21:1 51:1 53:1 76:1 87:1 288:1 822:1 915:1 1008:1 1059:1 2307:1 4847:1 7961:1 7962:1 7963:1 7964:1 
1 1 1:0 2:0 3:20 4:0 5:1 6:5.0627 7:1 8:2 20:1 25:2 59:1 63:1 70:2 79:1 88:1 147:1 824:1 915:1 924:1 931:1 960:1 1024:1 1116:1 1119:1 1120:1 1554:1 3808:1 6275:1 7965:1 7966:1 
1 1 1:0 2:2 3:7 4:0 5:1 6:5.4034333 8:2 15:1 60:1 70:1 116:1 165:1 574:1 1253:2 2798:1 3403:1 4908:1 7967:1 
1 1 1:0 2:0 3:11 4:0 5:1 6:3.5944667 7:1 8:2 14:1 21:1 43:1 54:1 88:2 379:1 876:1 956:1 1128:1 2798:1 2830:1 3523:1 7968:1 
1 1 1:0 2:0 3:5 4:0 5:1 6:1.7083333 32:2 379:1 854:1 1557:1 4772:1 7969:1 
1 1 1:1 2:0 3:7 4:0 5:1 6:1.6912333 54:1 125:1 1033:1 1059:1 1770:1 2736:1 3232:1 4049:1 4050:1 
1 1 1:0 2:0 3:7 4:0 5:1 6:1.0416667 14:1 70:1 209:1 884:1 964:1 1216:1 3301:1 5743:1 
1 1 1:0 2:0 3:13 4:0 5:1 6:5.3055333 8:1 14:1 21:1 32:1 54:2 88:1 140:1 371:1 443:1 573:1 822:1 952:1 1230:1 1625:1 1770:1 2052:1 2736:1 6685:1 8167:1 
1 1 1:0 2:2 3:13 4:0 5:1 6:4.0071333 7:1 8:1 15:1 32:1 54:1 59:1 63:1 70:1 375:1 854:1 1230:1 1427:1 1478:1 1611:1 1770:1 2736:1 5767:1 8168:1 
1 1 1:0 2:1 3:7 4:0 5:1 6:7.1115667 21:1 32:1 88:1 98:1 137:1 514:1 707:1 840:1 912:1 2011:1 2230:1 2958:1 3209:1 8169:1 8170:1 8171:1 8172:1 
1 1 1:0 2:3 3:13 4:0 5:1 6:10.482433 8:2 15:1 20:1 21:2 29:1 54:1 70:1 98:1 115:1 116:1 457:2 573:1 811:1 951:1 1223:1 1224:1 1524:1 1811:1 1926:1 2414:1 2853:1 2911:1 3204:1 4044:1 8173:1 
1 1 1:1 2:0 3:13 4:0 5:1 6:5.1247333 8:1 20:1 32:1 54:1 96:1 110:1 822:2 949:1 956:1 970:1 2412:1 2772:1 2773:1 2774:1 2888:1 2971:1 3359:1 6941:1 8174:1 
1 1 1:0 2:2 3:14 4:0 5:1 6:7.2431 7:1 25:2 29:1 32:1 165:1 204:1 318:2 707:1 764:1 822:1 970:1 1316:1 2746:1 2817:1 3916:1 4620:1 6333:1 7432:1 8175:1 8176:1 
1 1 1:1 2:2 3:8 4:0 5:1 6:4.7062333 7:1 8:1 41:1 47:1 94:1 96:1 628:1 879:1 1221:1 1300:1 1412:1 3386:1 3918:1 8177:1 
1 1 1:0 2:3 3:10 4:0 5:1 6:5.6799333 8:2 14:2 15:1 21:2 169:1 1253:1 1316:1 1837:1 2816:1 2958:1 3047:1 3061:1 3205:1 8178:1 8179:1 
1 1 1:0 2:0 3:12 4:0 5:1 6:4.3842333 8:1 15:1 29:1 32:1 44:1 649:1 854:1 1207:1 1230:1 1743:1 1826:1 2412:1 2417:1 2772:1 2773:1 2774:1 8180:1 8181:1 
1 1 1:1 2:0 3:11 4:0 5:1 6:6.2802 53:1 88:1 98:1 165:2 216:1 627:1 879:1 1577:1 2412:1 2414:1 2772:1 2773:1 2774:1 2892:1 5727:1 8182:1 8183:1 8184:1 8185:1 
1 1 1:1 2:4 3:9 4:0 5:1 6:7.6251667 8:1 20:1 25:1 53:1 59:1 70:1 165:2 1300:1 1316:1 1556:1 1837:1 1943:1 2776:1 2947:1 2958:1 3677:1 8186:1 8187:1 
1 1 1:0 2:0 3:12 4:0 5:1 6:6.3958333 7:1 21:1 43:1 54:1 63:1 88:2 96:1 98:1 165:2 443:1 457:1 811:1 854:1 1181:1 1230:1 2342:1 2414:1 2760:1 4370:1 8188:1 
1 1 1:0 2:0 3:17 4:0 5:1 6:8.0152 8:2 20:1 29:1 32:4 54:3 70:1 112:1 115:1 117:1 147:1 457:1 573:2 935:1 970:2 1770:1 2736:1 2817:1 3186:2 3893:1 8189:1 
1 1 1:0 2:1 3:6 4:0 5:1 6:3.2238 8:1 29:1 32:1 54:1 555:1 875:1 964:1 1770:1 2736:1 4007:1 
1 1 1:0 2:0 3:4 4:0 5:1 6:1.1640333 7:1 8:1 822:1 1231:1 2958:1 3359:1 
1 1 1:0 2:0 3:3 4:0 5:1 6:1.8510333 21:1 98:1 2342:1 2752:1 2760:1 2947:1 
1 1 1:0 2:1 3:9 4:0 5:1 6:6.2820333 8:1 54:1 88:1 97:1 98:1 110:1 627:1 970:1 1060:1 1148:1 1205:1 1231:1 2746:1 3817:1 3918:1 4450:1 6561:1 
1 1 1:0 2:0 3:7 4:0 5:1 6:1.5444333 7:1 53:1 126:1 920:1 1182:1 2307:1 8190:1 8191:1 
1 1 1:1 2:1 3:6 4:0 5:1 6:3.657 7:1 43:1 53:1 79:1 311:1 859:1 876:1 908:1 3959:1 8192:1 8193:1 
1 1 1:1 2:1 3:6 4:0 5:1 6:3.657 7:1 43:1 53:1 79:1 311:1 859:1 876:1 908:1 3959:1 8192:1 8193:1 
1 1 1:0 2:0 3:4 4:0 5:1 6:1.4603333 21:1 29:1 248:1 3829:1 7251:1 8194:1 
1 1 1:0 2:1 3:3 4:0 5:1 6:3.5449667 53:1 165:1 487:1 1189:1 3434:1 3763:1 3966:1 
1 1 1:0 2:0 3:15 4:0 5:1 6:0 8:2 15:2 32:1 35:1 36:1 43:1 49:1 50:1 84:1 822:1 856:1 881:1 956:1 
1 1 1:0 2:0 3:12 4:0 5:1 6:0 14:1 21:2 29:1 89:1 179:1 190:1 2888:1 2889:1 3011:1 3160:1 4440:1 
1 1 1:1 2:0 3:14 4:0 5:1 6:0 7:1 14:1 70:1 74:1 366:1 471:1 854:1 1320:1 2948:1 2949:1 2950:1 2951:1 2952:1 2953:1 
1 1 1:0 2:0 3:9 4:0 5:1 6:1 8:1 21:1 29:1 57:1 58:1 96:1 571:1 2798:1 7658:1 7659:1 
1 1 1:0 2:0 3:15 4:0 5:1 6:4.5407333 7:1 15:1 20:1 21:1 25:1 31:1 35:1 40:1 57:1 84:1 165:1 823:1 854:2 876:1 964:1 2050:1 5767:1 7660:1 7661:1 7662:1 
1 1 1:0 2:0 3:15 4:0 5:1 6:4.2890333 7:1 8:1 21:1 29:1 44:1 55:1 57:1 59:1 63:1 70:1 88:1 129:1 137:1 147:1 468:1 988:1 1235:1 1253:1 1926:1 2958:1 5767:1 
1 1 1:0 2:1 3:7 4:0 5:1 6:5.3482333 7:1 32:1 52:1 70:1 85:1 146:1 847:1 854:1 876:1 970:1 988:1 1716:1 1751:1 2048:1 3855:1 7607:1 
1 1 1:1 2:3 3:15 4:1 5:1 6:7.5136 8:1 15:1 25:1 32:1 39:1 76:1 85:1 88:1 96:1 191:1 270:1 439:1 514:1 822:2 836:1 912:1 918:1 2861:1 3100:1 3548:1 4318:1 6667:1 7663:1 7664:1 
1 1 1:0 2:2 3:8 4:0 5:1 6:3.4873333 7:1 21:1 47:1 54:1 85:1 88:1 151:1 536:1 2791:2 2816:1 3114:1 6576:1 
1 1 1:0 2:1 3:11 4:0 5:1 6:6.8784333 8:1 15:2 43:1 88:1 99:1 108:1 379:1 822:1 931:1 970:1 988:1 2769:1 2825:1 2830:1 2840:1 5302:1 6667:1 8665:1 8666:1 
1 1 1:0 2:0 3:4 4:0 5:1 6:1.7065667 15:1 53:1 198:1 931:1 2911:1 2959:1 
1 1 1:0 2:0 3:7 4:0 5:1 6:2.2555667 15:1 49:1 379:1 454:1 457:1 854:1 915:1 1274:1 2189:1 8196:1 8667:1 
1 1 1:0 2:2 3:5 4:0 5:1 6:4.7665333 7:1 8:1 25:1 204:1 876:1 1221:1 1232:1 1316:1 1589:1 2596:1 2798:1 6338:1 
1 1 1:0 2:0 3:13 4:0 5:1 6:5.4259667 7:3 21:3 59:1 85:1 823:1 876:1 1013:1 1033:3 1122:1 2873:1 4221:1 5324:1 6165:1 9222:1 9223:1 
1 1 1:0 2:1 3:10 4:0 5:1 6:4.2717 7:1 14:1 15:1 21:1 25:1 476:1 487:1 840:1 903:1 2770:1 2931:1 3432:1 6065:1 7749:1 7988:1 
1 1 1:0 2:1 3:14 4:0 5:1 6:2.6164 7:1 8:1 15:2 25:1 44:1 53:1 85:1 121:1 152:1 157:1 165:1 881:2 908:1 2786:1 2845:1 7679:1 
1 1 1:0 2:0 3:4 4:0 5:1 6:0.62963333 53:1 84:1 85:1 115:1 9224:1 
1 1 1:1 2:0 3:11 4:0 5:1 6:3.5893667 15:1 29:1 49:1 85:1 281:1 607:1 854:1 935:1 3306:1 5767:1 5786:1 5896:1 8940:1 9225:1 
1 1 1:0 2:1 3:12 4:0 5:1 6:3.6897333 8:1 15:1 25:2 38:1 43:1 57:1 85:1 88:1 318:2 356:1 377:1 2995:1 3268:1 3377:1 
1 1 1:0 2:0 3:13 4:0 5:1 6:5.0227 8:1 25:1 49:1 53:1 57:1 58:1 80:1 85:1 98:1 143:1 173:1 876:1 893:2 2420:1 2861:1 3524:1 9226:1 9227:1 
1 1 1:1 2:1 3:10 4:0 5:1 6:2.4416667 15:1 54:1 57:1 58:1 85:1 272:1 273:1 822:1 840:2 903:2 2800:1 
1 1 1:0 2:2 3:12 4:0 5:1 6:6.2512333 7:2 14:1 25:1 32:1 38:2 49:1 74:1 85:1 94:1 623:1 836:1 876:1 1387:1 3287:1 3641:1 6090:1 8497:1 9228:1 9229:1 
1 1 1:0 2:1 3:10 4:0 5:1 6:5.6305 7:1 25:1 85:1 120:1 132:1 192:1 259:1 273:1 315:1 318:1 650:2 863:1 885:1 893:1 3211:1 9230:1 
1 1 1:0 2:1 3:8 4:0 5:1 6:4.5872 21:1 29:1 55:1 57:1 85:1 94:1 173:1 315:1 487:1 649:1 879:1 1980:1 2155:1 2991:1 6239:1 
1 1 1:0 2:1 3:18 4:0 5:1 6:5.8206333 7:1 27:1 41:2 54:1 85:1 88:1 92:1 137:1 139:1 281:1 476:1 499:1 540:1 649:1 755:1 840:1 853:1 856:1 876:1 890:1 903:1 945:1 1493:1 2097:1 3688:1 
1 1 1:0 2:0 3:8 4:0 5:1 6:1.8351667 32:1 44:1 45:1 85:2 192:1 840:1 951:1 2048:1 3772:1 7788:1 
1 1 1:0 2:0 3:5 4:0 5:1 6:0.8889 57:1 514:1 673:1 2861:1 7659:1 9231:1 
1 1 1:0 2:0 3:14 4:0 5:1 6:2.8381 15:1 25:1 29:1 57:1 210:1 212:1 271:1 840:4 903:4 965:1 2959:1 7659:1 
1 1 1:1 2:0 3:12 4:0 5:1 6:1.5213667 7:1 8:1 14:1 15:1 29:1 53:1 57:1 63:1 88:1 169:1 2307:1 3577:1 9232:1 
1 1 1:0 2:1 3:11 4:0 5:1 6:2.5773667 7:1 8:1 10:1 44:1 57:1 169:1 270:1 641:1 859:1 861:1 2873:1 3801:1 7603:1 7604:1 
1 1 1:0 2:2 3:5 4:0 5:1 6:5.5175333 8:1 14:1 57:1 63:1 140:1 440:1 863:1 1230:1 1743:1 1888:1 2767:1 2896:1 7790:1 
1 1 1:0 2:2 3:6 4:0 5:1 6:2.9259333 7:1 29:1 57:1 70:1 96:1 475:1 1719:1 2825:1 3123:1 
1 1 1:1 2:0 3:11 4:0 5:1 6:2.2321333 14:1 43:1 57:1 58:1 96:1 241:1 326:1 794:1 1221:1 1577:1 2958:1 8177:1 9233:1 9234:1 
1 1 1:0 2:0 3:19 4:0 5:1 6:5.6455 7:1 8:1 14:1 15:1 21:4 53:1 54:1 57:2 70:1 88:1 91:1 108:1 212:1 379:2 589:1 854:1 881:1 2414:2 7856:1 7857:1 
1 1 1:0 2:0 3:11 4:0 5:1 6:2.6407 7:1 15:1 55:1 57:1 125:1 152:1 515:1 811:1 1356:1 1449:1 1548:1 2816:1 2866:1 8991:1 9235:1 
1 1 1:0 2:2 3:6 4:0 5:1 6:2.2952333 8:1 15:1 57:1 859:1 1963:1 2616:1 2996:1 3932:1 
1 1 1:0 2:1 3:4 4:0 5:1 6:2.1777667 35:1 57:1 96:1 701:1 822:1 7607:1 9236:1 
1 1 1:0 2:1 3:11 4:0 5:1 6:4.1652 7:2 8:1 15:1 25:1 43:1 54:1 57:1 210:1 318:1 962:1 970:1 2794:2 3268:1 
1 1 1:0 2:0 3:17 4:0 5:1 6:2.4921333 7:1 8:1 15:2 21:1 44:1 57:1 63:1 74:1 88:1 176:1 270:1 876:1 956:1 995:1 5809:1 6314:1 8045:1 8093:1 9237:1 9238:1 
1 1 1:0 2:1 3:3 4:0 5:1 6:2.0370333 21:1 53:1 134:1 885:1 2307:1 
1 1 1:0 2:2 3:15 4:0 5:1 6:2.6074 8:2 14:1 32:2 45:2 84:1 115:1 134:1 147:1 295:1 454:1 1128:1 2767:1 9239:1 9240:1 9241:1 
1 1 1:0 2:1 3:5 4:0 5:1 6:3.3366 7:1 53:1 57:1 94:1 134:1 197:1 1493:1 3734:1 3789:1 6314:1 
1 1 1:0 2:0 3:17 4:0 5:1 6:4.0747333 8:2 21:3 27:1 32:1 92:2 134:1 165:1 270:1 392:1 523:1 649:1 853:1 881:1 964:1 970:1 1557:1 3248:1 4000:1 7684:1 
1 1 1:0 2:0 3:6 4:0 5:1 6:0.375 7:1 25:1 134:1 822:1 2861:1 3499:1 
1 1 1:0 2:1 3:13 4:0 5:1 6:3.2640333 21:2 25:1 41:1 43:1 53:2 57:1 58:1 94:1 127:1 134:1 425:1 649:1 811:1 965:2 2803:1 
1 1 1:0 2:1 3:10 4:0 5:1 6:4.7877 7:1 14:1 32:1 41:1 43:1 85:1 134:1 295:1 375:1 514:1 661:1 935:1 990:1 2958:1 3558:1 4347:1 8892:1 
1 1 1:4 2:0 3:9 4:0 5:1 6:3.4135667 8:1 25:1 84:1 487:1 881:1 2781:1 3495:1 4626:1 7913:1 9242:1 9243:1 9244:1 
1 1 1:0 2:0 3:7 4:0 5:1 6:2.0648 25:1 96:1 121:1 124:1 134:1 1189:1 2863:1 9245:1 9246:1 
1 1 1:0 2:2 3:18 4:0 5:1 6:5.5241667 8:2 15:1 38:1 79:1 115:1 134:2 147:1 148:1 165:1 382:1 454:1 499:1 673:1 689:1 719:1 861:1 910:1 3625:1 4271:1 9247:3 9248:1 
1 1 1:0 2:1 3:5 4:0 5:1 6:0.83333333 8:1 14:1 63:1 89:1 4908:1 9249:1 
1 1 1:0 2:0 3:6 4:0 5:1 6:1.1629667 32:1 40:1 53:1 76:1 89:1 641:1 9250:1 9251:1 
1 1 1:0 2:0 3:17 4:0 5:1 6:5.1106 7:1 8:1 21:1 22:1 25:1 29:1 38:2 53:1 57:1 58:1 67:1 70:1 89:1 96:1 117:1 197:1 443:1 660:1 811:1 822:1 1587:1 2803:1 3418:1 9252:1 
1 1 1:0 2:0 3:13 4:0 5:1 6:6.5409667 7:1 8:2 15:1 21:2 32:1 57:1 59:1 117:1 152:1 190:1 236:1 377:1 567:1 970:2 1253:1 2870:1 2884:1 2923:1 3875:1 9253:1 
1 1 1:1 2:1 3:18 4:0 5:1 6:4.5987333 15:1 21:1 32:2 38:1 55:1 74:1 88:1 140:1 176:1 190:1 191:1 236:1 318:1 877:1 914:1 1751:1 2308:1 2605:1 7607:1 7873:1 9254:1 9255:1 
1 1 1:0 2:1 3:13 4:0 5:1 6:6.6523 8:2 15:1 25:2 38:1 43:1 54:1 76:1 89:1 148:1 318:1 371:1 641:1 854:1 970:3 1379:1 2414:1 3268:1 3523:1 5835:1 
1 1 1:0 2:0 3:15 4:0 5:1 6:5.0729333 7:1 8:1 21:1 29:1 49:1 55:1 70:1 157:1 169:1 179:1 315:1 470:1 487:1 567:1 822:1 823:1 839:1 865:1 951:1 1173:1 1485:1 2825:1 2900:1 
1 1 1:0 2:0 3:10 4:0 5:1 6:3.6008667 7:1 15:1 29:1 54:1 57:1 59:1 88:1 125:1 586:1 602:1 879:1 1229:1 2097:1 3078:1 7851:1 9256:1 
1 1 1:0 2:0 3:10 4:0 5:1 6:0 7:1 25:1 29:1 38:1 89:1 192:1 900:1 2873:1 5909:1 7381:1 
1 1 1:1 2:0 3:7 4:0 5:1 6:1.6342667 7:1 14:1 15:1 96:1 190:1 822:1 2869:1 2986:1 3359:1 
1 1 1:0 2:0 3:11 4:0 5:1 6:0.95833333 7:1 8:2 55:1 59:1 63:1 823:1 2022:1 2414:1 2882:1 2883:1 6333:1 
1 1 1:0 2:0 3:5 4:0 5:1 6:0.48146667 31:1 32:1 57:1 641:1 1354:1 
1 1 1:0 2:0 3:7 4:0 5:1 6:1.9740667 7:1 8:1 14:1 15:1 54:1 63:1 641:1 1230:1 2861:1 3749:1 
1 1 1:0 2:2 3:7 4:0 5:1 6:3.7228667 8:1 14:1 25:1 53:1 84:1 108:1 115:1 641:1 935:1 1169:1 3791:1 5693:1 
1 1 1:0 2:1 3:7 4:0 5:1 6:1.6444333 7:1 8:2 14:1 499:1 641:1 1230:1 2767:1 2814:1 
1 1 1:0 2:2 3:4 4:0 5:1 6:2.3631 44:1 85:1 94:1 115:1 641:1 914:1 9257:1 
1 1 1:0 2:1 3:17 4:0 5:1 6:3.6724333 15:2 21:1 25:1 29:1 36:1 38:1 59:1 70:1 84:1 88:1 98:1 148:1 165:1 709:2 1169:1 2596:1 3670:1 5537:1 5830:1 7639:1 
1 1 1:1 2:1 3:11 4:0 5:1 6:3.1424333 8:2 20:1 36:1 57:1 70:1 88:1 94:1 147:1 561:1 854:1 988:1 3169:1 9258:1 9259:1 
1 1 1:0 2:0 3:16 4:0 5:1 6:1.9213 7:1 8:1 88:1 89:1 147:1 190:1 192:1 381:1 487:1 516:1 2889:1 2892:1 2992:1 5727:1 6675:1 7642:1 7643:1 7644:1 7645:1 
1 1 1:1 2:0 3:11 4:0 5:1 6:3.0359 7:1 8:1 14:1 15:1 21:1 59:1 63:1 84:1 134:1 649:1 1128:1 1230:1 1743:1 1888:1 3232:1 
1 1 1:0 2:0 3:11 4:0 5:1 6:1.0666667 7:1 8:3 25:2 35:1 44:1 54:1 134:1 147:1 641:1 823:1 
1 1 1:0 2:0 3:11 4:0 5:1 6:1.6880333 7:1 8:1 55:1 121:1 134:1 147:1 157:1 1230:1 2810:1 2816:1 2853:1 2911:1 3716:1 
1 1 1:1 2:1 3:8 4:0 5:1 6:6.0726667 21:1 43:1 53:2 70:1 92:1 98:1 440:1 576:1 627:1 701:1 853:1 905:1 1811:1 2969:1 5762:1 8502:1 
1 1 1:0 2:0 3:9 4:0 5:1 6:4.2629333 7:1 21:1 43:1 49:1 53:1 54:1 66:1 92:1 98:1 189:1 1253:1 2912:1 2913:1 2914:1 2915:1 2916:1 
1 1 1:1 2:1 3:13 4:0 5:1 6:3.7776 21:3 29:1 32:1 57:1 58:1 59:1 84:1 96:1 515:1 1019:1 1198:1 2443:1 2992:1 9260:1 9261:1 
1 1 1:0 2:2 3:9 4:0 5:1 6:7.0263333 8:1 38:1 54:1 57:1 63:1 212:1 273:1 315:1 731:1 854:2 863:1 875:1 1230:1 1253:1 2943:1 2944:1 2945:1 2946:1 
1 1 1:0 2:0 3:9 4:0 5:1 6:1.4238 8:2 15:1 31:1 54:1 57:1 63:1 282:1 881:1 970:1 2744:1 
1 1 1:0 2:2 3:13 4:0 5:1 6:4.5678667 8:1 21:1 25:1 84:1 85:1 146:1 382:1 628:1 840:2 850:1 903:2 2927:1 3667:1 4053:1 8164:1 9262:1 9263:1 
1 1 1:0 2:0 3:8 4:0 5:1 6:2.3259333 14:1 15:2 54:1 87:1 641:1 1253:1 2798:1 9264:1 9265:1 9266:1 
1 1 1:1 2:3 3:14 4:0 5:1 6:5.8566667 8:2 15:1 53:1 70:1 115:1 169:1 641:2 859:2 1169:1 5922:1 9267:1 9268:1 9269:1 9270:1 9271:1 9272:1 9273:1 
1 1 1:0 2:0 3:15 4:0 5:1 6:0 8:2 15:2 32:1 35:1 36:1 43:1 49:1 50:1 84:1 822:1 856:1 881:1 956:1 
1 1 1:0 2:0 3:13 4:0 5:1 6:0 7:1 14:1 21:2 29:1 89:1 179:1 190:1 2888:1 2889:1 3011:1 3160:1 4440:1 
1 1 1:0 2:0 3:11 4:0 5:1 6:0 7:2 8:1 15:1 20:1 92:1 134:1 718:1 853:1 3723:1 4441:1 
1 1 1:0 2:0 3:9 4:0 5:1 6:0 7:1 8:1 15:1 63:1 92:1 134:1 176:1 3436:1 6673:1 
1 1 1:1 2:0 3:17 4:0 5:1 6:0 7:1 8:1 14:1 25:1 38:1 134:1 366:1 673:1 824:1 956:1 2801:1 3772:1 6259:1 6674:1 6675:1 6676:1 6677:1 
1 1 1:0 2:0 3:11 4:0 5:1 6:0 7:1 25:1 29:1 59:1 88:1 134:1 169:1 468:1 730:1 2833:1 3702:1 
1 1 1:0 2:2 3:7 4:0 5:1 6:2.3095 15:1 22:1 25:1 57:1 59:1 859:1 883:1 2308:1 2689:1 3011:1 
1 1 1:0 2:0 3:5 4:0 5:1 6:1.2777667 15:1 57:1 67:1 68:1 69:1 70:1 71:1 
1 1 1:0 2:2 3:5 4:0 5:1 6:2.2952333 8:1 15:1 33:1 57:1 94:1 970:1 2767:1 4442:1 
1 1 1:0 2:1 3:8 4:0 5:1 6:3.3869 8:1 15:1 25:1 27:1 84:1 89:1 96:1 108:1 190:1 707:1 935:1 3281:1 
1 1 1:0 2:0 3:4 4:0 5:1 6:0.57143333 29:1 59:1 85:1 822:1 2958:1 
1 1 1:1 2:0 3:6 4:0 5:1 6:1.6083333 7:1 14:1 54:1 70:1 85:1 854:1 941:1 9274:1 
1 1 1:0 2:0 3:15 4:0 5:1 6:7.0307667 8:2 15:1 21:1 32:1 43:1 88:1 134:1 165:1 318:1 567:1 811:1 854:1 863:1 947:1 970:1 1138:1 1207:1 2297:1 6746:1 9271:1 9275:1 9276:1 9277:1 
1 1 1:0 2:2 3:9 4:0 5:1 6:3.7161 9:3 15:1 25:1 89:1 98:1 190:1 191:1 910:1 3169:1 3240:1 4444:1 9278:1 
1 1 1:0 2:2 3:15 4:0 5:1 6:7.9837 7:1 8:1 20:1 25:1 32:1 38:1 49:1 50:1 70:1 85:1 165:1 192:2 272:1 371:1 586:1 665:1 811:1 890:1 893:1 1192:1 1229:1 1730:1 2097:1 2803:1 9279:1 
1 1 1:0 2:1 3:16 4:0 5:1 6:2.6342 8:3 9:1 20:1 21:1 29:1 32:1 45:1 55:1 57:2 85:1 147:1 362:1 649:1 881:1 1926:1 7790:1 9280:1 
1 1 1:0 2:1 3:8 4:0 5:1 6:1.375 8:1 9:1 15:1 38:1 51:2 57:1 850:1 854:1 935:1 
1 1 1:0 2:0 3:12 4:0 5:1 6:1.7777667 15:1 32:1 57:1 89:1 125:1 134:1 151:1 190:1 191:1 369:1 822:1 840:1 903:1 1229:1 3291:1 
1 1 1:0 2:0 3:8 4:0 5:1 6:2.1111 7:2 27:1 70:1 92:1 96:1 853:1 1320:1 1554:1 1555:1 9281:1 
1 1 1:0 2:0 3:7 4:0 5:1 6:1.0476333 15:1 29:1 43:1 134:1 147:1 2816:1 2958:1 3046:1 
1 1 1:0 2:0 3:7 4:0 5:1 6:0.5 7:1 8:1 25:1 84:1 134:1 823:1 2987:1 2988:1 
1 1 1:1 2:0 3:9 4:0 5:1 6:1.8981333 54:1 131:1 839:1 1030:1 2775:1 2821:1 3153:1 4391:1 6382:1 9282:1 
1 1 1:0 2:0 3:14 4:0 5:1 6:2.5697 7:1 8:2 25:1 32:1 59:1 70:1 88:2 146:1 147:1 152:1 1026:1 1207:1 3434:1 3679:1 8647:1 9499:1 
1 1 1:0 2:0 3:9 4:0 5:1 6:0.53333333 7:1 21:1 38:1 49:2 112:1 822:1 1274:1 3434:1 3955:1 
1 1 1:1 2:1 3:6 4:0 5:1 6:2.6435 15:1 21:1 53:1 366:1 3240:1 3434:1 3783:1 6092:1 9500:1 
1 1 1:0 2:1 3:9 4:0 5:1 6:3.3560667 7:1 8:1 15:1 20:1 21:1 32:1 565:1 859:1 1173:1 1207:1 2307:1 3434:1 5690:1 
1 1 1:0 2:0 3:6 4:0 5:1 6:0.54166667 8:1 15:1 70:1 915:1 935:1 1073:1 3827:1 
1 1 1:0 2:0 3:11 4:0 5:1 6:4.9972333 8:1 15:1 21:1 70:1 79:1 105:1 202:1 628:1 828:1 854:1 878:1 915:1 2076:1 2418:1 3474:1 5765:1 7676:1 8631:1 
1 1 1:0 2:1 3:9 4:0 5:1 6:4.6464 7:1 21:1 25:1 59:1 106:1 204:1 371:1 893:1 915:1 1846:1 2714:1 2816:1 4320:1 8742:1 9501:1 9502:1 
1 1 1:0 2:0 3:22 4:0 5:1 6:4.6657333 7:1 20:1 21:2 28:1 53:1 108:1 125:1 175:1 271:1 382:1 673:2 822:1 823:1 840:1 903:1 915:1 937:1 958:1 1007:1 2825:1 3063:1 3154:1 3468:1 3576:1 9503:1 9504:1 
1 1 1:0 2:1 3:7 4:0 5:1 6:2.7890333 7:1 8:1 121:1 143:1 709:1 822:1 872:1 915:1 1596:1 3359:1 5898:1 
1 1 1:0 2:1 3:19 4:0 5:1 6:10.1147 7:1 8:1 15:1 22:1 25:1 43:1 44:1 53:1 54:2 97:1 121:1 131:1 140:1 146:2 379:1 382:1 469:1 660:1 840:4 861:1 885:1 903:4 931:1 974:1 988:1 1557:1 5938:1 
1 1 1:0 2:1 3:7 4:0 5:1 6:2.4910333 15:1 88:1 427:1 514:1 641:1 931:1 934:1 7944:1 9505:1 9506:1 
1 1 1:0 2:0 3:4 4:0 5:1 6:1.4488 29:1 931:1 2414:1 2540:1 4007:1 
1 1 1:0 2:3 3:17 4:0 5:1 6:6.8797667 7:1 8:2 15:1 20:1 25:3 29:1 94:1 97:1 108:1 129:1 169:1 379:1 823:1 872:1 873:1 881:1 931:1 1038:1 1290:1 2790:1 2873:1 9507:1 9508:1 
1 1 1:0 2:0 3:11 4:0 5:1 6:1.8393 8:1 15:2 32:1 45:1 839:1 931:1 951:1 965:1 1002:1 2746:1 4227:1 7944:1 
1 1 1:1 2:0 3:14 4:0 5:1 6:3.4658333 7:1 8:1 15:1 20:1 25:1 91:1 376:1 514:1 931:1 1141:1 1926:1 2826:1 2835:1 3430:1 6073:1 6115:1 7873:1 9509:1 
1 1 1:0 2:0 3:8 4:0 5:1 6:3.8 7:1 8:1 20:1 25:2 97:2 931:1 1207:1 1398:1 2052:1 2596:1 3127:1 3789:1 
1 1 1:2 2:0 3:14 4:0 5:1 6:6.7292333 7:1 21:1 25:1 38:1 53:1 79:1 108:1 115:1 165:2 241:2 649:1 1013:1 1554:1 2892:1 2915:1 3219:2 3455:1 9510:1 9511:1 9512:1 9513:1 
1 1 1:0 2:0 3:9 4:0 5:1 6:0.44443333 20:1 151:1 840:1 903:1 915:1 931:2 2825:1 3423:1 
1 1 1:0 2:0 3:8 4:0 5:1 6:1.3963 7:1 8:1 21:1 53:1 121:1 649:1 824:1 931:1 1207:1 2512:1 
1 1 1:0 2:1 3:19 4:0 5:1 6:4.5926 8:3 9:1 15:1 28:1 43:1 70:1 88:1 169:1 295:1 514:1 673:2 788:1 913:1 915:1 931:1 947:1 1073:1 1230:1 1253:1 2414:1 2753:1 
1 1 1:0 2:0 3:10 4:0 5:1 6:3.2952333 25:1 70:1 76:1 108:1 115:1 379:1 468:1 878:1 931:1 1597:1 3829:1 8014:1 9514:1 9515:1 
1 1 1:1 2:0 3:5 4:0 5:1 6:5.1131 15:1 53:1 79:1 97:1 115:1 116:1 379:1 876:1 931:1 2270:1 2307:1 9516:1 
1 1 1:1 2:2 3:5 4:0 5:1 6:5.8254 7:1 103:1 146:1 186:1 788:1 850:1 872:1 988:1 1002:1 1888:1 4595:1 6051:1 6052:1 
1 1 1:0 2:0 3:7 4:0 5:1 6:2.1699333 8:1 15:1 107:1 753:1 931:1 3789:1 6314:1 6651:1 9517:1 9518:1 
1 1 1:0 2:1 3:18 4:0 5:1 6:6.2474667 8:1 9:1 14:1 15:1 21:1 25:1 27:1 32:1 53:1 70:1 88:1 98:1 151:1 250:1 468:1 876:1 881:1 931:1 953:1 1002:1 1075:1 1557:1 2838:1 3065:1 4770:1 4771:1 4772:1 
1 1 1:0 2:0 3:3 4:0 5:1 6:1.625 29:1 270:1 514:1 2825:1 3883:1 
1 1 1:0 2:0 3:7 4:0 5:1 6:2.2555667 15:1 49:1 379:1 454:1 457:1 854:1 915:1 1274:1 2189:1 8196:1 8667:1 
1 1 1:0 2:0 3:4 4:0 5:1 6:0.5238 8:1 9:1 15:1 861:1 931:1 
1 1 1:1 2:0 3:7 4:0 5:1 6:3.2569667 15:2 379:1 514:1 627:1 649:1 822:1 966:1 3497:1 4443:1 7577:1 9519:1 
1 1 1:0 2:1 3:4 4:0 5:1 6:1.4318333 8:1 15:1 379:1 649:1 881:1 3268:1 
1 1 1:0 2:1 3:5 4:0 5:1 6:2.9226 15:1 43:1 51:1 234:1 379:1 859:1 2816:1 2992:1 9520:1 
1 1 1:1 2:2 3:5 4:0 5:1 6:2.6973333 7:1 8:1 14:1 379:1 1232:1 1556:1 2787:1 2798:1 
1 1 1:1 2:0 3:4 4:0 5:1 6:2.7678667 15:1 88:1 379:1 970:1 1182:1 2418:1 9521:1 9522:1 
1 1 1:0 2:1 3:4 4:0 5:1 6:3.0227333 54:1 859:1 893:1 1770:1 2736:1 2821:1 3359:1 
1 1 1:0 2:0 3:13 4:0 5:1 6:5.3055333 8:1 14:1 21:1 32:1 54:2 88:1 140:1 371:1 443:1 573:1 822:1 952:1 1230:1 1625:1 1770:1 2052:1 2736:1 6685:1 8167:1 
1 1 1:0 2:2 3:9 4:0 5:1 6:5.7485333 7:1 8:1 21:1 38:1 54:1 70:1 151:1 313:1 475:1 859:1 970:1 1209:1 1231:1 2958:1 3700:1 3940:1 3941:1 
1 1 1:0 2:1 3:12 4:0 5:1 6:9.0438667 8:2 14:1 21:1 25:1 53:1 70:1 529:1 573:1 810:1 811:1 832:1 854:1 876:1 893:1 1223:2 1224:1 1290:1 1316:1 1861:1 2525:1 3241:1 9636:1 9637:1 
1 1 1:1 2:4 3:12 4:0 5:1 6:7.6742 8:1 27:1 76:1 673:2 689:1 822:1 823:1 842:1 872:1 1221:1 1316:1 2412:1 2772:1 2773:1 2774:1 2930:1 3418:1 6365:1 9638:1 9639:1 9640:1 
1 1 1:0 2:0 3:13 4:0 5:1 6:4.5226333 7:1 8:2 9:1 27:1 28:1 54:4 70:1 112:1 146:1 660:1 822:1 854:1 956:1 2270:1 2685:1 9641:1 
1 1 1:2 2:0 3:11 4:0 5:1 6:3.5785667 7:2 54:1 59:1 63:1 822:2 1221:1 1290:1 2744:1 2855:1 4201:1 9641:1 9642:2 
1 1 1:2 2:1 3:8 4:0 5:1 6:3.9733333 25:1 29:1 63:1 88:1 446:1 468:1 889:1 3142:1 3406:1 3901:1 9643:1 9644:1 9645:1 
1 1 1:0 2:2 3:9 4:0 5:1 6:8.7082 8:1 21:2 29:1 32:1 43:1 53:1 98:1 129:2 573:1 694:1 966:1 1649:1 2359:1 2761:1 2768:1 3918:1 5302:1 9646:1 9647:1 
1 1 1:0 2:0 3:6 4:0 5:1 6:3.7176 21:1 32:1 43:1 52:1 146:1 270:1 555:1 1231:1 3359:1 5362:1 5684:1 5994:1 
1 1 1:1 2:0 3:7 4:0 5:1 6:3.1460333 8:1 43:1 53:1 54:1 121:1 523:1 567:1 1770:1 2414:1 2736:1 9648:1 
1 1 1:0 2:1 3:18 4:0 5:1 6:3.5407667 7:1 8:2 25:1 43:1 52:4 54:1 70:1 96:1 822:1 1164:1 1232:1 1373:1 1770:1 2676:1 2736:1 2752:1 2798:1 2873:1 2947:1 
1 1 1:0 2:3 3:15 4:0 5:1 6:6.4719333 8:4 21:1 27:1 54:1 88:1 94:1 98:1 117:1 147:1 234:1 875:1 956:1 1232:1 1372:1 2412:1 2752:1 2772:1 2773:1 2774:1 2947:1 9649:1 
1 1 1:0 2:0 3:6 4:0 5:1 6:2.5767333 8:1 21:1 117:1 2412:1 2628:1 2752:1 2772:1 2773:1 2774:1 2947:1 
1 1 1:0 2:3 3:15 4:0 5:1 6:5.7042333 8:1 14:1 15:1 21:1 25:2 70:2 91:1 189:1 567:1 875:1 901:1 1197:1 1204:1 1262:1 1512:1 1837:1 2596:1 2776:1 6280:1 8481:1 9650:1 
1 1 1:0 2:1 3:15 4:0 5:1 6:4.7103667 7:1 8:2 49:1 52:1 63:1 88:1 137:1 370:1 523:1 876:1 1061:1 1231:1 1700:1 2744:1 2752:1 2947:1 3073:1 9651:1 9652:1 9653:1 9654:1 
1 1 1:0 2:0 3:10 4:0 5:1 6:3.1496 7:1 8:1 21:2 32:1 53:1 54:1 98:1 147:1 1260:1 3313:1 3947:1 3948:1 3949:1 
1 1 1:0 2:0 3:9 4:0 5:1 6:3.4202 8:1 32:2 54:1 63:1 147:1 1230:1 1412:1 1770:1 2672:1 2736:1 2744:1 2863:1 2866:1 
1 1 1:1 2:2 3:11 4:0 5:1 6:5.6976333 7:1 8:1 15:1 27:1 29:1 129:1 949:1 970:1 1231:1 1232:1 1966:1 2048:1 2706:1 2861:1 3009:1 3789:1 3792:1 9655:1 9656:1 
1 1 1:0 2:0 3:8 4:0 5:1 6:3.2205 8:1 14:1 21:1 32:1 44:1 117:1 870:1 881:1 1120:1 1231:1 1943:1 2947:1 3582:1 
1 1 1:0 2:0 3:7 4:0 5:1 6:3.3371333 21:3 32:1 98:1 112:1 117:1 169:1 573:1 1861:1 2342:1 2760:1 
1 1 1:0 2:0 3:12 4:0 5:1 6:2.7815667 8:1 21:1 32:1 38:1 63:1 98:1 573:1 1235:1 2052:1 2342:1 2760:1 3394:1 5985:1 9657:1 9658:1 9659:1 
1 1 1:0 2:1 3:5 4:0 5:1 6:2.7344 25:1 53:1 454:1 1316:1 2412:1 2772:1 2773:1 2774:1 2838:1 
1 1 1:0 2:1 3:16 4:0 5:1 6:4.5442667 7:1 8:3 9:1 21:1 32:1 34:1 43:1 98:1 115:1 528:1 665:1 822:1 1205:1 1207:1 1230:1 1524:1 3918:1 3955:1 3956:1 3957:1 
1 1 1:0 2:1 3:3 4:0 5:1 6:1.8995 15:1 53:1 485:1 1216:1 1598:1 
1 1 1:0 2:1 3:7 4:0 5:1 6:5.6057 8:1 29:1 32:1 43:1 53:1 54:1 70:1 270:1 297:1 881:1 1230:1 1837:1 1888:1 2776:1 6327:1 
1 1 1:1 2:0 3:6 4:0 5:1 6:3.3129667 28:1 29:1 53:1 54:1 127:1 311:1 573:1 811:1 3261:1 3959:1 9660:1 
1 1 1:0 2:0 3:11 4:0 5:1 6:2.9624 21:1 25:1 43:1 88:1 920:1 970:2 1182:1 2307:1 2817:1 5719:1 6740:1 9661:1 
1 1 1:0 2:0 3:16 4:0 5:1 6:6.0593 7:1 25:1 27:1 29:1 49:1 54:2 70:1 88:1 96:1 151:1 212:1 427:1 790:1 854:1 970:1 1449:1 2855:1 2991:1 3533:1 4052:1 9179:1 9662:1 9663:1 9664:1 9665:1 
1 1 1:0 2:0 3:13 4:0 5:1 6:5.4979 7:1 8:1 10:1 14:1 53:1 54:1 88:1 165:1 248:1 273:1 487:1 567:1 837:1 2320:1 2926:1 3434:1 3966:1 5384:1 9666:1 9667:1 9668:1 
1 1 1:1 2:3 3:10 4:0 5:1 6:5.8108 32:1 37:1 53:1 304:1 439:1 890:1 1316:1 4318:1 4608:1 4898:1 6338:1 9669:1 9670:1 9671:1 9672:1 9673:1 9674:1 
1 1 1:0 2:2 3:5 4:0 5:1 6:4.7665333 7:1 8:1 25:1 204:1 876:1 1221:1 1232:1 1316:1 1589:1 2596:1 2798:1 6338:1 
-0.8632199811214998 1 1:0 2:2 3:14 4:0 5:1 6:10.521433 14:1 20:1 21:2 25:2 38:1 53:1 54:1 92:1 93:1 94:2 95:1 96:1 97:1 98:1 99:1 100:1 101:1 102:1 103:2 104:2 105:1 106:1 107:1 
-1 1 1:1 2:1 3:6 4:1 5:0 6:3.7732333 53:1 54:1 121:1 122:1 123:1 124:1 125:1 126:1 127:1 128:1 129:1 
-0 1 1:0 2:1 3:10 4:1 5:0 6:5.6328 7:3 25:1 32:1 41:1 49:1 54:1 137:1 138:1 139:1 140:1 141:1 142:1 143:1 144:1 145:1 146:1 147:1 
-1 0 1:0 2:0 3:11 4:0 5:1 6:1.2963 14:2 15:1 32:1 57:1 85:1 89:1 147:1 148:1 149:1 150:1 151:1 152:1 
-0 1 1:0 2:0 3:5 4:0 5:1 6:1.5084 57:1 98:1 197:1 218:1 219:1 220:1 
-0 1 1:0 2:2 3:4 4:0 5:1 6:2.3629667 14:1 57:1 241:1 242:1 243:1 244:1 245:1 
-0 1 1:0 2:2 3:4 4:0 5:1 6:2.3629667 14:1 57:1 241:1 242:1 243:1 244:1 245:1 
-0 1 1:0 2:1 3:3 4:0 5:1 6:2.8412667 57:1 246:1 247:1 248:1 249:1 250:1 251:1 
-0 1 1:0 2:1 3:9 4:0 5:1 6:2.7916667 7:6 157:1 158:1 270:1 271:1 272:1 273:1 274:1 
-1 1 1:0 2:0 3:7 4:0 5:1 6:0.62963333 25:1 53:1 70:1 158:1 275:1 276:1 277:1 278:1 
-0 1 1:0 2:1 3:5 4:0 5:1 6:2.1825333 14:1 57:1 143:1 251:1 284:1 285:1 286:1 287:1 
-0 1 1:0 2:3 3:7 4:0 5:1 6:3.9127 34:1 57:2 58:1 165:1 288:2 289:1 290:1 291:1 292:1 293:1 
-1 1 1:0 2:1 3:9 4:0 5:1 6:4.5741 20:1 21:1 32:1 34:1 53:1 57:1 63:1 117:1 129:1 157:1 294:1 295:1 296:1 297:1 298:1 
-1 0 1:1 2:0 3:4 4:0 5:1 6:2.2727333 34:1 53:1 57:1 207:1 299:1 300:1 301:1 
-0 1 1:0 2:2 3:10 4:0 5:1 6:3.4314667 115:1 158:1 266:1 269:1 307:1 308:1 309:1 310:1 311:1 312:1 313:1 314:1 315:1 316:1 
-0 1 1:0 2:1 3:9 4:0 5:1 6:1.6666667 32:1 34:1 41:1 57:1 58:1 288:1 289:1 322:1 323:1 324:1 325:1 
-0.3267012139870981 1 1:0 2:0 3:4 4:0 5:1 6:4.1116 25:1 53:1 57:1 98:1 246:1 338:1 339:1 340:1 341:1 342:1 
-0 1 1:0 2:2 3:9 4:0 5:1 6:2.7857333 20:1 34:1 52:1 57:1 74:1 96:1 173:1 345:1 360:1 361:1 362:1 363:1 364:1 
-0 1 1:0 2:1 3:3 4:0 5:1 6:4.373 57:1 212:1 246:1 365:1 366:1 367:1 368:1 369:1 370:1 371:1 
-0 1 1:0 2:1 3:7 4:0 5:1 6:1.3095333 34:1 57:1 79:1 88:1 161:1 352:1 361:1 372:1 373:1 
-0 1 1:0 2:0 3:6 4:0 5:1 6:1.2546333 21:1 25:1 34:1 53:1 57:1 270:1 373:1 378:1 
-0.4309500543375479 0 1:0 2:0 3:8 4:0 5:1 6:1.1389 34:1 57:1 85:1 97:1 197:1 229:1 291:1 379:1 380:1 381:1 
-0 1 1:0 2:1 3:8 4:0 5:1 6:1.9904667 32:1 57:1 143:1 266:1 269:1 382:1 383:1 384:1 385:1 386:1 
-1 1 1:1 2:1 3:9 4:0 5:1 6:4.0991667 20:1 23:1 34:1 53:1 54:1 92:1 96:1 392:1 393:1 394:1 395:1 396:1 397:1 398:1 
-0 1 1:0 2:2 3:3 4:0 5:1 6:3.4722333 57:1 165:1 197:1 321:1 361:1 413:1 414:1 415:1 
-0 1 1:0 2:0 3:4 4:0 5:1 6:1.7083333 79:1 96:1 161:1 214:1 416:1 417:1 418:1 
-1 0 1:1 2:0 3:7 4:0 5:1 6:2.3191667 34:1 57:1 70:1 165:1 419:1 420:1 421:1 422:1 423:1 
-0 0.09200208823901214 1:0 2:1 3:9 4:0 5:1 6:1.9651 21:1 34:1 49:1 57:1 74:1 296:1 431:1 432:1 433:1 434:1 435:1 
-0 1 1:0 2:1 3:7 4:0 5:1 6:0.96296667 34:1 57:1 244:1 451:1 452:1 453:1 454:1 455:1 
-0 1 1:0 2:5 3:5 4:0 5:1 6:6.4960333 32:1 34:1 57:1 74:1 76:1 108:1 473:1 474:1 475:1 476:1 477:1 478:1 479:1 
-0 0.2550672946953018 1:0 2:0 3:5 4:0 5:1 6:2.2916667 21:1 88:1 155:1 158:1 480:1 481:1 482:1 483:1 484:1 
-0.4387711973420365 0 1:0 2:0 3:19 4:0 5:1 6:0.66666667 21:1 34:1 57:1 58:2 88:3 125:1 158:1 175:1 179:1 429:1 490:1 491:1 492:1 493:1 494:1 495:1 496:1 
-1 1 1:0 2:0 3:9 4:0 5:1 6:0 8:1 34:1 57:1 70:1 92:1 125:1 392:1 497:1 498:1 
-1 1 1:0 2:1 3:9 4:0 5:1 6:2.3259333 32:1 34:1 57:1 63:1 110:1 173:1 219:1 533:1 534:1 535:1 536:1 
-0 1 1:0 2:2 3:14 4:0 5:1 6:1.7416667 21:1 34:1 57:1 58:1 88:1 141:1 158:1 175:1 176:1 196:1 429:1 490:1 491:1 527:1 551:1 563:1 
-0 1 1:0 2:0 3:5 4:0 5:1 6:2 32:2 158:1 480:1 481:1 564:1 565:1 566:1 
-0.3594271463930153 0 1:0 2:0 3:27 4:0 5:1 6:0 21:1 34:1 57:1 58:4 158:1 175:2 177:1 179:1 196:1 266:1 269:1 386:1 425:1 426:1 427:1 429:1 492:1 493:1 494:1 575:1 576:1 577:2 
-0 1 1:0 2:3 3:5 4:0 5:1 6:5.0946333 49:1 57:1 88:1 246:1 431:1 475:1 578:1 579:1 580:1 581:1 582:1 
-0.4406068325678654 0 1:0 2:1 3:8 4:0 5:1 6:4.1806 29:1 34:1 52:1 57:1 58:1 165:1 232:1 292:1 534:1 537:1 597:1 598:1 599:1 
-0 1 1:0 2:0 3:5 4:0 5:1 6:1.7714333 25:1 32:1 45:1 57:1 143:1 620:1 621:1 622:1 
-0 1 1:0 2:1 3:7 4:0 5:1 6:1.4047667 32:1 57:1 143:1 241:1 266:1 269:1 386:1 639:1 640:1 
-1 0 1:0 2:0 3:6 4:0 5:1 6:3.6303667 34:1 57:1 88:1 229:1 232:1 377:1 461:1 462:1 463:1 641:1 642:1 
-0 1 1:0 2:0 3:5 4:0 5:1 6:1.9444333 32:1 41:1 57:1 140:1 214:1 661:1 662:1 663:1 
-0 1 1:0 2:1 3:5 4:0 5:1 6:2.4523667 57:1 246:1 341:1 666:1 667:1 668:1 669:1 670:1 
-0 1 1:0 2:2 3:7 4:0 5:1 6:2.8802667 21:2 38:1 57:1 70:1 143:1 439:1 682:1 683:1 684:1 685:1 
-0 1 1:0 2:2 3:6 4:0 5:1 6:2.9571333 34:1 57:1 165:1 641:1 687:1 688:1 689:1 690:1 691:1 692:1 
-0 1 1:0 2:3 3:4 4:0 5:1 6:4.8755333 34:1 57:1 154:1 317:1 326:1 361:1 439:1 693:1 694:1 695:1 
-1 1 1:0 2:0 3:7 4:0 5:1 6:1.1111 43:1 57:1 88:1 198:1 682:1 699:1 700:1 701:1 702:1 
-1 0 1:0 2:0 3:7 4:0 5:1 6:0.5238 34:1 57:1 165:1 326:1 560:1 641:1 703:1 704:1 
-1 0 1:0 2:0 3:10 4:0 5:1 6:3.1153333 34:1 53:1 57:1 165:1 382:1 641:1 704:1 705:1 706:1 707:1 708:1 709:1 710:1 
-0 1 1:0 2:1 3:7 4:0 5:1 6:3.0116333 70:1 75:1 158:1 175:1 236:1 255:1 259:1 487:1 718:1 719:1 720:1 
-1 0 1:0 2:0 3:5 4:0 5:1 6:0.7 14:1 57:1 87:1 661:1 728:1 729:1 
-0 1 1:0 2:0 3:6 4:0 5:1 6:1.4867667 158:1 468:1 559:1 762:1 763:1 764:1 765:1 766:1 
-1 1 1:0 2:0 3:4 4:0 5:1 6:1.1534333 53:1 57:1 165:1 777:1 778:1 779:1 
-1 1 1:0 2:0 3:7 4:0 5:1 6:0.66666667 25:1 57:1 153:1 399:1 676:1 800:1 801:1 802:1 
-1 1 1:0 2:0 3:8 4:0 5:1 6:4.3797667 7:1 15:1 25:1 38:1 54:1 79:1 108:1 112:1 753:1 931:1 960:1 961:1 962:1 963:1 
-1 1 1:0 2:2 3:9 4:1 5:0 6:4.7583333 7:1 15:2 31:1 38:1 76:1 88:1 379:1 468:1 915:1 964:1 965:1 966:1 967:1 968:1 969:1 
-0 1 1:0 2:2 3:12 4:1 5:0 6:4.5878333 7:1 15:1 21:1 32:1 37:1 43:1 49:1 52:1 54:1 59:1 915:1 970:1 971:1 972:1 973:1 974:1 975:1 976:1 977:1 
-1 1 1:0 2:2 3:4 4:1 5:0 6:1.8426 15:1 872:1 885:1 978:1 979:1 980:1 
-1 1 1:1 2:1 3:7 4:0 5:1 6:2.3512 7:1 14:1 15:1 54:1 140:1 931:1 981:1 982:1 983:1 984:1 
-1 1 1:0 2:0 3:13 4:1 5:0 6:4.6506667 7:1 8:1 20:1 21:1 25:1 70:1 91:1 105:1 165:1 342:1 379:1 738:1 950:1 985:1 986:1 987:1 988:1 989:1 990:1 991:1 
-1 1 1:0 2:4 3:12 4:0 5:1 6:6.7949667 7:1 9:1 15:1 29:1 32:1 43:2 52:1 88:1 98:1 165:1 931:1 972:1 990:1 992:1 993:1 994:1 995:1 996:1 997:1 998:1 
-0 1 1:0 2:0 3:8 4:0 5:1 6:0.72223333 58:1 175:1 408:1 626:1 649:1 915:1 999:1 1000:1 1001:1 
-0 1 1:0 2:0 3:3 4:0 5:1 6:1.9047667 108:1 379:1 753:1 915:1 1002:1 1003:1 
-0 1 1:0 2:0 3:5 4:0 5:1 6:0.70833333 153:1 939:1 1004:1 1005:1 1006:1 1007:1 
-0 1 1:0 2:0 3:7 4:0 5:1 6:1.5989 25:1 58:1 79:1 169:1 607:1 1019:1 1020:1 1021:1 1022:1 
-1 1 1:0 2:0 3:8 4:0 5:1 6:1.7857 379:1 577:1 822:1 915:1 953:1 1008:1 1009:1 1023:1 1024:1 1025:1 1026:1 
-0.6832873411784481 0 1:0 2:0 3:5 4:0 5:1 6:2.2830667 79:1 487:1 719:1 822:1 877:1 915:1 1027:1 1028:1 1029:1 
-0 1 1:0 2:0 3:4 4:0 5:1 6:1.9027667 95:1 108:1 660:1 1030:1 1031:1 1032:1 
-0 1 1:0 2:0 3:5 4:0 5:1 6:1.3690333 108:1 576:1 1023:1 1040:1 1041:1 1042:1 1043:1 
-0 1 1:0 2:2 3:6 4:0 5:1 6:3.6583333 70:1 694:1 797:1 1044:1 1045:1 1046:1 1047:1 1048:1 1049:1 1050:1 1051:1 
-0 1 1:0 2:0 3:2 4:0 5:1 6:2.7460333 25:1 108:1 165:1 1059:1 1060:1 1061:1 
-0 1 1:0 2:0 3:7 4:0 5:1 6:1.8260667 53:1 193:1 576:1 626:1 753:1 915:1 937:1 1056:1 1058:1 1062:1 
-0 1 1:0 2:0 3:5 4:0 5:1 6:1.7619 356:1 733:1 915:1 1008:1 1063:1 1064:1 1065:1 
-0 1 1:0 2:0 3:2 4:0 5:1 6:4.6964333 21:1 32:1 108:1 379:1 748:1 753:1 1066:1 1067:1 1068:1 
-0 1 1:0 2:1 3:8 4:0 5:1 6:3.1309667 58:1 79:1 88:1 126:1 169:1 379:1 607:1 876:1 979:1 1072:1 1073:1 1074:1 
-0 1 1:0 2:1 3:5 4:0 5:1 6:2.0416667 915:1 1008:1 1080:1 1081:1 1082:1 1083:1 1084:1 1085:1 
-0 1 1:0 2:1 3:5 4:0 5:1 6:2.0416667 915:1 1008:1 1080:1 1081:1 1082:1 1083:1 1084:1 1085:1 
-1 1 1:0 2:0 3:8 4:0 5:1 6:1.3518667 53:1 408:1 493:1 649:1 915:1 1008:1 1012:1 1017:1 1077:1 1086:1 
-0 1 1:0 2:0 3:5 4:0 5:1 6:2.9583333 95:1 174:1 379:1 660:1 1016:1 1030:1 1089:1 1090:1 1091:1 
-0 1 1:0 2:1 3:9 4:0 5:1 6:2.0952667 21:1 58:1 576:1 753:1 915:1 937:1 1033:1 1036:1 1092:1 1093:1 1094:1 1095:1 
-0 1 1:0 2:0 3:6 4:0 5:1 6:2.0185333 21:1 53:1 408:1 649:1 915:1 1008:1 1077:1 1096:1 1097:1 
-0 1 1:0 2:1 3:6 4:0 5:1 6:2.0555667 49:1 146:1 295:1 915:1 1030:1 1098:1 1099:1 1100:1 1101:1 
-0 1 1:0 2:0 3:6 4:0 5:1 6:0.98333333 915:1 1002:1 1008:1 1108:1 1109:1 1110:1 1111:1 
-0 1 1:0 2:0 3:7 4:0 5:1 6:2.5403667 53:1 125:1 193:1 753:1 877:1 915:1 937:1 1033:1 1035:1 1036:1 1113:1 
-0 0.5735741555273084 1:0 2:0 3:8 4:0 5:1 6:1.1904667 88:1 753:1 915:1 1035:1 1052:1 1053:1 1103:1 1112:1 1114:1 1115:1 
-0 1 1:0 2:1 3:2 4:0 5:1 6:5.0681333 70:1 315:1 681:1 990:1 1088:1 1116:1 1117:1 1118:1 1119:1 1120:1 
-1 0 1:0 2:0 3:11 4:0 5:1 6:2.1944667 58:1 88:1 125:2 176:1 379:1 408:1 427:1 514:1 649:1 1121:2 1122:1 1123:1 
-0 1 1:0 2:0 3:2 4:0 5:1 6:2.2804333 586:1 602:1 1088:1 1141:1 1142:1 
-0 1 1:0 2:0 3:8 4:0 5:1 6:0 175:1 493:1 552:1 626:1 915:1 1008:1 1012:1 1149:1 
-0 1 1:0 2:2 3:6 4:0 5:1 6:3.0841333 88:1 409:1 770:1 1081:1 1084:1 1085:1 1152:1 1153:1 1154:1 1155:1 
-0 0.0512621803037507 1:0 2:0 3:7 4:0 5:1 6:2.6018667 53:1 408:1 577:1 915:1 1002:1 1008:1 1009:1 1010:1 1011:1 1096:1 1097:1 
-0 1 1:0 2:0 3:4 4:0 5:1 6:1.125 193:1 915:1 1103:1 1156:1 1157:1 1158:1 
-0 1 1:0 2:0 3:5 4:0 5:1 6:1.3333333 88:1 488:1 527:1 574:1 915:1 1085:1 1159:1 
-0 1 1:0 2:2 3:7 4:0 5:1 6:4.3432333 88:1 165:1 788:1 991:1 1064:2 1129:2 1132:1 1160:1 1161:1 1162:1 1163:1 
-0 1 1:0 2:0 3:5 4:1 5:0 6:1.3838333 7:1 21:1 32:1 1216:1 1217:1 1218:1 1219:1 
-0 1 1:0 2:0 3:8 4:1 5:0 6:2.4716 8:1 21:1 38:1 59:1 270:1 1220:1 1221:1 1222:1 1223:1 1224:1 1225:1 
-0 1 1:0 2:0 3:10 4:1 5:0 6:1.5476333 14:1 15:1 21:1 427:1 485:1 589:1 1223:1 1224:1 1226:1 1227:1 1228:1 
-0 1 1:0 2:1 3:3 4:1 5:0 6:3 204:1 443:1 1148:1 1229:1 1230:1 1231:1 1232:1 
-1 1 1:0 2:1 3:11 4:0 5:1 6:5.1683333 8:1 14:1 21:1 32:1 38:1 53:1 54:1 88:1 98:1 165:1 216:1 443:1 573:1 854:1 935:1 1169:1 1233:1 1234:1 1235:1 
-0 1 1:0 2:2 3:9 4:0 5:1 6:7.4016667 21:3 53:1 55:1 96:1 98:1 108:1 165:1 542:1 576:1 720:1 1038:1 1197:1 1260:1 1261:1 1262:1 1263:1 1264:1 1265:1 
-0 0.1177146748749849 1:0 2:1 3:9 4:0 5:1 6:8.5265667 21:1 25:1 49:1 52:1 54:1 76:1 79:1 115:1 143:1 151:1 523:1 786:1 876:1 970:1 1143:1 1316:1 1317:1 1318:1 1319:1 1320:1 1321:1 1322:1 
-0 0.7625308713090397 1:0 2:1 3:5 4:0 5:1 6:5.3696667 25:1 70:1 98:1 115:1 910:1 967:1 1337:1 1338:1 1339:1 1340:1 1341:1 1342:1 1343:1 
-0 1 1:0 2:1 3:5 4:0 5:1 6:4.3414 37:1 129:1 514:1 650:1 1203:1 1366:1 1367:1 1368:1 1369:1 1370:1 1371:1 
-0 1 1:0 2:2 3:10 4:0 5:1 6:6.7654 21:2 25:1 70:1 83:1 98:2 115:1 169:1 243:1 294:1 427:1 519:1 951:1 957:1 1316:1 1398:1 1399:1 1400:1 1401:1 
-0 1 1:0 2:2 3:5 4:0 5:1 6:3.2278 7:1 32:1 49:1 362:1 694:1 866:1 1410:1 1411:1 1412:1 
-1 0 1:0 2:1 3:9 4:0 5:1 6:7.0311 14:1 20:1 21:1 25:1 32:1 35:1 107:1 115:1 243:1 248:1 341:1 673:1 811:1 970:2 1007:1 1253:1 1413:1 1414:1 1415:1 
-0 1 1:0 2:3 3:6 4:0 5:1 6:7.7391333 25:1 31:1 79:1 98:1 165:2 271:1 294:2 949:1 970:1 1236:1 1423:1 1424:1 1425:1 1426:1 1427:1 1428:1 
-0 1 1:0 2:1 3:6 4:0 5:1 6:3.5807 7:1 32:1 53:1 294:1 1203:1 1406:1 1444:1 1445:1 1446:1 1447:1 1448:1 
-0 1 1:0 2:2 3:8 4:0 5:1 6:4.0666667 21:1 38:1 70:1 94:1 694:1 863:1 1236:1 1453:1 1454:1 1455:1 1456:1 1457:1 1458:1 
-0 1 1:0 2:1 3:10 4:0 5:1 6:2.9537 25:1 38:1 53:1 414:1 1467:1 1468:1 1469:1 1470:1 1471:1 1472:1 1473:1 1474:1 1475:1 1476:1 
-0 1 1:0 2:2 3:12 4:0 5:1 6:5.1796333 7:1 14:1 21:1 38:1 54:1 70:1 137:1 158:1 169:1 171:1 315:1 444:1 626:1 649:1 822:1 901:1 1300:1 1510:1 1511:1 
-0.5589420014161828 0 1:0 2:0 3:8 4:0 5:1 6:3.0241667 21:1 88:1 115:1 129:1 970:1 1512:1 1513:1 1514:1 1515:1 1516:1 1517:1 1518:1 1519:1 
-0 1 1:0 2:2 3:11 4:0 5:1 6:6.1909333 14:1 21:2 70:1 98:2 371:1 377:1 655:1 698:1 1169:1 1311:1 1521:1 1541:1 1542:1 1543:1 1544:1 1545:1 1546:1 1547:1 
-0 1 1:0 2:3 3:12 4:0 5:1 6:6.3393333 21:2 25:1 83:1 98:1 115:1 439:1 673:1 1275:1 1350:1 1354:1 1592:1 1593:1 1594:1 1595:1 1596:1 1597:1 1598:1 1599:1 
-0 1 1:0 2:2 3:10 4:0 5:1 6:2.6797667 21:2 83:1 88:1 396:1 1604:1 1605:1 1606:1 1607:1 1608:1 1609:1 1610:1 1611:1 
-0 1 1:0 2:2 3:8 4:0 5:1 6:2.2083333 21:1 79:1 88:1 1609:1 1610:1 1611:1 1612:1 1613:1 1614:1 1615:1 1616:1 
-0 1 1:0 2:1 3:6 4:0 5:1 6:3.4444333 79:1 80:1 88:1 137:1 1617:1 1618:1 1619:1 1620:1 1621:1 1622:1 1623:1 
-0 1 1:0 2:2 3:10 4:0 5:1 6:5.3654 21:1 98:1 439:1 891:1 949:1 1624:1 1625:1 1626:1 1627:1 1628:1 1629:1 1630:1 1631:1 1632:1 1633:1 1634:1 1635:1 
-0 1 1:0 2:2 3:7 4:0 5:1 6:4.1679333 21:1 342:1 439:1 574:1 949:1 1533:2 1624:1 1625:1 1636:1 1637:1 1638:1 
-0 1 1:0 2:1 3:5 4:0 5:1 6:2.0389667 165:1 439:1 1514:1 1624:1 1639:1 1640:1 1641:1 1642:1 
-0 1 1:0 2:1 3:4 4:0 5:1 6:2.8596 21:1 439:1 566:1 1291:1 1624:1 1643:1 1644:1 1645:1 
-0.0730724011746348 1 1:0 2:0 3:13 4:0 5:1 6:5.6142667 7:1 19:1 20:1 21:2 25:1 32:1 54:3 112:1 204:1 468:1 484:1 567:1 956:1 970:1 1274:1 1646:1 1647:1 1648:1 1649:1 1650:1 
-0 1 1:0 2:2 3:7 4:0 5:1 6:4.7592 21:1 165:1 439:1 1021:1 1064:1 1624:1 1651:1 1659:1 1660:1 1661:1 1662:1 1663:1 1664:1 
-0 1 1:0 2:1 3:10 4:0 5:1 6:2.0866 14:1 21:1 88:1 103:1 439:1 1241:1 1514:1 1665:1 1666:1 1667:1 1668:1 1669:1 1670:1 
-0 1 1:0 2:1 3:8 4:0 5:1 6:4.8611 7:1 38:1 41:1 54:1 140:1 281:1 988:1 1671:1 1672:1 1673:1 1674:1 1675:1 1676:1 1677:1 1678:1 
-0 1 1:0 2:3 3:8 4:0 5:1 6:7.2548333 21:2 70:1 79:1 88:1 377:1 439:1 860:1 970:1 1256:1 1291:1 1340:1 1557:1 1624:1 1679:1 1680:1 1681:1 1682:1 1683:1 
-0 1 1:0 2:3 3:8 4:0 5:1 6:5.6345333 21:1 79:1 335:1 1212:1 1282:1 1442:1 1654:1 1655:1 1681:1 1683:1 1720:1 1721:1 1722:1 1723:1 1724:1 1725:1 
-0 1 1:0 2:2 3:6 4:0 5:1 6:7.6310667 25:1 32:1 98:1 106:1 165:1 204:1 514:1 890:1 1274:1 1589:1 1737:1 1738:1 1739:1 1740:1 1741:1 1742:1 1743:1 1744:1 
-0.2611213487513341 0 1:0 2:0 3:12 4:0 5:1 6:2.8703667 70:1 115:1 194:1 313:1 577:1 811:1 874:1 1107:1 1327:1 1432:1 1766:1 1767:1 1768:1 1769:1 1770:1 1771:1 
-0 1 1:0 2:2 3:4 4:0 5:1 6:2.4381 7:1 21:1 32:1 34:1 1066:1 1203:1 1410:1 
-0 1 1:0 2:2 3:7 4:0 5:1 6:6.1035667 14:1 37:1 115:1 243:2 273:1 315:1 1256:2 1258:1 1520:1 1829:1 1830:1 1831:1 1832:1 
-0 1 1:0 2:2 3:5 4:0 5:1 6:6.3566 21:2 98:1 487:1 1060:1 1413:1 1661:1 1833:1 1834:1 1835:1 1836:1 1837:1 1838:1 1839:1 
-1 0 1:0 2:0 3:5 4:0 5:1 6:6.8220667 11:1 21:1 29:1 38:1 98:1 467:1 892:1 977:1 1258:1 1412:1 1493:1 1847:1 1848:1 1849:1 1850:1 
-0 1 1:0 2:1 3:11 4:0 5:1 6:2.6204667 21:1 98:1 151:1 1413:1 1526:1 1749:1 1836:1 1851:1 1852:1 1853:1 1854:1 1855:1 1856:1 1857:1 1858:1 
-0 1 1:0 2:2 3:9 4:0 5:1 6:6.8931 21:1 25:1 79:1 83:1 487:1 949:1 970:1 1354:1 1597:1 1649:1 1758:1 1865:1 1870:1 1871:1 1872:1 1873:1 1874:1 1875:1 
-0 0.1862126544445934 1:0 2:1 3:8 4:0 5:1 6:6.9502 21:2 34:1 137:1 204:1 268:1 295:1 404:1 685:1 1230:1 1412:1 1542:1 1885:1 1886:1 1887:1 1888:1 1889:2 1890:1 
-0 1 1:0 2:2 3:8 4:0 5:1 6:4.5638 7:1 21:1 98:2 115:1 165:1 241:1 996:1 1437:1 1493:1 1895:1 1896:1 1897:1 1898:1 1899:1 
-0 1 1:0 2:1 3:5 4:0 5:1 6:2.7985 21:1 52:1 439:1 860:1 1624:1 1726:1 1779:1 1918:1 1919:1 
-0 1 1:0 2:2 3:2 4:0 5:1 6:3.8366 7:1 34:1 137:1 439:1 959:1 993:1 1493:1 
-0 1 1:0 2:2 3:5 4:0 5:1 6:4.8862667 7:1 32:1 34:1 236:1 541:1 694:1 964:1 1173:1 1920:1 1921:1 1922:1 
-0 1 1:0 2:4 3:8 4:0 5:1 6:5.5473 25:1 34:1 70:1 151:1 165:1 243:1 439:1 1007:1 1289:1 1624:1 1764:1 1856:1 1923:1 1924:1 1925:1 
-0 1 1:0 2:4 3:9 4:0 5:1 6:6.3723 25:1 70:1 151:1 165:1 439:1 1007:1 1289:1 1316:1 1340:1 1624:1 1932:1 1933:1 1934:1 1935:1 1936:1 1937:1 1938:1 
-0 1 1:0 2:2 3:4 4:0 5:1 6:2.9495333 21:1 98:1 439:1 949:1 1624:1 1626:1 1945:1 1946:1 
-0.07580492418113616 1 1:0 2:2 3:14 4:0 5:1 6:3.6719333 11:1 21:2 29:1 31:1 52:1 673:1 689:1 1023:1 1075:1 1681:1 1727:1 1959:1 1960:1 1961:1 1962:1 1963:1 1964:1 1965:1 
-0 1 1:0 2:2 3:11 4:0 5:1 6:3.4581667 21:2 70:1 98:1 496:1 977:1 1212:1 1236:1 1282:1 1666:1 1681:1 1720:1 1946:1 1974:1 1975:1 1976:1 
-0 1 1:0 2:2 3:7 4:0 5:1 6:6.0502333 21:2 79:1 83:1 98:1 115:1 129:1 141:1 786:1 910:1 1340:1 1357:1 1977:1 1978:1 1979:1 1980:1 
-0 1 1:0 2:4 3:5 4:0 5:1 6:7.0788333 21:1 98:1 251:1 295:1 487:1 1282:1 1413:1 1439:1 1836:1 1837:1 1981:1 1982:1 1983:1 1984:1 1985:1 
-0 1 1:0 2:1 3:3 4:0 5:1 6:4.9814667 32:1 53:1 80:1 910:1 1203:1 1446:1 1986:1 1987:1 1988:1 1989:1 
-0 1 1:0 2:2 3:8 4:0 5:1 6:5.1735667 32:1 83:1 487:1 910:1 2001:1 2002:1 2003:1 2004:1 2005:1 2006:1 2007:1 2008:1 2009:1 2010:1 2011:1 
-0 1 1:0 2:1 3:9 4:0 5:1 6:6.0297667 7:1 21:2 25:1 38:1 53:1 79:1 108:1 171:1 176:1 408:1 457:1 2018:1 2019:1 2020:1 2021:1 2022:1 
-0 1 1:0 2:1 3:9 4:0 5:1 6:2.7555667 21:1 43:1 55:2 76:1 698:1 1236:1 2031:1 2032:1 2033:1 2034:1 2035:1 2036:1 
-0 1 1:0 2:4 3:9 4:0 5:1 6:7.7850667 21:1 25:1 32:1 49:1 52:1 146:1 487:1 660:1 719:1 872:1 1681:1 1903:1 1961:1 2037:1 2038:1 2039:1 2040:1 2041:1 2042:1 2043:1 
-0 0.1586378502550659 1:0 2:3 3:12 4:0 5:1 6:6.9477667 21:1 32:1 49:1 52:1 53:1 70:1 143:1 146:1 165:2 341:1 660:1 872:1 1642:1 1846:1 2043:1 2072:1 2073:1 2074:1 2075:1 2076:1 2077:1 
-0 1 1:0 2:2 3:7 4:0 5:1 6:5.0793667 21:1 49:1 70:1 79:1 96:1 146:1 147:1 1316:1 2089:1 2090:1 2091:1 2092:1 2093:1 2094:1 
-0 1 1:0 2:2 3:11 4:0 5:1 6:4.8148333 21:3 32:1 79:1 487:1 946:1 1903:1 2039:1 2113:1 2114:1 2115:1 2116:1 2117:1 2118:1 2119:1 2120:1 2121:1 
-0 1 1:0 2:3 3:7 4:0 5:1 6:6.4441667 21:1 38:1 80:1 650:1 1203:1 1725:1 1901:1 1903:1 2119:1 2122:1 2123:1 2124:1 2125:1 2126:1 2127:1 2128:1 
-0 1 1:0 2:1 3:7 4:0 5:1 6:6.5137 14:1 25:1 32:1 70:1 98:1 281:1 573:1 811:1 872:1 900:1 949:1 977:1 1107:1 1493:1 1554:1 2162:1 2163:1 
-0 1 1:0 2:2 3:10 4:0 5:1 6:3.5274 21:2 70:1 544:1 986:1 1274:1 1275:1 1681:1 1726:1 1975:1 2164:1 2165:1 2166:1 2167:1 2168:1 
-0 1 1:0 2:2 3:8 4:0 5:1 6:5.3627 21:1 49:1 52:1 70:1 76:1 137:1 165:1 288:1 514:1 822:1 823:1 829:1 1223:1 1833:1 2173:1 2174:1 
-0 1 1:0 2:2 3:13 4:0 5:1 6:4.1181 21:2 32:1 98:1 165:1 1074:1 1824:1 1825:1 1826:1 1827:1 1828:1 1846:1 1973:1 2175:1 2176:1 2177:1 2178:1 2179:1 2180:1 
-1 0 1:0 2:0 3:13 4:0 5:1 6:0.66666667 15:1 21:1 38:2 70:1 878:1 1236:1 1457:1 1475:1 1947:1 1948:1 2185:1 2186:1 2187:1 
-0 1 1:0 2:2 3:11 4:0 5:1 6:6.1422 21:1 25:2 43:1 70:1 80:1 88:1 108:1 457:1 654:1 1060:1 1316:1 1535:1 2203:1 2204:1 2205:1 2206:1 2207:1 2208:1 
-0 1 1:0 2:2 3:5 4:0 5:1 6:6.3716667 32:1 57:1 70:1 108:1 137:1 399:1 457:1 514:1 1493:1 2022:1 2220:1 2221:1 2222:1 2223:1 
-0 1 1:0 2:2 3:7 4:0 5:1 6:6.3319 21:1 25:1 204:1 444:1 953:1 1007:1 1540:1 1833:1 2123:1 2222:1 2229:2 2230:1 2231:1 2232:1 2233:1 
-0 1 1:0 2:2 3:8 4:0 5:1 6:7.6991 25:1 53:1 137:1 165:1 204:1 295:1 685:1 910:1 1007:1 1275:1 1340:1 1666:1 1712:1 1923:1 2249:1 2250:1 2251:1 2252:1 2253:1 
-0 1 1:0 2:2 3:4 4:0 5:1 6:4.4547667 25:1 165:1 243:1 1007:1 1275:1 1624:1 1923:1 2057:1 2255:1 2263:1 
-0 1 1:0 2:2 3:8 4:0 5:1 6:5.3531667 32:1 49:1 52:1 53:1 106:1 146:1 653:1 660:1 738:1 1846:1 1907:1 2110:1 2222:1 2278:1 2279:1 2280:1 
-0 1 1:0 2:0 3:13 4:0 5:1 6:5.9238 20:1 21:2 32:2 49:1 52:1 70:1 110:1 111:1 146:1 147:1 315:1 544:1 719:1 881:2 949:1 1230:1 1294:1 1901:1 2281:1 
-0 1 1:0 2:1 3:4 4:0 5:1 6:3.9775 80:1 96:1 165:1 167:1 244:1 1437:1 1677:1 2282:1 2283:1 2284:1 
-0.5201611043789958 0 1:0 2:0 3:12 4:0 5:1 6:4.8538 76:1 88:1 98:1 115:1 165:1 485:1 707:1 811:1 1107:1 1331:1 1727:1 1912:1 1913:1 2175:1 2212:1 2265:1 2290:1 2291:1 2298:1 
-0 1 1:0 2:3 3:9 4:0 5:1 6:6.3077333 14:1 70:1 243:1 294:1 341:1 439:1 673:1 970:1 1350:1 1516:1 1782:1 1970:1 2303:1 2304:1 2305:1 2306:1 2307:1 2308:1 
-0 1 1:0 2:1 3:4 4:0 5:1 6:2.6296333 514:1 1203:1 1446:1 1745:1 2332:1 2333:1 2334:1 
-0 1 1:0 2:4 3:9 4:0 5:1 6:6.3867333 25:1 32:1 88:1 108:1 650:1 910:1 969:1 1203:1 2007:1 2328:1 2345:1 2346:1 2347:1 2348:1 2349:1 2350:1 2351:1 
-0 1 1:0 2:2 3:6 4:0 5:1 6:6.3938667 21:1 25:1 52:1 53:2 98:2 143:1 232:1 414:1 1412:1 1509:1 1811:1 2110:1 2357:1 2358:1 
-1 1 1:0 2:2 3:9 4:0 5:1 6:8.2032667 79:1 232:1 485:1 487:1 689:1 719:1 910:1 970:1 1594:1 1799:1 2306:1 2307:1 2414:1 2415:1 2416:1 2417:1 2418:1 2419:1 2420:1 
-0 1 1:0 2:2 3:8 4:0 5:1 6:6.9732667 21:1 76:1 88:1 111:1 315:2 427:1 599:1 671:1 685:1 1118:1 1173:1 1811:1 2307:1 2413:1 2421:1 2422:1 
-0 1 1:0 2:1 3:11 4:0 5:1 6:2.3523667 14:1 32:1 55:1 175:1 427:1 870:1 1282:1 1720:1 2130:1 2226:1 2254:1 2443:1 2444:1 2445:1 
-0 1 1:0 2:2 3:10 4:0 5:1 6:3.3624333 21:2 32:1 53:1 165:2 310:1 1846:1 1909:1 2074:1 2454:1 2455:1 2456:1 2457:1 2458:1 
-1 1 1:0 2:0 3:14 4:0 5:1 6:1.9682333 8:1 21:2 38:1 70:1 165:1 574:1 1236:1 2470:1 2471:1 2472:1 2473:1 2474:1 2475:1 2476:1 2477:1 2478:1 
-0 1 1:0 2:4 3:8 4:0 5:1 6:8.3482333 32:1 55:1 83:1 137:1 165:1 294:1 439:1 689:1 970:1 1348:1 1493:1 1920:1 1921:1 2297:1 2417:1 2490:1 2491:1 2492:1 2493:1 2494:1 
-0 1 1:0 2:2 3:8 4:0 5:1 6:5.3563667 32:1 88:1 106:1 108:1 110:1 165:1 587:1 878:1 1173:1 1203:1 2000:1 2072:1 2153:1 2500:1 2501:1 
-0 1 1:0 2:3 3:9 4:0 5:1 6:6.7342 21:1 70:1 79:1 98:1 243:1 439:1 487:1 1350:1 1354:1 1357:1 1528:1 1757:1 1837:1 2369:1 2508:1 2509:1 2510:1 2511:1 
-0.798250488664707 0 1:0 2:1 3:8 4:0 5:1 6:6.2876667 21:1 53:1 70:1 83:1 88:1 232:1 707:1 890:1 1007:1 1833:1 2535:1 2536:1 2537:1 2538:1 2539:1 2540:1 
-0 1 1:0 2:2 3:7 4:0 5:1 6:6.4629667 14:1 15:1 21:1 80:1 165:1 294:1 341:1 359:1 869:1 876:1 1290:1 1737:1 2541:1 2542:1 2543:1 2544:1 2545:1 
-0 1 1:0 2:3 3:9 4:0 5:1 6:5.0876 70:1 98:1 439:1 1169:1 1256:1 2572:1 2573:2 2574:1 2575:1 2576:1 2577:1 2578:1 2579:1 2580:1 2581:1 
-0 1 1:0 2:2 3:12 4:0 5:1 6:4.0145667 14:1 21:1 32:1 141:1 165:1 487:1 1271:1 1846:1 1979:1 2309:1 2354:1 2582:1 2583:1 2584:1 2585:1 2586:1 2587:1 2588:1 
-0.7604079441769558 1 1:0 2:0 3:7 4:0 5:1 6:2.3690333 49:1 137:1 861:1 970:1 1256:1 1802:1 1827:2 2177:1 2589:1 2590:1 
-0.8561374461422888 0 1:1 2:0 3:12 4:0 5:1 6:6.6017 14:1 20:1 21:2 54:1 70:1 80:1 108:1 377:1 487:1 719:1 1060:1 1080:1 1457:1 1500:1 2601:1 2602:1 2603:1 2604:1 2605:1 2606:1 2607:1 
-0.696111432700051 1 1:0 2:1 3:13 4:0 5:1 6:7.4529 14:1 20:1 21:1 25:1 32:1 54:1 88:1 890:1 970:1 1013:1 1278:1 1749:1 2060:1 2270:1 2357:1 2536:1 2586:1 2612:1 2613:1 2614:1 2615:1 2616:1 2617:1 
-0 1 1:0 2:2 3:10 4:0 5:1 6:2.3571667 21:2 70:1 1275:1 1282:1 1316:1 1681:1 1720:1 1975:1 2028:1 2637:1 2638:1 2639:1 
